svm_type c_svc
kernel_type rbf
gamma 0.00324675
nr_class 7
total_sv 1061
rho 0.134843 -0.42005 -0.65749 -0.653452 -0.423526 -0.463038 -0.52663 -0.745185 -0.753603 -0.551055 -0.630492 -0.35696 -0.369525 -0.0489551 -0.10015 0.0440266 0.319634 0.291659 0.367592 0.285466 -0.0461324
label 1 2 3 4 5 6 7
probA -8.392 -7.48517 -6.18701 -5.63537 -7.22832 -6.15226 -8.00005 -5.99885 -6.03791 -8.6376 -7.54896 -5.32703 -5.43303 -6.54423 -6.38951 -4.34785 -5.73086 -5.7503 -6.05399 -6.07451 -6.6859
probB -0.437752 0.723809 -1.32603 -0.740893 0.767367 0.153108 1.02009 -0.493572 -0.687039 1.96129 1.01271 -1.03428 -0.525516 0.649786 -0.0344891 0.547061 1.12587 0.420114 0.866791 0.558265 -0.163383
nr_sv 180 200 171 116 114 154 126
SV
0.8052824005498823 0.4573552477930594 0.2384558150129378 0.2394143571247862 0.3969509117637455 0.3735272052994601 1:0.1246106 2:0.1246106 3:0.1246106 4:0 5:0 6:0 7:0 8:0 9:0 10:0 11:0 12:0 13:0 14:0 15:0 16:0 17:0 18:0.062305298 19:0.31152648 20:1.1838006 21:11.713412 22:13.457965 23:15.264823 24:37.507866 25:12.02494 26:4.48598 27:0.93457931 28:0.31152648 29:0.37383178 30:0.62305295 31:0.18691589 32:0.37383178 33:0.1246106 34:0.18691589 35:0.062305298 36:0.1246106 37:0 38:0.062305298 39:0 40:0 41:0 42:0.062305298 43:0.1246106 44:0 45:0.1246106 46:0 47:0 48:0 49:0.80996877 50:3.7383158 51:3.9875367 52:1.4330219 53:1.4953272 54:0.68535823 55:0.49844238 56:0.56074768 57:0.49844238 58:0.7476635 59:0.31152648 60:2.616822 61:5.2959509 62:4.48598 63:5.6697836 64:6.8535872 65:4.2990637 66:3.1152637 67:2.9906533 68:2.616822 69:2.7414324 70:3.7383158 71:2.4299064 72:3.5514002 73:9.4081106 74:12.211856 75:5.9190054 76:1.9314646 77:0.49844238 78:1.0591899 79:0.43613708 80:0.18691589 81:0.062305298 82:0.062305298 83:0.1246106 84:0.1246106 85:0 86:0.062305298 87:1.7445486 88:0 89:0.062305298 90:0.99688458 91:0 92:0 93:0 94:0.87227404 95:0.99688458 96:0.68535823 97:0.68535823 98:0.62305295 99:0.62305295 100:0.7476635 101:0.43613708 102:0.80996877 103:1.1214952 104:2.0560751 105:1.8691592 106:1.8691592 107:4.1744528 108:5.17134 109:9.9688597 110:11.090358 111:15.015601 112:5.5451727 113:0.1246106 114:0.37383178 115:1.1214952 116:3.2398741 117:4.48598 118:4.8598127 119:3.8629262 120:3.1152637 121:1.6822432 122:0.93457931 123:0.80996877 124:0.68535823 125:0.68535823 126:0.24922119 127:0.31152648 128:0.49844238 129:0.80996877 130:1.8068539 131:6.0436163 132:0 133:0 134:0 135:0 136:0 137:0 138:0 139:0 140:0 141:0 142:0 143:0 144:0 145:0 146:0 147:0 148:0 149:0 150:0 151:0 152:0 153:0 154:0 155:0 156:0 157:0 158:0 159:0 160:0 161:0 162:0 163:0 164:0 165:0 166:0 167:0 168:0 169:0 170:0 171:0 172:0 173:0 174:0 175:0 176:0 177:0 178:0 179:0 180:0 181:0 182:0 183:0 184:0 185:0 186:0 187:0 188:0 189:0 190:0 191:0 192:0 193:0 194:0 195:0 196:0 197:0 198:0 199:0 200:0 201:0 202:0 203:0 204:0 205:0 206:0 207:0 208:0 209:0 210:0 211:0 212:0 213:0 214:0 215:0 216:0 217:0 218:0 219:0 220:0 221:0 222:0 223:0 224:0 225:0 226:0 227:0 228:0 229:0 230:0 231:0 232:0 233:0 234:0 235:0 236:0 237:0 238:0 239:0 240:0 241:0 242:0 243:0 244:0 245:0 246:0 247:0 248:0 249:0 250:0 251:0 252:0.062266499 253:0.062266499 254:0 255:0 256:0 257:0 258:0 259:0 260:0 261:0 262:0.124533 263:0.124533 264:0.249066 265:0.062266499 266:0.249066 267:0.124533 268:0.31133249 269:0.7471981 270:0.43586549 271:1.0585307 272:2.9887931 273:1.8057283 274:2.9265265 275:2.9265265 276:3.3623927 277:7.2851753 278:9.3399649 279:7.5965071 280:4.7945213 281:4.0473251 282:5.6662502 283:2.9265265 284:2.1170609 285:1.1207972 286:1.1207972 287:0.93399769 288:0.87173116 289:1.3075966 290:1.369863 291:0.93399769 292:1.1207972 293:1.494396 294:0.99626422 295:1.5566624 296:1.8057283 297:2.7397268 298:4.9813204 299:1.5566624 300:0.7471981 301:1.2453301 302:2.1793275 303:3.1133263 304:2.6151936 305:1.1207972 306:1.1207972 307:1.4321295 308:1.1207972 
0.7288420814473305 0.3441988094626485 0.2200074734417778 0.220686915656048 0.3632137561000799 0.3447799029428936 1:0 2:0 3:0 4:0 5:0 6:0 7:0 8:0.14440434 9:0.28880867 10:0.072202168 11:0.57761735 12:0 13:0.28880867 14:0.072202168 15:0.57761735 16:1.0108303 17:0.36101085 18:1.1552347 19:1.5884479 20:4.4765358 21:3.393503 22:10.613706 23:43.970959 24:12.418749 25:3.8989184 26:3.5379074 27:4.4765358 28:5.2707601 29:0.43321303 30:0.2166065 31:0.5054152 32:0.28880867 33:0 34:0.2166065 35:0 36:0 37:0.072202168 38:0.14440434 39:0 40:0 41:0 42:0 43:0 44:0 45:0 46:0 47:0 48:0 49:0 50:0.14440434 51:3.1046941 52:1.6606501 53:2.0938632 54:3.0324919 55:1.5162457 56:1.8772568 57:1.8050545 58:0.79422379 59:1.0830325 60:6.2093887 61:4.1155248 62:5.1985579 63:5.9927821 64:9.3140745 65:4.6209402 66:3.0324919 67:1.949459 68:1.4440435 69:1.2996391 70:2.021661 71:2.5992787 72:3.4657052 73:2.4548743 74:3.1768963 75:3.9711206 76:4.1155248 77:5.1263556 78:2.2382677 79:2.1660655 80:1.2996391 81:0.36101085 82:1.3718413 83:0.64981949 84:0.72202164 85:3.5379074 86:0.28880867 87:0 88:0 89:0.072202168 90:0.14440434 91:0.57761735 92:0.36101085 93:0.36101085 94:0.2166065 95:0.14440434 96:0.93862808 97:5.0541534 98:3.1768963 99:0.64981949 100:0.79422379 101:1.2996391 102:2.7436831 103:3.754514 104:3.1046941 105:1.3718413 106:1.4440435 107:2.9602897 108:2.9602897 109:3.754514 110:8.375452 111:12.274345 112:9.2418728 113:3.6101096 114:11.913337 115:3.6101096 116:1.949459 117:0.79422379 118:0.86642593 119:0.72202164 120:0.72202164 121:1.4440435 122:1.8050545 123:1.949459 124:1.6606501 125:0.5054152 126:0.14440434 127:0.2166065 128:0.2166065 129:0.2166065 130:0 131:0.64981949 132:1.4440435 133:0.072202168 134:0 135:0 136:0 137:0 138:0 139:0 140:0 141:0 142:0 143:0 144:0 145:0 146:0 147:0 148:0 149:0 150:0 151:0 152:0 153:0 154:0 155:0 156:0 157:0 158:0 159:0 160:0 161:0 162:0 163:0 164:0 165:0 166:0 167:0 168:0 169:0 170:0 171:0 172:0 173:0 174:0 175:0 176:0 177:0 178:0 179:0 180:0 181:0 182:0 183:0 184:0 185:0 186:0 187:0 188:0 189:0 190:0 191:0 192:0 193:0 194:0 195:0 196:0 197:0 198:0 199:0 200:0 201:0 202:0 203:0 204:0 205:0 206:0 207:0 208:0 209:0 210:0 211:0 212:0 213:0 214:0 215:0 216:0 217:0 218:0 219:0 220:0 221:0 222:0 223:0 224:0 225:0 226:0 227:0 228:0 229:0 230:0 231:0 232:0 233:0 234:0 235:0 236:0 237:0 238:0 239:0 240:0 241:0 242:0 243:0 244:0.072150074 245:0 246:0.21645021 247:0.14430015 248:0 249:0 250:0.072150074 251:0 252:0.14430015 253:0 254:0.072150074 255:0.072150074 256:0.072150074 257:0.2886003 258:0 259:0.36075038 260:0.14430015 261:0.21645021 262:0.72150069 263:0.21645021 264:0.14430015 265:0.79365075 266:0.93795085 267:0.79365075 268:0.8658008 269:2.0202024 270:2.0202024 271:1.659452 272:1.7316021 273:0.8658008 274:0.79365075 275:1.2265513 276:1.1544012 277:2.1645024 278:1.4430016 279:1.2987014 280:1.8759023 281:2.8860023 282:2.8860023 283:4.4733038 284:3.6796522 285:4.545454 286:2.7417023 287:2.8138523 288:2.8138523 289:2.2366524 290:1.1544012 291:1.1544012 292:1.4430016 293:1.3708515 294:1.8037522 295:2.1645024 296:1.4430016 297:1.8037522 298:2.1645024 299:1.8037522 300:0.93795085 301:1.3708515 302:2.0923524 303:3.7518022 304:4.1125526 305:10.822524 306:4.0404024 307:2.8860023 308:0 
0.8202442173916756 0.4188996434129696 0.2479438780846911 0.2504813066566374 0.4168010561000769 0.3882040004919893 1:0 2:0 3:0 4:0 5:0 6:0 7:0 8:0 9:0 10:0 11:0 12:0 13:0 14:0 15:0 16:0 17:0 18:0 19:0 20:0 21:0 22:1.0338886 23:80.241882 24:18.322752 25:0.45950603 26:0 27:0 28:0 29:0 30:0 31:0 32:0 33:0 34:0 35:0 36:0 37:0 38:0 39:0 40:0 41:0 42:0 43:0 44:0 45:0 46:0 47:0 48:0 49:0 50:0 51:0 52:0 53:0 54:0 55:0 56:0 57:0 58:0 59:0 60:0 61:0 62:0 63:0 64:0.22975302 65:6.9500389 66:12.176896 67:23.147535 68:20.907457 69:15.738046 70:13.785157 71:6.3182168 72:0.68925905 73:0.11487651 74:0 75:0 76:0 77:0 78:0 79:0 80:0 81:0 82:0 83:0 84:0 85:0 86:0 87:0 88:0 89:0 90:0 91:0 92:0 93:0 94:0 95:0 96:0.11487651 97:0 98:0 99:0 100:0 101:0.057438254 102:0.057438254 103:0.057438254 104:0.11487651 105:0.11487651 106:0.34462953 107:0.57438254 108:2.6995993 109:4.9971342 110:12.004582 111:17.633497 112:22.113653 113:8.2136812 114:12.866151 115:5.3992028 116:2.8719144 117:2.8719144 118:2.5272841 119:1.5508329 120:1.2062033 121:0.68925905 122:0.45950603 123:0.11487651 124:0.22975302 125:0.057438254 126:0 127:0.057438254 128:0 129:0 130:0 131:0 132:0.057438254 133:0 134:0 135:0 136:0 137:0 138:0 139:0 140:0 141:0 142:0 143:0 144:0 145:0 146:0 147:0 148:0 149:0 150:0 151:0 152:0 153:0 154:0 155:0 156:0 157:0 158:0 159:0 160:0 161:0 162:0 163:0 164:0 165:0 166:0 167:0 168:0 169:0 170:0 171:0 172:0 173:0 174:0 175:0 176:0 177:0 178:0 179:0 180:0 181:0 182:0 183:0 184:0 185:0 186:0 187:0 188:0 189:0 190:0 191:0 192:0 193:0 194:0 195:0 196:0 197:0 198:0 199:0 200:0 201:0 202:0 203:0 204:0 205:0 206:0 207:0 208:0 209:0 210:0 211:0 212:0 213:0 214:0 215:0 216:0 217:0 218:0 219:0 220:0 221:0 222:0 223:0 224:0 225:0 226:0 227:0 228:0 229:0 230:0 231:0 232:0 233:0 234:0 235:0 236:0 237:0 238:0 239:0 240:0 241:0 242:0 243:0 244:0 245:0 246:0 247:0 248:0 249:0 250:0 251:0 252:0 253:0 254:0 255:0 256:0 257:0 258:0 259:0 260:0 261:0 262:0 263:0 264:0 265:0 266:0 267:0 268:0 269:0 270:0 271:0 272:0 273:0 274:0 275:0 276:0 277:0 278:0 279:0 280:0 281:0 282:0 283:0 284:0 285:0 286:0 287:0 288:0 289:0 290:0 291:0 292:0 293:0 294:0.17221585 295:0.40183699 296:3.214694 297:3.9035568 298:3.0424783 299:9.8737249 300:19.69006 301:17.91049 302:12.284755 303:11.423673 304:11.308862 305:5.568315 306:0.63145816 307:0.57405287 308:0 
0.6340664800774277 0.3334717247769751 0.1919221534547357 0.1931647041405362 0.3253789774246867 0.3010382882177377 1:0 2:0 3:0 4:0 5:0 6:0 7:0 8:0 9:0 10:0 11:0 12:0 13:0 14:0 15:0 16:0 17:0 18:0 19:0 20:0 21:6.0502844 22:4.2181497 23:42.905743 24:22.369047 25:9.6293201 26:8.5215302 27:3.7920728 28:1.8747331 29:0.68172139 30:0 31:0 32:0 33:0 34:0 35:0 36:0 37:0 38:0 39:0 40:0 41:0 42:0 43:0 44:0 45:0 46:0 47:0 48:0 49:0 50:0 51:0 52:4.0477185 53:4.6016197 54:0.93736702 55:0.85215181 56:0.46868336 57:0.38346821 58:0.42607579 59:0.42607579 60:0.46868336 61:1.6616954 62:4.0477185 63:5.1981287 64:4.8998742 65:3.579035 66:3.49382 67:3.962503 68:4.0477185 69:4.6868353 70:5.4963832 71:4.6016197 72:4.9850898 73:5.1555209 74:5.1981287 75:8.2658863 76:9.6293201 77:6.2207155 78:0.89475942 79:0.51129097 80:0.80954421 81:0.085215166 82:0 83:0 84:0 85:0 86:0 87:0 88:0 89:0 90:0 91:0.042607583 92:0.12782276 93:0.12782276 94:0 95:0.042607583 96:0.59650618 97:2.641669 98:1.1930124 99:3.2381747 100:2.0877709 101:2.5564539 102:1.2356199 103:0.85215181 104:1.789518 105:2.3008087 106:3.6642501 107:7.4563413 108:5.1555209 109:6.7746167 110:10.950147 111:8.6919594 112:9.331069 113:9.1180325 114:5.3685598 115:3.2381747 116:2.0877709 117:0.89475942 118:0.51129097 119:0.59650618 120:0.80954421 121:1.0225822 122:0.93736702 123:1.4486576 124:0.72432899 125:1.0651897 126:0.42607579 127:0.29825306 128:0.17043033 129:0.17043033 130:0.085215166 131:0.085215166 132:0.12782276 133:0 134:0 135:0 136:0 137:0 138:0 139:0 140:0 141:0 142:0 143:0 144:0 145:0 146:0 147:0 148:0 149:0 150:0 151:0 152:0 153:0 154:0 155:0 156:0 157:0 158:0 159:0 160:0 161:0 162:0 163:0 164:0 165:0 166:0 167:0 168:0 169:0 170:0 171:0 172:0 173:0 174:0 175:0 176:0 177:0 178:0 179:0 180:0 181:0 182:0 183:0 184:0 185:0 186:0 187:0 188:0 189:0 190:0 191:0 192:0 193:0 194:0 195:0 196:0 197:0 198:0 199:0 200:0 201:0 202:0 203:0 204:0 205:0 206:0 207:0 208:0 209:0 210:0 211:0 212:0 213:0 214:0 215:0 216:0 217:0 218:0 219:0 220:0 221:0 222:0 223:0 224:0 225:0 226:0 227:0 228:0 229:0 230:0 231:0 232:0 233:0 234:0 235:0 236:0 237:0 238:0 239:0 240:0 241:0 242:0 243:0 244:0 245:0 246:0 247:0 248:0 249:0 250:0 251:0 252:0 253:0.042589437 254:0.085178874 255:0.085178874 256:0.21294719 257:0.042589437 258:0.21294719 259:0.12776831 260:0.17035775 261:0.12776831 262:0 263:0.042589437 264:0 265:0 266:0 267:0 268:0 269:0 270:0.042589437 271:0.042589437 272:0.085178874 273:0.042589437 274:0.21294719 275:0.21294719 276:0.12776831 277:0.085178874 278:0 279:0.29812604 280:0.5536626 281:0.42589432 282:0.38330489 283:1.0221463 284:0.68143088 285:1.8313454 286:3.0664389 287:4.1311755 288:5.9625311 289:4.9403791 290:4.9829688 291:3.3645649 292:3.1090283 293:3.1516178 294:2.5127764 295:2.1294715 296:1.8739349 297:1.6609877 298:1.6183983 299:2.5979552 300:4.7274308 301:4.3867135 302:4.7700205 303:4.6422515 304:3.7052803 305:3.7478697 306:2.9386706 307:4.3441238 308:14.437802 
0.2288725947697961 0.1112185596079217 0.06973522672717125 0.0702907864545131 0.1174753809363372 0.1094467973718673 1:0 2:0 3:0 4:0 5:0 6:0 7:0 8:0 9:0 10:0 11:0 12:0 13:0 14:0 15:0 16:0 17:0 18:0 19:0 20:0 21:0.92510992 22:4.4493399 23:48.589821 24:41.189064 25:4.0528622 26:0.83700424 27:0 28:0 29:0 30:0 31:0 32:0 33:0 34:0 35:0 36:0 37:0 38:0 39:0 40:0 41:0 42:0 43:0 44:0 45:0 46:0 47:0 48:0 49:0 50:0 51:0 52:0 53:0 54:0 55:0 56:0 57:0 58:0 59:0 60:0 61:0 62:0.39647579 63:4.4933929 64:5.110136 65:9.2511253 66:10.925142 67:17.797384 68:18.634375 69:8.9868069 70:9.6916561 71:7.4890022 72:4.3171806 73:2.0704839 74:0.66079289 75:0.22026432 76:0 77:0 78:0 79:0 80:0 81:0 82:0 83:0 84:0 85:0 86:0 87:0 88:0 89:0 90:0 91:0 92:0 93:0 94:0 95:0 96:0 97:0 98:0.13215858 99:0.088105723 100:0.26431718 101:0.13215858 102:0.26431718 103:0.13215858 104:0.35242292 105:1.4096912 106:1.8942724 107:5.5506668 108:9.6916561 109:15.462609 110:14.317229 111:11.89431 112:16.431768 113:2.599118 114:2.2026424 115:3.1277521 116:2.8193822 117:4.4933929 118:2.2907481 119:1.189427 120:0.70484573 121:0.66079289 122:0.66079289 123:0.39647579 124:0.35242292 125:0.26431718 126:0.13215858 127:0 128:0 129:0.044052862 130:0 131:0 132:0 133:0.044052862 134:0.044052862 135:0 136:0 137:0 138:0 139:0 140:0 141:0 142:0 143:0 144:0 145:0 146:0 147:0 148:0 149:0 150:0 151:0 152:0 153:0 154:0 155:0 156:0 157:0 158:0 159:0 160:0 161:0 162:0 163:0 164:0 165:0 166:0 167:0 168:0 169:0 170:0 171:0 172:0 173:0 174:0 175:0 176:0 177:0 178:0 179:0 180:0 181:0 182:0 183:0 184:0 185:0 186:0 187:0 188:0 189:0 190:0 191:0 192:0 193:0 194:0 195:0 196:0 197:0 198:0 199:0 200:0 201:0 202:0 203:0 204:0 205:0 206:0 207:0 208:0 209:0 210:0 211:0 212:0 213:0 214:0 215:0 216:0 217:0 218:0 219:0 220:0 221:0 222:0 223:0 224:0 225:0 226:0 227:0 228:0 229:0 230:0 231:0 232:0 233:0 234:0 235:0 236:0 237:0 238:0 239:0 240:0 241:0 242:0 243:0 244:0 245:0 246:0 247:0 248:0 249:0 250:0 251:0 252:0 253:0 254:0 255:0 256:0 257:0 258:0 259:0 260:0 261:0 262:0 263:0 264:0 265:0 266:0 267:0 268:0 269:0 270:0 271:0 272:0 273:0 274:0 275:0 276:0 277:0 278:0 279:0 280:0 281:0 282:0 283:0 284:0 285:0.044033464 286:0.044033464 287:0.13210039 288:0.044033464 289:0.088066928 290:0.26420078 291:0.39630118 292:0.8806693 293:0.66050196 294:0.70453542 295:0.74856889 296:2.6860411 297:1.9815047 298:1.8494045 299:3.1704099 300:5.7243543 301:8.5424938 302:11.580774 303:11.977072 304:11.404642 305:11.580774 306:14.619055 307:9.9955845 308:0.8806693 
1 0.5255509369825029 1 1 0.8813942543413859 1 1:100.09262 2:0 3:0 4:0 5:0 6:0 7:0 8:0 9:0 10:0 11:0 12:0 13:0 14:0 15:0 16:0 17:0 18:0 19:0 20:0 21:0 22:0 23:0 24:0 25:0 26:0 27:0 28:0 29:0 30:0 31:0 32:0 33:0 34:0 35:0 36:0 37:0 38:0 39:0 40:0 41:0 42:0 43:0 44:0 45:0 46:100.09262 47:0 48:0 49:0 50:0 51:0 52:0 53:0 54:0 55:0 56:0 57:0 58:0 59:0 60:0 61:0 62:0 63:0 64:0 65:0 66:0 67:0 68:0 69:0 70:0 71:0 72:0 73:0 74:0 75:0 76:0 77:0 78:0 79:0 80:0 81:0 82:0 83:0 84:0 85:0 86:0 87:0 88:0 89:0 90:0 91:100.09262 92:0 93:0 94:0 95:0 96:0 97:0 98:0 99:0 100:0 101:0 102:0 103:0 104:0 105:0 106:0 107:0 108:0 109:0 110:0 111:0 112:0 113:0 114:0 115:0 116:0 117:0 118:0 119:0 120:0 121:0 122:0 123:0 124:0 125:0 126:0 127:0 128:0 129:0 130:0 131:0 132:0 133:0 134:0 135:0 136:0 137:0 138:0 139:0 140:0 141:0 142:0 143:0 144:0 145:0 146:0 147:0 148:0 149:0 150:0 151:0 152:0 153:0 154:0 155:0 156:0 157:0 158:0 159:0 160:0 161:0 162:0 163:0 164:0 165:0 166:0 167:0 168:0 169:0 170:0 171:0 172:0 173:0 174:0 175:0 176:0 177:0 178:0 179:0 180:0 181:0.093457945 182:0 183:0 184:0 185:0 186:0 187:0 188:0 189:0 190:0 191:0 192:0 193:0 194:0 195:0 196:0 197:0 198:0 199:0 200:0 201:0 202:0 203:0 204:0 205:0 206:0 207:0 208:0 209:0 210:0 211:0 212:0 213:0 214:0 215:0 216:0 217:0 218:0 219:0 220:0 221:0 222:0 223:0 224:0 225:0 226:0 227:0 228:0 229:0 230:0 231:0 232:0 233:0 234:0 235:0 236:0 237:0 238:0 239:0 240:0 241:0 242:0 243:0 244:0 245:0 246:0 247:0 248:0 249:0 250:0 251:0 252:0 253:0 254:0 255:0 256:0 257:0 258:0 259:0 260:0 261:0 262:0 263:0 264:0 265:0 266:0 267:0 268:0 269:0 270:0.28037384 271:0.56074768 272:0.84112149 273:1.0280374 274:2.4299066 275:3.0841122 276:2.7102804 277:4.6728988 278:9.5327234 279:5.9813132 280:5.327106 281:7.7570186 282:5.7943969 283:5.7943969 284:3.8317757 285:3.7383177 286:4.1121497 287:2.2429907 288:2.3364487 289:0.84112149 290:0.74766356 291:1.3084112 292:0.74766356 293:3.5514019 294:1.0280374 295:2.2429907 296:1.8691589 297:1.3084112 298:0.65420562 299:1.4018692 300:2.8971963 301:2.6168225 302:1.8691589 303:1.1214954 304:1.2149533 305:1.0280374 306:0.18691589 307:1.2149533 308:0 
0 0.2664503656234565 0 0 0 0 1:0 2:0 3:0 4:0 5:0 6:0 7:0 8:0.10565241 9:0 10:0 11:0 12:0 13:0 14:0 15:0 16:0.052826203 17:0.52826202 18:1.2678288 19:4.5430536 20:2.7997878 21:11.463282 22:12.150019 23:21.975641 24:23.454767 25:14.949793 26:5.9693666 27:0.6867407 28:0.052826203 29:0 30:0.052826203 31:0 32:0 33:0 34:0 35:0 36:0 37:0 38:0 39:0 40:0 41:0 42:0 43:0 44:0 45:0 46:0 47:0 48:0 49:0.052826203 50:2.0073953 51:3.4865279 52:2.9582663 53:0.73956692 54:0.31695721 55:0.21130481 56:0.47543579 57:0.15847862 58:2.7997878 59:1.4263073 60:1.954569 61:2.8526139 62:7.3428531 63:6.022193 64:4.7543592 65:3.8563111 66:3.8034849 67:3.1695709 68:2.5356569 69:2.5884831 70:3.8034849 71:4.7543592 72:6.9202418 73:8.0295963 74:4.2789216 75:4.1204424 76:3.6978326 77:1.6904382 78:0.4226096 79:0.052826203 80:0.052826203 81:0.31695721 82:0.58108824 83:0.95087183 84:0.95087183 85:2.2186999 86:1.4791335 87:2.2186999 88:0 89:0 90:0 91:0 92:0 93:0 94:0 95:0.052826203 96:0.052826203 97:0.15847862 98:0.10565241 99:0.26413101 100:0.31695721 101:0.21130481 102:0.73956692 103:1.1093503 104:1.0565242 105:1.637612 106:3.5393541 107:7.2372003 108:5.4411025 109:9.6143742 110:12.625452 111:8.3465519 112:1.9017428 113:1.003698 114:2.1658738 115:2.7997878 116:1.1621765 117:2.5356569 118:3.8563111 119:4.0147896 120:5.5995817 121:4.3845744 122:2.4828308 123:1.8489166 124:0.95087183 125:0.63391447 126:0.21130481 127:0.3697834 128:1.003698 129:2.1658738 130:3.3808756 131:4.2260952 132:0.84521937 133:0 134:0 135:0 136:0 137:0 138:0 139:0 140:0 141:0 142:0 143:0 144:0 145:0 146:0 147:0 148:0 149:0 150:0 151:0 152:0 153:0 154:0 155:0 156:0 157:0 158:0 159:0 160:0 161:0 162:0 163:0 164:0 165:0 166:0 167:0 168:0 169:0 170:0 171:0 172:0 173:0 174:0 175:0 176:0 177:0 178:0 179:0 180:0 181:0 182:0 183:0 184:0 185:0 186:0 187:0 188:0 189:0 190:0 191:0 192:0 193:0 194:0 195:0 196:0 197:0 198:0 199:0 200:0 201:0 202:0 203:0 204:0 205:0 206:0 207:0 208:0 209:0 210:0 211:0 212:0 213:0 214:0 215:0 216:0 217:0 218:0 219:0 220:0 221:0 222:0 223:0 224:0 225:0 226:0 227:0 228:0 229:0 230:0 231:0 232:0 233:0 234:0 235:0 236:0 237:0 238:0 239:0 240:0 241:0 242:0 243:0.052798312 244:0 245:0.10559662 246:0 247:0.052798312 248:0.10559662 249:0.10559662 250:0.052798312 251:0.10559662 252:0.15839493 253:0 254:0.10559662 255:0.10559662 256:0.31678987 257:0.15839493 258:0.21119325 259:0.21119325 260:0.36958817 261:0.63357973 262:0.63357973 263:0.42238647 264:0.31678987 265:0.36958817 266:0.42238647 267:0.42238647 268:0.42238647 269:0.42238647 270:0.21119325 271:0.31678987 272:1.5311507 273:2.4815197 274:2.1119318 275:1.7951421 276:1.7951421 277:3.5374851 278:3.115099 279:4.1710644 280:5.649416 281:4.9102402 282:4.6462488 283:5.068635 284:2.534318 285:2.534318 286:2.9039059 287:2.6927128 288:2.534318 289:1.8479403 290:1.2143611 291:1.9535369 292:1.9007386 293:3.0623007 294:1.0559663 295:1.3199576 296:0.79197472 297:0.95036972 298:2.0063353 299:2.4287214 300:3.1678972 301:1.5311507 302:4.4350557 303:1.003168 304:2.1647301 305:1.583949 306:2.3759232 307:1.8479403 308:2.534318 
0.6319776319586913 0.3244740942962517 0.1913909737356131 0.1935459036406872 0.3222974721578261 0.2998853652687477 1:0 2:0 3:0 4:0 5:0 6:0 7:0 8:0 9:0 10:0 11:0 12:0 13:0 14:0 15:0 16:0 17:0 18:0 19:0 20:0 21:1.3210799 22:4.8248191 23:55.427635 24:38.138828 25:0.34462953 26:0 27:0 28:0 29:0 30:0 31:0 32:0 33:0 34:0 35:0 36:0 37:0 38:0 39:0 40:0 41:0 42:0 43:0 44:0 45:0 46:0 47:0 48:0 49:0 50:0 51:0 52:0 53:0 54:0 55:0 56:0 57:0 58:0 59:0 60:0 61:0.45950603 62:0.86157382 63:0.51694429 64:0.74669731 65:0.57438254 66:5.8012714 67:19.643824 68:28.48926 69:25.100424 70:10.798387 71:4.8248191 72:0.28719127 73:0.34462953 74:0.45950603 75:0.22975302 76:0.6318208 77:0.057438254 78:0.17231476 79:0.057438254 80:0 81:0 82:0 83:0 84:0 85:0 86:0 87:0 88:0 89:0 90:0 91:0 92:0 93:0.11487651 94:0 95:0 96:0.057438254 97:0.11487651 98:0.11487651 99:0.17231476 100:0.22975302 101:0.28719127 102:0.22975302 103:0.6318208 104:1.3785181 105:1.0913268 106:2.5847225 107:4.4227505 108:9.0178118 109:10.109132 110:9.994256 111:13.44053 112:21.079771 113:9.0752497 114:6.1459017 115:4.8248191 116:2.4698458 117:1.2062033 118:0.45950603 119:0.40206778 120:0.34462953 121:0.057438254 122:0 123:0 124:0 125:0 126:0 127:0 128:0 129:0 130:0 131:0 132:0 133:0 134:0 135:0 136:0 137:0 138:0 139:0 140:0 141:0 142:0 143:0 144:0 145:0 146:0 147:0 148:0 149:0 150:0 151:0 152:0 153:0 154:0 155:0 156:0 157:0 158:0 159:0 160:0 161:0 162:0 163:0 164:0 165:0 166:0 167:0 168:0 169:0 170:0 171:0 172:0 173:0 174:0 175:0 176:0 177:0 178:0 179:0 180:0 181:0 182:0 183:0 184:0 185:0 186:0 187:0 188:0 189:0 190:0 191:0 192:0 193:0 194:0 195:0 196:0 197:0 198:0 199:0 200:0 201:0 202:0 203:0 204:0 205:0 206:0 207:0 208:0 209:0 210:0 211:0 212:0 213:0 214:0 215:0 216:0 217:0 218:0 219:0 220:0 221:0 222:0 223:0 224:0 225:0 226:0 227:0 228:0 229:0 230:0 231:0 232:0 233:0 234:0 235:0 236:0 237:0 238:0 239:0 240:0 241:0 242:0 243:0 244:0 245:0 246:0 247:0 248:0 249:0 250:0 251:0 252:0 253:0 254:0 255:0 256:0 257:0 258:0 259:0 260:0 261:0 262:0 263:0 264:0 265:0 266:0 267:0 268:0 269:0 270:0 271:0 272:0 273:0 274:0 275:0 276:0 277:0 278:0 279:0.057405282 280:0 281:0 282:0.17221585 283:0 284:0.057405282 285:0.22962113 286:0.3444317 287:0.11481056 288:0.057405282 289:0.22962113 290:0.28702641 291:1.1481056 292:1.6647527 293:4.1331782 294:3.9609621 295:4.707233 296:8.3237772 297:8.4959936 298:15.155028 299:20.551142 300:19.17341 301:9.4144812 302:0.80367404 303:0.68886346 304:0.057405282 305:0.11481056 306:0.057405282 307:0 308:0 
1 1 0.314624674735287 0.4927323119456559 0.8011285854569001 0.5235849063103635 1:0.12970169 2:0 3:0.38910505 4:0.38910505 5:0.51880676 6:1.1673152 7:0.38910505 8:0 9:0.064850844 10:0 11:0.12970169 12:0 13:0.064850844 14:0.12970169 15:0.19455254 16:0.064850844 17:0.64850849 18:0.64850849 19:2.2049282 20:2.9831378 21:13.164715 22:13.942924 23:6.9390373 24:8.8197107 25:22.827585 26:11.089489 27:9.9870253 28:2.0752265 29:0.77821022 30:0 31:0 32:0 33:0 34:0.064850844 35:0 36:0 37:0 38:0.064850844 39:0 40:0 41:0 42:0 43:0 44:0.12970169 45:0.064850844 46:0.45395589 47:0.38910505 48:0 49:0.12970169 50:0.58365762 51:0.25940338 52:1.0376136 53:1.7509725 54:0.32425421 55:0.064850844 56:0.064850844 57:0 58:1.1024644 59:1.5564201 60:2.6588838 61:4.7989607 62:6.2256784 63:4.345005 64:3.5667951 65:1.8806741 66:2.5291822 67:3.1776903 68:3.6964967 69:2.8534362 70:5.3177671 71:8.1063519 72:6.6147833 73:6.0959768 74:6.031126 75:3.2425411 76:3.8910491 77:4.2801542 78:2.7885854 79:1.6212709 80:2.269779 81:0.97276282 82:0.25940338 83:0.12970169 84:0 85:0 86:0.32425421 87:0.32425421 88:0.64850849 89:0.25940338 90:3.4370935 91:0 92:1.0376136 93:2.2049282 94:2.269779 95:4.2801542 96:4.4747066 97:3.3722427 98:3.5667951 99:2.7885854 100:0.58365762 101:0.12970169 102:0.32425421 103:0.84306109 104:1.2321661 105:6.3553801 106:10.700384 107:8.1712027 108:3.1128395 109:1.7509725 110:1.9455249 111:1.5564201 112:0.71335936 113:0.19455254 114:0.58365762 115:2.4643314 116:3.8910491 117:4.0856018 118:4.6692591 119:4.020751 120:4.2801542 121:4.1504526 122:2.7885854 123:2.3346298 124:1.4267185 125:0.84306109 126:1.0376136 127:0.38910505 128:0.25940338 129:0.19455254 130:0.12970169 131:0.12970169 132:0.45395589 133:0.12970169 134:0.064850844 135:0.12970169 136:0 137:0 138:0 139:0 140:0 141:0 142:0 143:0 144:0 145:0 146:0 147:0 148:0 149:0 150:0 151:0 152:0 153:0 154:0 155:0 156:0 157:0 158:0 159:0 160:0 161:0 162:0 163:0 164:0 165:0 166:0 167:0 168:0 169:0 170:0 171:0 172:0 173:0 174:0 175:0 176:0 177:0 178:0 179:0 180:0 181:0 182:0 183:0 184:0 185:0 186:0 187:0 188:0 189:0 190:0 191:0 192:0 193:0 194:0 195:0 196:0 197:0 198:0 199:0 200:0 201:0 202:0 203:0 204:0 205:0 206:0 207:0 208:0 209:0 210:0 211:0 212:0 213:0 214:0 215:0 216:0 217:0 218:0 219:0 220:0 221:0 222:0 223:0 224:0 225:0 226:0 227:0 228:0 229:0 230:0 231:0 232:0 233:0 234:0 235:0 236:0 237:0 238:0 239:0 240:0 241:0 242:0 243:0 244:0.064808816 245:0.19442645 246:0.25923526 247:0.19442645 248:0.25923526 249:0.32404408 250:0.25923526 251:0.25923526 252:0.45366171 253:1.2313673 254:0.32404408 255:0.38885289 256:0.064808816 257:0.25923526 258:0.19442645 259:0.19442645 260:0 261:0.12961763 262:0.064808816 263:0.064808816 264:0.12961763 265:0.064808816 266:0.19442645 267:0 268:0.12961763 269:0.45366171 270:0.32404408 271:0.38885289 272:0.71289688 273:1.360985 274:1.9442647 275:2.1386912 276:2.3979266 277:3.5644858 278:6.5456924 279:8.2307224 280:3.6292946 281:4.3421917 282:3.88853 283:4.1477652 284:3.4348681 285:2.8515885 286:2.3979266 287:1.4906027 288:2.2683089 289:2.1386912 290:2.3331177 291:2.0738823 292:2.0090735 293:1.7498381 294:2.1386912 295:2.0090735 296:1.1017497 297:1.7498381 298:1.814647 299:1.5554116 300:0.84251446 301:0.58327931 302:0.77770567 303:0.84251446 304:0.84251446 305:2.9812062 306:3.6941035 307:2.5275443 308:4.0181475 
0.3567025108401337 0.1959466133700083 0.1067915429774397 0.1083565748508371 0.1799746900393172 0.1672031165067659 1:0 2:0 3:0 4:0 5:0 6:0 7:0 8:0 9:0 10:0 11:0 12:0 13:0 14:0 15:0 16:0 17:0 18:0 19:0 20:0 21:0 22:2.1158133 23:49.665951 24:35.022289 25:13.08464 26:0.16703786 27:0 28:0 29:0 30:0 31:0 32:0 33:0 34:0 35:0 36:0 37:0 38:0 39:0 40:0 41:0 42:0 43:0 44:0 45:0 46:0 47:0 48:0 49:0 50:0 51:0 52:0 53:0 54:0 55:0 56:0 57:0 58:0 59:0 60:0 61:0 62:0.11135858 63:0.72383064 64:5.0668173 65:12.138091 66:15.311812 67:14.420943 68:13.697112 69:13.86415 70:10.857467 71:7.0155935 72:2.9510031 73:1.7817374 74:1.1692649 75:0.89086843 76:0.055679288 77:0 78:0 79:0 80:0 81:0 82:0 83:0 84:0 85:0 86:0 87:0 88:0 89:0 90:0 91:0 92:0.055679288 93:0 94:0.055679288 95:0.055679288 96:0 97:0.11135858 98:0.11135858 99:0.27839643 100:0.4454343 101:0.33407572 102:0.83518916 103:0.55679286 104:0.89086843 105:1.5033408 106:2.0044546 107:4.0089102 108:7.9064627 109:16.314039 110:17.260588 111:15.701568 112:11.971053 113:3.6748343 114:3.452117 115:2.6726065 116:4.1759481 117:1.5033408 118:1.1692649 119:1.3363029 120:0.66815138 121:0.16703786 122:0.11135858 123:0.11135858 124:0.16703786 125:0.11135858 126:0.11135858 127:0.055679288 128:0 129:0.11135858 130:0.055679288 131:0 132:0 133:0 134:0 135:0 136:0 137:0 138:0 139:0 140:0 141:0 142:0 143:0 144:0 145:0 146:0 147:0 148:0 149:0 150:0 151:0 152:0 153:0 154:0 155:0 156:0 157:0 158:0 159:0 160:0 161:0 162:0 163:0 164:0 165:0 166:0 167:0 168:0 169:0 170:0 171:0 172:0 173:0 174:0 175:0 176:0 177:0 178:0 179:0 180:0 181:0 182:0 183:0 184:0 185:0 186:0 187:0 188:0 189:0 190:0 191:0 192:0 193:0 194:0 195:0 196:0 197:0 198:0 199:0 200:0 201:0 202:0 203:0 204:0 205:0 206:0 207:0 208:0 209:0 210:0 211:0 212:0 213:0 214:0 215:0 216:0 217:0 218:0 219:0 220:0 221:0 222:0 223:0 224:0 225:0 226:0 227:0 228:0 229:0 230:0 231:0 232:0 233:0 234:0 235:0 236:0 237:0 238:0 239:0 240:0 241:0 242:0 243:0 244:0 245:0 246:0 247:0 248:0 249:0 250:0 251:0 252:0 253:0 254:0 255:0 256:0 257:0 258:0 259:0 260:0 261:0 262:0 263:0 264:0 265:0 266:0 267:0 268:0 269:0 270:0 271:0 272:0 273:0 274:0 275:0 276:0 277:0 278:0 279:0 280:0 281:0 282:0 283:0 284:0 285:0 286:0 287:0.055648305 288:0.11129661 289:0 290:0.055648305 291:0 292:0.44518641 293:0.27824152 294:0.44518641 295:1.3912079 296:1.5581529 297:2.6711195 298:8.1246538 299:9.905385 300:13.633791 301:16.416191 302:9.0150194 303:7.401227 304:11.574821 305:13.355552 306:2.4485261 307:0.83472466 308:0.27824152 
1 0.5501966417643946 0.3245865239390477 0.3285747589990351 0.5463908277516064 0.5085051093825883 1:0 2:0 3:0 4:0 5:0 6:0 7:0 8:0 9:0 10:0 11:0 12:0 13:0 14:0 15:0 16:0 17:0 18:0 19:0 20:0 21:0.63694268 22:7.545311 23:38.020798 24:49.044891 25:2.6947567 26:2.1068108 27:0 28:0 29:0 30:0 31:0 32:0 33:0 34:0 35:0 36:0 37:0 38:0 39:0 40:0 41:0 42:0 43:0 44:0 45:0 46:0 47:0 48:0 49:0 50:0 51:0 52:0 53:0 54:0 55:0 56:0 57:0 58:0 59:0 60:0 61:0.29397354 62:0.53895146 63:1.5678593 64:3.1357162 65:3.1357162 66:4.4585948 67:7.153347 68:7.5943065 69:9.701129 70:11.75896 71:15.384662 72:14.404742 73:16.021608 74:4.1156263 75:0.58794707 76:0.19598237 77:0 78:0 79:0 80:0 81:0 82:0 83:0 84:0 85:0 86:0 87:0 88:0 89:0 90:0 91:0.097991183 92:0.097991183 93:0 94:0.097991183 95:0.097991183 96:0.048995592 97:0 98:0.097991183 99:0.048995592 100:0.048995592 101:0.29397354 102:0.29397354 103:0.29397354 104:0.24497795 105:0.93091637 106:1.6168549 107:4.6545768 108:10.093097 109:9.9461088 110:16.756548 111:15.874621 112:16.756548 113:2.2048018 114:0.78392953 115:1.7638417 116:1.4698681 117:2.4987748 118:3.5276802 119:3.9686396 120:2.4007838 121:1.6168549 122:0.58794707 123:0.3919647 124:0.048995592 125:0.048995592 126:0.14698678 127:0 128:0 129:0.097991183 130:0.048995592 131:0 132:0.048995592 133:0 134:0 135:0 136:0 137:0 138:0 139:0 140:0 141:0 142:0 143:0 144:0 145:0 146:0 147:0 148:0 149:0 150:0 151:0 152:0 153:0 154:0 155:0 156:0 157:0 158:0 159:0 160:0 161:0 162:0 163:0 164:0 165:0 166:0 167:0 168:0 169:0 170:0 171:0 172:0 173:0 174:0 175:0 176:0 177:0 178:0 179:0 180:0 181:0 182:0 183:0 184:0 185:0 186:0 187:0 188:0 189:0 190:0 191:0 192:0 193:0 194:0 195:0 196:0 197:0 198:0 199:0 200:0 201:0 202:0 203:0 204:0 205:0 206:0 207:0 208:0 209:0 210:0 211:0 212:0 213:0 214:0 215:0 216:0 217:0 218:0 219:0 220:0 221:0 222:0 223:0 224:0 225:0 226:0 227:0 228:0 229:0 230:0 231:0 232:0 233:0 234:0 235:0 236:0 237:0 238:0 239:0 240:0 241:0 242:0 243:0 244:0 245:0 246:0 247:0 248:0 249:0 250:0 251:0 252:0 253:0 254:0 255:0 256:0 257:0 258:0 259:0 260:0 261:0 262:0 263:0 264:0 265:0 266:0 267:0 268:0 269:0 270:0 271:0 272:0 273:0 274:0 275:0 276:0 277:0 278:0 279:0 280:0 281:0 282:0 283:0 284:0 285:0 286:0 287:0.1469148 288:0.48971596 289:0.44074437 290:0.83251715 291:0.63663077 292:0.53868759 293:0.39177278 294:0.39177278 295:0.83251715 296:0.83251715 297:2.7424114 298:2.5954964 299:2.2037232 300:5.1909938 301:7.5906048 302:9.5984268 303:8.5700321 304:9.9901962 305:11.116533 306:3.9667027 307:9.5984268 308:21.302538 
0.4718471380012756 0.2860308363192218 0.140523284663203 0.1459587481048168 0.2589444133136667 0.2217882947053109 1:0.72904009 2:0.48602673 3:0.48602673 4:0.24301337 5:0.3037667 6:0.3037667 7:0.18226002 8:0.060753342 9:0.12150668 10:0.3037667 11:0.18226002 12:0.3037667 13:0.85054678 14:0.42527339 15:0.6075334 16:0.6075334 17:1.2150668 18:1.7010936 19:0.72904009 20:4.2527337 21:7.9586878 22:10.388803 23:24.72648 24:17.739901 25:10.267297 26:9.234498 27:3.1591737 28:1.3973268 29:0 30:0 31:0 32:0 33:0 34:0.18226002 35:0 36:0.060753342 37:0 38:0.12150668 39:0.18226002 40:0.060753342 41:0.12150668 42:0 43:0 44:0.18226002 45:0.18226002 46:0 47:0 48:0 49:0 50:0 51:0.060753342 52:2.855407 53:4.1919804 54:4.0704737 55:0.48602673 56:0.72904009 57:0.3037667 58:0.36452004 59:0.66828674 60:0.42527339 61:1.3973268 62:3.2199271 63:4.1919804 64:6.1360874 65:5.1032805 66:5.6500607 67:3.5236938 68:2.1263669 69:1.5795869 70:1.5795869 71:1.4580802 72:1.4580802 73:2.2478735 74:3.3414338 75:6.2575941 76:9.0522394 77:5.7715673 78:4.8602672 79:1.5795869 80:0.24301337 81:0.72904009 82:0.48602673 83:1.1543134 84:2.4908869 85:2.0656135 86:0.24301337 87:0 88:1.2758201 89:1.3973268 90:5.2855406 91:0.060753342 92:0.060753342 93:0 94:0 95:0.060753342 96:0.18226002 97:3.5236938 98:1.0935601 99:0.85054678 100:1.2150668 101:2.0656135 102:1.7010936 103:1.2758201 104:1.1543134 105:3.037667 106:2.4908869 107:6.3183475 108:5.893074 109:8.8092279 110:9.7812738 111:7.290401 112:5.9538274 113:5.3462939 114:12.4544 115:4.3134871 116:1.3365735 117:1.1543134 118:1.2758201 119:1.7010936 120:2.2478735 121:2.7946537 122:2.2478735 123:1.0328068 124:0.78979343 125:0.3037667 126:0.24301337 127:0 128:0 129:0 130:0 131:0 132:0 133:0 134:0 135:0 136:0 137:0 138:0 139:0 140:0 141:0 142:0 143:0 144:0 145:0 146:0 147:0 148:0 149:0 150:0 151:0 152:0 153:0 154:0 155:0 156:0 157:0 158:0 159:0 160:0 161:0 162:0 163:0 164:0 165:0 166:0 167:0 168:0 169:0 170:0 171:0 172:0 173:0 174:0 175:0 176:0 177:0 178:0 179:0 180:0 181:0 182:0 183:0 184:0 185:0 186:0 187:0 188:0 189:0 190:0 191:0 192:0 193:0 194:0 195:0 196:0 197:0 198:0 199:0 200:0 201:0 202:0 203:0 204:0 205:0 206:0 207:0 208:0 209:0 210:0 211:0 212:0 213:0 214:0 215:0 216:0 217:0 218:0 219:0 220:0 221:0 222:0 223:0 224:0 225:0 226:0 227:0 228:0 229:0 230:0 231:0 232:0 233:0 234:0 235:0 236:0 237:0 238:0 239:0 240:0 241:0 242:0 243:0 244:0 245:0 246:0 247:0 248:0 249:0 250:0 251:0 252:0 253:0 254:0 255:0.24286582 256:0.30358228 257:0.12143291 258:0.30358228 259:0.24286582 260:0 261:0 262:0.060716454 263:0.48573163 264:0.78931391 265:0.60716456 266:1.0321797 267:1.0928962 268:0.36429873 269:0.48573163 270:0.42501518 271:0.97146326 272:2.1857929 273:3.6429863 274:2.671524 275:4.0072846 276:5.4037671 277:7.1645494 278:5.4037671 279:4.7358842 280:3.5215535 281:2.5500913 282:1.3964788 283:2.4286585 284:2.0036438 285:2.2465093 286:2.3072257 287:2.5500913 288:2.975106 289:2.2465093 290:2.2465093 291:2.0643601 292:2.4893749 293:2.7929568 294:3.4608371 295:2.3072257 296:1.3964788 297:2.3072257 298:3.7644191 299:2.2465093 300:2.671524 301:1.9429274 302:1.0928962 303:0.78931391 304:0.24286582 305:0.24286582 306:0.36429873 307:0.60716456 308:0 
0.2992083703897548 0.1206617169617895 0.09084837369395549 0.08708856207772654 0.146578771324601 0.143675840856868 1:0 2:0 3:0 4:0 5:0 6:0 7:0 8:0 9:0 10:0 11:0 12:0 13:0 14:0 15:0 16:0 17:0 18:0 19:0 20:2.983988 21:10.480358 22:16.011684 23:32.24176 24:19.06847 25:6.113534 26:0.36390102 27:0.14556041 28:0.5094614 29:0 30:0 31:0 32:1.0189228 33:2.8384278 34:1.6739451 35:4.9490519 36:1.0917031 37:0 38:0.072780207 39:0.072780207 40:0.43668121 41:0 42:0 43:0 44:0 45:0 46:0 47:0 48:0 49:0 50:0 51:0 52:0 53:0 54:0 55:0 56:3.2023284 57:3.3478887 58:0.72780198 59:0.65502179 60:4.5123711 61:5.7496333 62:5.0946121 63:5.8224134 64:6.4774346 65:5.8224134 66:4.4395909 67:3.0567682 68:3.2751086 69:2.7656476 70:3.1295483 71:5.5312929 72:9.3158684 73:7.8602571 74:4.9490519 75:0.72780198 76:1.3828241 77:0.5094614 78:0.65502179 79:1.1644833 80:0.80058217 81:2.2561867 82:2.8384278 83:1.8195056 84:1.1644833 85:0.72780198 86:0.29112083 87:0 88:0 89:0 90:0 91:0 92:0 93:0 94:0 95:0 96:0 97:0 98:0 99:0.072780207 100:0 101:0.072780207 102:0.36390102 103:1.1644833 104:0.65502179 105:0.87336236 106:0.94614255 107:1.1644833 108:2.2561867 109:4.2940307 110:10.334797 111:12.227093 112:6.8413353 113:2.983988 114:8.2969398 115:7.2780161 116:6.4046545 117:4.1484704 118:4.9490519 119:4.2940307 120:2.9112079 121:2.5473073 122:2.1834066 123:0.87336236 124:0.21834062 125:0 126:0.072780207 127:0.072780207 128:0 129:0.58224159 130:3.2023284 131:2.983988 132:2.983988 133:1.6739451 134:0.14556041 135:0 136:0 137:0 138:0 139:0 140:0 141:0 142:0 143:0 144:0 145:0 146:0 147:0 148:0 149:0 150:0 151:0 152:0 153:0 154:0 155:0 156:0 157:0 158:0 159:0 160:0 161:0 162:0 163:0 164:0 165:0 166:0 167:0 168:0 169:0 170:0 171:0 172:0 173:0 174:0 175:0 176:0 177:0 178:0 179:0 180:0 181:0 182:0 183:0 184:0 185:0 186:0 187:0 188:0 189:0 190:0 191:0 192:0 193:0 194:0 195:0 196:0 197:0 198:0 199:0 200:0 201:0 202:0 203:0 204:0 205:0 206:0 207:0 208:0 209:0 210:0 211:0 212:0 213:0 214:0 215:0 216:0 217:0 218:0 219:0 220:0 221:0 222:0 223:0 224:0 225:0 226:0 227:0 228:0 229:0 230:0 231:0 232:0 233:0 234:0 235:0 236:0 237:0 238:0 239:0 240:0 241:0 242:0 243:0.14545454 244:0.21818182 245:0 246:0.07272727 247:0.07272727 248:0.07272727 249:0.07272727 250:0.21818182 251:0.07272727 252:0 253:0 254:0 255:0 256:0 257:0.14545454 258:0 259:0 260:0.07272727 261:0 262:0 263:0 264:0 265:0 266:0 267:0 268:0.14545454 269:0.5090909 270:0.72727269 271:0.94545448 272:0.58181816 273:0.72727269 274:1.2363638 275:4.1454535 276:5.3090887 277:3.7818172 278:4.9454527 279:5.9636335 280:9.2363577 281:5.5272703 282:3.70909 283:5.2363615 284:5.9636335 285:8.4363585 286:7.199996 287:3.1999996 288:1.963637 289:1.3818184 290:1.0181818 291:0.43636361 292:0.65454543 293:0.29090908 294:0.43636361 295:0.65454543 296:0.5090909 297:0.43636361 298:0.5090909 299:0.65454543 300:0.5090909 301:0.5090909 302:0.58181816 303:1.2363638 304:1.3818184 305:2.981818 306:2.4727275 307:1.3090911 308:1.3818184 
0.6026927263727359 0.2874365019499021 0.1814739639065076 0.1818684903064784 0.3030969578213421 0.2849113022821884 1:0.13097577 2:1.4407332 3:0.72036666 4:0.39292732 5:0 6:0 7:0 8:0 9:0 10:0 11:0 12:0 13:0 14:0 15:0 16:0 17:0.19646364 18:0.065487884 19:0 20:1.7026846 21:6.5487866 22:15.389648 23:47.347733 24:9.6267166 25:7.4001288 26:6.8762259 27:0.58939093 28:0.19646364 29:0.13097577 30:0.065487884 31:0.19646364 32:0.065487884 33:0.32743943 34:0 35:0 36:0.13097577 37:0 38:0.13097577 39:0 40:0 41:0.065487884 42:0 43:0 44:0.32743943 45:0 46:0 47:0 48:2.1610997 49:0.58939093 50:0.58939093 51:0.52390307 52:0.52390307 53:0 54:0 55:0 56:0 57:0 58:0.32743943 59:1.1787817 60:2.7504904 61:3.5363448 62:2.0301239 63:1.9646361 64:1.8991482 65:1.6371968 66:1.8991482 67:3.0124419 68:4.0602479 69:4.4531751 70:6.0903716 71:13.097573 72:12.377207 73:12.049767 74:9.1683016 75:4.1912236 76:1.3752453 77:1.5062211 78:1.7026846 79:2.5540268 80:1.9646361 81:0.32743943 82:0.39292732 83:0.13097577 84:0 85:0 86:0 87:0 88:0 89:0 90:0 91:0 92:0 93:0 94:0 95:0 96:0.13097577 97:2.2920754 98:2.3575633 99:2.2920754 100:1.047806 101:1.5062211 102:0.91683024 103:2.1610997 104:1.1787817 105:1.9646361 106:2.2920754 107:3.0124419 108:2.946954 109:3.2089055 110:4.2567115 111:3.7982962 112:3.9947598 113:3.2089055 114:12.639158 115:12.639158 116:7.6620803 117:2.946954 118:3.0124419 119:2.6850026 120:1.8336604 121:1.7026846 122:1.6371968 123:1.5062211 124:2.2265875 125:1.5062211 126:1.5062211 127:1.9646361 128:0.9823181 129:0.26195154 130:0.45841521 131:0.065487884 132:0.13097577 133:0 134:0.13097577 135:0 136:0 137:0 138:0 139:0 140:0 141:0 142:0 143:0 144:0 145:0 146:0 147:0 148:0 149:0 150:0 151:0 152:0 153:0 154:0 155:0 156:0 157:0 158:0 159:0 160:0 161:0 162:0 163:0 164:0 165:0 166:0 167:0 168:0 169:0 170:0 171:0 172:0 173:0 174:0 175:0 176:0 177:0 178:0 179:0 180:0 181:0 182:0 183:0 184:0 185:0 186:0 187:0 188:0 189:0 190:0 191:0 192:0 193:0 194:0 195:0 196:0 197:0 198:0 199:0 200:0 201:0 202:0 203:0 204:0 205:0 206:0 207:0 208:0 209:0 210:0 211:0 212:0 213:0 214:0 215:0 216:0 217:0 218:0 219:0 220:0 221:0 222:0 223:0 224:0 225:0 226:0 227:0 228:0 229:0 230:0 231:0 232:0 233:0 234:0 235:0 236:0 237:0 238:0 239:0 240:0 241:0 242:0 243:0 244:0 245:0.13089006 246:0.065445028 247:0 248:0.13089006 249:0.26178011 250:0.065445028 251:0.065445028 252:0.19633508 253:0 254:0 255:0 256:0.26178011 257:0.39267018 258:0.26178011 259:0.19633508 260:0.13089006 261:0.26178011 262:0.39267018 263:0.13089006 264:0.19633508 265:0.13089006 266:0.13089006 267:0.065445028 268:0.39267018 269:0.39267018 270:1.0471203 271:0.78534025 272:0.78534025 273:1.4397907 274:2.1596861 275:1.5052358 276:2.8795805 277:2.4214659 278:3.1413603 279:3.8612547 280:3.4031401 281:3.7958097 282:3.7303648 283:3.1413603 284:3.2722502 285:3.2722502 286:3.0104704 287:3.6649199 288:4.3848143 289:3.2068052 290:1.8979062 291:2.290576 292:2.1596861 293:2.0287962 294:3.5994749 295:1.8324611 296:2.1596861 297:2.0287962 298:3.8612547 299:6.2172728 300:1.4397907 301:1.701571 302:1.701571 303:0.71989524 304:0.58900523 305:0.58900523 306:1.701571 307:3.9266996 308:0.39267018 
0.6771109137198347 0.3498779685876055 0.2044821001274721 0.2072612444339026 0.3448292066379115 0.321491778846841 1:0 2:0 3:0 4:0 5:0 6:0 7:0 8:0 9:0 10:0 11:0 12:0 13:0 14:0 15:0 16:0 17:0 18:1.2237762 19:5.3030319 20:2.5058274 21:3.7878771 22:24.242479 23:23.718002 24:37.062862 25:1.3986015 26:0.46620041 27:0 28:0.34965032 29:0 30:0 31:0 32:0 33:0 34:0 35:0 36:0 37:0 38:0 39:0 40:0 41:0 42:0 43:0 44:0 45:0 46:0 47:0 48:0 49:0 50:0.5827505 51:0.5827505 52:0.5827505 53:0.64102554 54:0.52447546 55:0.75757563 56:0.87412572 57:1.9813526 58:2.6806524 59:0.75757563 60:0.5827505 61:0.81585068 62:1.3403264 63:0.99067581 64:2.5641024 65:11.596756 66:16.083948 67:15.676022 68:4.6037292 69:3.7296021 70:4.1375275 71:9.0326462 72:6.3519859 73:3.7296021 74:2.6806524 75:2.5641024 76:3.4965022 77:0.11655012 78:0 79:0 80:0 81:0 82:0 83:0 84:0 85:0 86:0 87:0 88:0 89:0 90:0 91:0 92:0 93:0.11655012 94:0.17482518 95:0.11655012 96:0.17482518 97:0.17482518 98:0.058275059 99:0.11655012 100:0.11655012 101:0.17482518 102:0.11655012 103:0.34965032 104:0.81585068 105:0.99067581 106:1.5734268 107:2.0979025 108:4.8951054 109:4.7202797 110:8.8578205 111:18.881159 112:5.594408 113:0.52447546 114:3.7878771 115:10.0816 116:10.897453 117:5.5361328 118:3.0885773 119:2.2144525 120:1.4568766 121:1.2237762 122:1.1655011 123:0.81585068 124:1.3403264 125:0.5827505 126:0.93240076 127:1.9813526 128:2.7972023 129:1.1655011 130:0.17482518 131:0 132:0.058275059 133:0 134:0.058275059 135:0.058275059 136:0 137:0 138:0 139:0 140:0 141:0 142:0 143:0 144:0 145:0 146:0 147:0 148:0 149:0 150:0 151:0 152:0 153:0 154:0 155:0 156:0 157:0 158:0 159:0 160:0 161:0 162:0 163:0 164:0 165:0 166:0 167:0 168:0 169:0 170:0 171:0 172:0 173:0 174:0 175:0 176:0 177:0 178:0 179:0 180:0 181:0 182:0 183:0 184:0 185:0 186:0 187:0 188:0 189:0 190:0 191:0 192:0 193:0 194:0 195:0 196:0 197:0 198:0 199:0 200:0 201:0 202:0 203:0 204:0 205:0 206:0 207:0 208:0 209:0 210:0 211:0 212:0 213:0 214:0 215:0 216:0 217:0 218:0 219:0 220:0 221:0 222:0 223:0 224:0 225:0 226:0 227:0 228:0 229:0 230:0 231:0 232:0 233:0 234:0 235:0 236:0 237:0 238:0 239:0 240:0 241:0 242:0 243:0 244:0 245:0 246:0 247:0 248:0 249:0 250:0 251:0 252:0 253:0 254:0 255:0 256:0 257:0 258:0 259:0 260:0 261:0 262:0 263:0 264:0 265:0.058241118 266:0 267:0 268:0 269:0 270:0 271:0.058241118 272:0.11648224 273:0.058241118 274:0.11648224 275:0.29120559 276:0.58241123 277:0.58241123 278:0.46592897 279:0.81537575 280:0.931858 281:0.46592897 282:0.23296447 283:0.23296447 284:0.058241118 285:0.58241123 286:2.6790917 287:4.6010466 288:7.4548502 289:12.288844 290:8.4449453 291:8.3867044 292:7.7460546 293:5.7658644 294:4.7757692 295:3.6109498 296:1.5725104 297:3.261503 298:3.0867796 299:3.9603965 300:3.7856731 301:3.6109498 302:1.863716 303:1.0483402 304:1.6889926 305:1.397787 306:1.2230636 307:1.0483402 308:1.0483402 
0.1814920233314535 0.4600312817535744 0.04438016558543319 0.054240947568089 0.1344991682484291 0.07340998489185942 1:0.9060021 2:0.45300108 3:0.45300108 4:0.16987543 5:0 6:0 7:0 8:0 9:0 10:0 11:0 12:0.056625143 13:0 14:0 15:0 16:0 17:0 18:0 19:0.16987543 20:0.84937698 21:3.7372587 22:6.7384019 23:30.407804 24:25.028395 25:11.778059 26:9.7395458 27:5.1528916 28:2.6047561 29:1.1325027 30:0 31:0 32:0 33:0 34:0 35:0 36:0 37:0 38:0 39:0.056625143 40:0 41:0 42:0 43:0 44:0.11325029 45:0.50962621 46:0.56625134 47:0 48:0.22650057 49:2.1517551 50:1.3023781 51:0 52:0.11325029 53:0 54:0 55:0.056625143 56:0.16987543 57:0 58:0.73612672 59:1.2457529 60:3.3408828 61:1.9252545 62:1.3023781 63:2.2650054 64:6.8516526 65:7.7576585 66:5.1528916 67:4.2468858 68:3.6806335 69:4.3035111 70:7.0215287 71:5.8890214 72:7.9275346 73:6.6817765 74:7.8142838 75:2.8312566 76:0.62287647 77:0.16987543 78:0.33975083 79:0.2831257 80:0.67950159 81:1.8120042 82:8.0974102 83:2.4915059 84:0 85:0 86:0 87:0 88:0 89:0 90:0 91:0 92:0 93:0 94:0 95:0.73612672 96:5.2661424 97:3.9637592 98:4.8131394 99:0.33975083 100:0.2831257 101:0.39637595 102:0.67950159 103:1.6421288 104:4.4167619 105:2.9445069 106:2.9445069 107:4.4167619 108:5.0396409 109:9.0600414 110:13.533445 111:12.797316 112:8.5504131 113:0.84937698 114:1.5855037 115:1.9818796 116:1.8120042 117:1.3590032 118:0.73612672 119:1.3023781 120:0.96262723 121:1.0192524 122:1.1325027 123:1.1891278 124:1.1325027 125:0.84937698 126:0.39637595 127:0.11325029 128:0.2831257 129:0.67950159 130:0.56625134 131:0.22650057 132:0 133:0.056625143 134:0 135:0 136:0 137:0 138:0 139:0 140:0 141:0 142:0 143:0 144:0 145:0 146:0 147:0 148:0 149:0 150:0 151:0 152:0 153:0 154:0 155:0 156:0 157:0 158:0 159:0 160:0 161:0 162:0 163:0 164:0 165:0 166:0 167:0 168:0 169:0 170:0 171:0 172:0 173:0 174:0 175:0 176:0 177:0 178:0 179:0 180:0 181:0 182:0 183:0 184:0 185:0 186:0 187:0 188:0 189:0 190:0 191:0 192:0 193:0 194:0 195:0 196:0 197:0 198:0 199:0 200:0 201:0 202:0 203:0 204:0 205:0 206:0 207:0 208:0 209:0 210:0 211:0 212:0 213:0 214:0 215:0 216:0 217:0 218:0 219:0 220:0 221:0 222:0 223:0 224:0 225:0 226:0 227:0 228:0 229:0 230:0 231:0 232:0 233:0 234:0 235:0 236:0 237:0 238:0 239:0 240:0 241:0 242:0 243:0 244:0 245:0 246:0 247:0 248:0 249:0.056593094 250:0.39615166 251:0 252:0.28296548 253:0.22637238 254:0.16977929 255:0.056593094 256:0.11318619 257:0.056593094 258:0.16977929 259:0.056593094 260:0.056593094 261:0.11318619 262:0.16977929 263:0.16977929 264:0 265:0.39615166 266:0.9620828 267:0.33955857 268:0.39615166 269:0.056593094 270:0.28296548 271:0.50933784 272:1.0186759 273:1.4148273 274:1.4714204 275:2.4335034 276:2.5466897 277:3.6785533 278:2.8296556 279:3.0560284 280:3.0560284 281:2.6032829 282:2.2071307 283:1.6977926 284:2.5466897 285:2.4900966 286:2.4900966 287:2.1505375 288:3.0560284 289:3.3389943 290:2.6032829 291:4.2444839 292:3.2824011 293:2.8296556 294:2.4900966 295:2.6032829 296:2.0939443 297:1.6411996 298:1.8109788 299:2.8296556 300:1.6977926 301:2.2071307 302:2.2071307 303:4.4142628 304:1.9241649 305:1.980758 306:4.2444839 307:4.7538204 308:1.0186759 
0.6653771109491126 0.432217851360062 0.2007455527072692 0.2065970198918124 0.3425516555754355 0.3132475886017336 1:0 2:0 3:0 4:0 5:0 6:0 7:0 8:0 9:0 10:0 11:0 12:0 13:0 14:0 15:0 16:0 17:0.24570024 18:2.4570029 19:4.4226055 20:2.6208031 21:8.1081104 22:19.901659 23:21.375853 24:13.349688 25:16.871372 26:3.6855047 27:3.0303037 28:1.3104013 29:1.2285012 30:0 31:0.081900083 32:0.16380017 33:0.24570024 34:0.32760033 35:0.16380017 36:0.40950042 37:0.081900083 38:0 39:0 40:0 41:0 42:0 43:0 44:0 45:0 46:0 47:0 48:0 49:2.7027032 50:0.81900078 51:1.3923014 52:1.3923014 53:1.3923014 54:0.16380017 55:0.081900083 56:0.081900083 57:0.40950042 58:0 59:0.24570024 60:0.081900083 61:0.081900083 62:1.3923014 63:2.7846034 64:5.5692072 65:5.6511073 66:5.8149076 67:9.2547054 68:7.4529099 69:6.4701085 70:6.3063083 71:5.7330074 72:5.3235068 73:3.7674048 74:2.1294024 75:1.1466011 76:0.24570024 77:3.6036046 78:3.8493049 79:3.4398043 80:4.6683059 81:5.4873071 82:0.73710072 83:0.24570024 84:0.081900083 85:0 86:0.081900083 87:0 88:0 89:0 90:0 91:0.24570024 92:0.24570024 93:0.081900083 94:0.16380017 95:0.16380017 96:0.24570024 97:0.5733006 98:0.40950042 99:0.40950042 100:1.064701 101:1.064701 102:0.65520066 103:1.6380018 104:2.4570029 105:4.095005 106:4.5045056 107:5.7330074 108:7.9443107 109:9.9099026 110:8.435709 111:4.1769052 112:1.801802 113:0.081900083 114:0.73710072 115:3.1122038 116:7.5348101 117:15.806677 118:2.4570029 119:0.9828009 120:0.65520066 121:0.40950042 122:0.40950042 123:0.40950042 124:0 125:0 126:0.32760033 127:0.16380017 128:0.73710072 129:2.1294024 130:1.3104013 131:0.9828009 132:3.931205 133:1.4742016 134:0.40950042 135:0 136:0 137:0 138:0 139:0 140:0 141:0 142:0 143:0 144:0 145:0 146:0 147:0 148:0 149:0 150:0 151:0 152:0 153:0 154:0 155:0 156:0 157:0 158:0 159:0 160:0 161:0 162:0 163:0 164:0 165:0 166:0 167:0 168:0 169:0 170:0 171:0 172:0 173:0 174:0 175:0 176:0 177:0 178:0 179:0 180:0 181:0 182:0 183:0 184:0 185:0 186:0 187:0 188:0 189:0 190:0 191:0 192:0 193:0 194:0 195:0 196:0 197:0 198:0 199:0 200:0 201:0 202:0 203:0 204:0 205:0 206:0 207:0 208:0 209:0 210:0 211:0 212:0 213:0 214:0 215:0 216:0 217:0 218:0 219:0 220:0 221:0 222:0 223:0 224:0 225:0 226:0 227:0 228:0 229:0 230:0 231:0 232:0 233:0 234:0 235:0 236:0 237:0 238:0 239:0 240:0 241:0 242:0 243:0 244:0 245:0 246:0 247:0 248:0 249:0 250:0 251:0 252:0 253:0 254:0 255:0 256:0 257:0 258:0 259:0 260:0 261:0 262:0 263:0 264:0 265:0.081833057 266:0.65466446 267:0.32733223 268:1.1456628 269:2.2094922 270:3.1914897 271:4.1734867 272:2.7823241 273:6.3011417 274:4.8281498 275:2.4549916 276:2.045826 277:4.7463169 278:8.1832981 279:3.1914897 280:4.7463169 281:8.5924625 282:7.2831364 283:4.3371525 284:3.1096566 285:2.3731585 286:1.7184938 287:1.8821598 288:1.4729948 289:1.6366608 290:1.3911618 291:0.57283139 292:0.90016365 293:0.73649752 294:0.49099836 295:0.90016365 296:1.3093288 297:0.16366611 298:0.32733223 299:0.40916529 300:0.081833057 301:0.49099836 302:0.32733223 303:0.16366611 304:0.57283139 305:0.40916529 306:0.81833059 307:6.4648075 308:0 
0.339898616474429 0.317510125594072 0.09774750779150919 0.09815915540013234 0.1629618150360425 0.1539291533713115 1:0 2:0 3:0 4:0 5:0 6:0 7:0 8:0 9:0 10:0 11:0 12:0 13:0 14:0 15:0 16:0 17:0.048756704 18:0 19:0.24378352 20:10.092621 21:5.2657175 22:7.1184683 23:18.381289 24:32.520958 25:8.0448437 26:3.7055063 27:3.6079931 28:2.1452951 29:1.0726477 30:1.4139447 31:1.1214044 32:1.0726477 33:1.365188 34:0.92637753 35:0.73135066 36:0.097513407 37:0 38:0.097513407 39:0.24378352 40:0.73135066 41:0 42:0 43:0 44:0 45:0 46:0 47:0 48:0.048756704 49:0 50:0 51:0.097513407 52:4.7293949 53:3.5592365 54:0.63383722 55:0 56:0.39005363 57:0.87762082 58:0.14627011 59:0.53632379 60:1.5114582 61:2.5353479 62:4.4856119 63:4.7293949 64:3.0716705 65:2.5841045 66:3.1691837 67:3.4617233 68:4.3393421 69:4.9244213 70:4.7293949 71:4.4856119 72:4.3393421 73:6.7771721 74:7.5572777 75:4.9244213 76:4.4856119 77:0.78010738 78:1.2189178 79:1.9015119 80:0.53632379 81:1.2676746 82:1.8039985 83:1.6577283 84:2.2915649 85:4.1930723 86:0.43881035 87:0 88:0 89:0.19502681 90:0.63383722 91:0 92:0 93:0 94:0.097513407 95:0.097513407 96:0.14627011 97:0.097513407 98:0.29254022 99:0.34129691 100:1.4139447 101:0.87762082 102:0.63383722 103:0.63383722 104:2.0477819 105:3.8030195 106:3.6079931 107:4.4856119 108:6.8259287 109:9.2637587 110:9.8975945 111:12.237911 112:3.9005327 113:0.39005363 114:2.0965385 115:4.5343685 116:3.9492893 117:0.78010738 118:2.4865913 119:2.7791309 120:2.8766441 121:2.1940517 122:3.5104799 123:2.0965385 124:1.7552418 125:1.5602149 126:1.1214044 127:1.4139447 128:4.7781515 129:0.92637753 130:0.097513407 131:0 132:0 133:0 134:0 135:0 136:0 137:0 138:0 139:0 140:0 141:0 142:0 143:0 144:0 145:0 146:0 147:0 148:0 149:0 150:0 151:0 152:0 153:0 154:0 155:0 156:0 157:0 158:0 159:0 160:0 161:0 162:0 163:0 164:0 165:0 166:0 167:0 168:0 169:0 170:0 171:0 172:0 173:0 174:0 175:0 176:0 177:0 178:0 179:0 180:0 181:0 182:0 183:0 184:0 185:0 186:0 187:0 188:0 189:0 190:0 191:0 192:0 193:0 194:0 195:0 196:0 197:0 198:0 199:0 200:0 201:0 202:0 203:0 204:0 205:0 206:0 207:0 208:0 209:0 210:0 211:0 212:0 213:0 214:0 215:0 216:0 217:0 218:0 219:0 220:0 221:0 222:0 223:0 224:0 225:0 226:0 227:0 228:0 229:0 230:0 231:0 232:0 233:0 234:0 235:0 236:0 237:0 238:0 239:0 240:0 241:0 242:0 243:0.048732944 244:0.34113058 245:0.19493176 246:0.2436647 247:0.097465888 248:0.097465888 249:0 250:0.097465888 251:0.14619882 252:0.097465888 253:0.048732944 254:0.048732944 255:0 256:0.048732944 257:0.19493176 258:0.097465888 259:0.097465888 260:0.097465888 261:0 262:0.048732944 263:0 264:0 265:0 266:0.097465888 267:0 268:0.14619882 269:0.14619882 270:0.38986352 271:1.4132557 272:3.0214446 273:1.7543867 274:1.4619887 275:0.87719291 276:1.8031197 277:1.3645227 278:2.2904496 279:2.7777796 280:4.142303 281:5.6042857 282:6.2378116 283:4.8732944 284:3.9961045 285:4.9220271 286:4.0935702 287:4.6783633 288:3.9473715 289:3.6549735 290:2.9239786 291:2.5341146 292:1.9005857 293:1.7056537 294:1.3157897 295:2.6315806 296:2.2904496 297:1.4132557 298:2.4853816 299:1.1695907 300:1.5107217 301:3.1189106 302:1.2183237 303:1.0721247 304:1.6569207 305:0.68226117 306:1.3645227 307:3.2651095 308:0 
0.6501840901067735 0.3354382722490774 0.196131818716042 0.1975827488682576 0.331812057672159 0.3074688710566695 1:0 2:0 3:0 4:0 5:0 6:0 7:0 8:0.1421801 9:0 10:0 11:0 12:0.23696683 13:0.23696683 14:0.18957347 15:0.094786733 16:0.18957347 17:0.047393367 18:0.1421801 19:0.4739337 20:3.1753538 21:8.6255922 22:9.0047426 23:41.848644 24:16.682537 25:15.82945 26:1.7535541 27:0 28:0 29:0 30:0 31:0.2843602 32:0.52132708 33:0.37914693 34:0.1421801 35:0 36:0 37:0.047393367 38:0 39:0 40:0 41:0 42:0 43:0 44:0 45:0 46:1.1374409 47:0.23696683 48:0.2843602 49:1.4691942 50:0.56872046 51:0.2843602 52:0.094786733 53:0.2843602 54:0 55:0.33175355 56:0.42654032 57:0.99526089 58:1.4691942 59:1.7061608 60:1.1848342 61:0.99526089 62:1.1848342 63:5.97156 64:5.1184802 65:3.5545003 66:4.2180071 67:4.2180071 68:4.0758271 69:2.8436005 70:2.8909938 71:3.3649271 72:5.1658735 73:5.4028401 74:13.317578 75:11.374433 76:6.1611333 77:3.1279604 78:0.4739337 79:0.33175355 80:0.66350722 81:0.42654032 82:0.33175355 83:0.33175355 84:0.18957347 85:0.80568737 86:1.5165875 87:1.0426543 88:0.1421801 89:0.23696683 90:0.094786733 91:0 92:0.047393367 93:0.094786733 94:0 95:0 96:0.047393367 97:0.047393367 98:0.047393367 99:0.047393367 100:0.90047413 101:0.90047413 102:0.80568737 103:0.52132708 104:0.90047413 105:1.8957341 106:3.1279604 107:4.1706138 108:5.4502335 109:8.7677736 110:9.1943178 111:10.0948 112:13.981091 113:8.3412294 114:4.1706138 115:2.7488139 116:2.5118473 117:3.1753538 118:2.6066339 119:2.9857805 120:3.507107 121:3.649287 122:1.1374409 123:0.85308075 124:0.7109006 125:0.56872046 126:0.90047413 127:0.61611384 128:0.18957347 129:0.094786733 130:0.1421801 131:0.047393367 132:0.047393367 133:0 134:0 135:0 136:0 137:0 138:0 139:0 140:0 141:0 142:0 143:0 144:0 145:0 146:0 147:0 148:0 149:0 150:0 151:0 152:0 153:0 154:0 155:0 156:0 157:0 158:0 159:0 160:0 161:0 162:0 163:0 164:0 165:0 166:0 167:0 168:0 169:0 170:0 171:0 172:0 173:0 174:0 175:0 176:0 177:0 178:0 179:0 180:0 181:0 182:0 183:0 184:0 185:0 186:0 187:0 188:0 189:0 190:0 191:0 192:0 193:0 194:0 195:0 196:0 197:0 198:0 199:0 200:0 201:0 202:0 203:0 204:0 205:0 206:0 207:0 208:0 209:0 210:0 211:0 212:0 213:0 214:0 215:0 216:0 217:0 218:0 219:0 220:0 221:0 222:0 223:0 224:0 225:0 226:0 227:0 228:0 229:0 230:0 231:0 232:0 233:0 234:0 235:0 236:0 237:0 238:0 239:0 240:0 241:0 242:0 243:0 244:0 245:0 246:0 247:0 248:0 249:0 250:0 251:0 252:0 253:0 254:0.094741829 255:0 256:0 257:0 258:0 259:0 260:0 261:0 262:0 263:0.14211275 264:0 265:0 266:0.047370914 267:0.047370914 268:0 269:0.047370914 270:0 271:0 272:0.047370914 273:0.14211275 274:0.52108008 275:0.66319281 276:0.37896731 277:0.047370914 278:0.3315964 279:0.18948366 280:0.14211275 281:0.47370914 282:0.71056372 283:1.8948365 284:2.7001421 285:3.8844149 286:6.8214116 287:9.7110376 288:7.6267171 289:6.5371861 290:5.5897679 291:4.2160115 292:2.0369494 293:2.4159167 294:2.1790621 295:1.7053529 296:1.1842729 297:1.2790147 298:1.4684983 299:2.0843203 300:2.3211749 301:2.4159167 302:1.657982 303:2.0843203 304:2.226433 305:2.0369494 306:1.8474656 307:7.6267171 308:10.421601 
0 0.1777170509393225 0 0 0 0 1:0 2:0 3:0 4:0 5:0 6:0.049358342 7:0 8:0.74037522 9:0.54294175 10:0.44422507 11:0.049358342 12:0 13:0 14:0 15:0 16:0.14807503 17:0.049358342 18:0.24679171 19:0.78973359 20:1.0858837 21:2.1717677 22:15.004943 23:29.466944 24:27.048384 25:15.69596 26:3.0602183 27:1.9743344 28:1.4807507 29:0 30:0 31:0 32:0 33:0 34:0 35:0 36:0 37:0 38:0 39:0 40:0 41:0 42:0 43:0 44:0 45:0 46:0 47:0 48:0.54294175 49:0.59230012 50:0.39486673 51:0.44422507 52:0.59230012 53:0.74037522 54:0.93780869 55:0.64165848 56:0.39486673 57:0.29615006 58:0.29615006 59:0.24679171 60:0.3455084 61:1.6288258 62:4.6396861 63:4.2941775 64:5.5774951 65:5.3800616 66:4.5409694 67:6.8114543 68:11.648574 69:5.5281367 70:6.1697955 71:5.0345531 72:5.42942 73:3.8005939 74:5.0839114 75:2.3692012 76:2.615993 77:2.2704844 78:1.6781842 79:4.2941775 80:4.2941775 81:0.49358341 82:0 83:0 84:0 85:0 86:0 87:0 88:0 89:0 90:0 91:0.098716684 92:0.049358342 93:0.098716684 94:0.14807503 95:1.7275425 96:1.7275425 97:1.1846005 98:0.74037522 99:0.44422507 100:0.39486673 101:0.19743337 102:0.19743337 103:0.049358342 104:0.049358342 105:0.59230012 106:1.5794674 107:5.8242869 108:8.7364302 109:13.919059 110:13.524192 111:10.217181 112:5.7255702 113:0.64165848 114:1.4807507 115:5.7255702 116:6.0217204 117:4.4422526 118:3.8993106 119:4.1461024 120:2.615993 121:1.6781842 122:0.83909196 123:0.59230012 124:0.29615006 125:0.098716684 126:0.049358342 127:0.049358342 128:0.14807503 129:0.049358342 130:0.049358342 131:0 132:0 133:0 134:0 135:0 136:0 137:0 138:0 139:0 140:0 141:0 142:0 143:0 144:0 145:0 146:0 147:0 148:0 149:0 150:0 151:0 152:0 153:0 154:0 155:0 156:0 157:0 158:0 159:0 160:0 161:0 162:0 163:0 164:0 165:0 166:0 167:0 168:0 169:0 170:0 171:0 172:0 173:0 174:0 175:0 176:0 177:0 178:0 179:0 180:0 181:0 182:0 183:0 184:0 185:0 186:0 187:0 188:0 189:0 190:0 191:0 192:0 193:0 194:0 195:0 196:0 197:0 198:0 199:0 200:0 201:0 202:0 203:0 204:0 205:0 206:0 207:0 208:0 209:0 210:0 211:0 212:0 213:0 214:0 215:0 216:0 217:0 218:0 219:0 220:0 221:0 222:0 223:0 224:0 225:0 226:0 227:0 228:0 229:0 230:0 231:0 232:0 233:0 234:0 235:0 236:0 237:0 238:0 239:0 240:0 241:0 242:0.04933399 243:0 244:0 245:0 246:0 247:0 248:0.19733596 249:0.098667979 250:0.04933399 251:0 252:0.098667979 253:0.098667979 254:0.24666995 255:0.14800197 256:0.04933399 257:0 258:0.19733596 259:0.14800197 260:0.29600394 261:0.098667979 262:0.14800197 263:0.098667979 264:0.14800197 265:0.098667979 266:0.19733596 267:0 268:0.098667979 269:0.24666995 270:0.14800197 271:0.29600394 272:0.44400591 273:0.44400591 274:0.44400591 275:0.64134187 276:0.69067585 277:0.69067585 278:0.78934383 279:0.98667979 280:1.1346819 281:0.9373458 282:1.6280224 283:2.220031 284:3.3053801 285:3.5027163 286:3.3547142 287:6.3147569 288:5.3280759 289:4.489397 290:4.7360673 291:4.0947247 292:3.4533823 293:3.5027163 294:3.8973887 295:4.1440587 296:3.3053801 297:2.6147034 298:1.6280224 299:1.23335 300:1.4306862 301:2.3186991 302:4.0453906 303:4.0947247 304:3.7493865 305:4.7360673 306:4.1440587 307:1.5293543 308:0.74000984 
0.4978485897008992 0.3274872437386677 0.1487644133435474 0.1455229106400665 0.2435981751294226 0.232960284630797 1:0 2:0.054674685 3:0 4:0 5:0 6:0 7:0 8:0 9:0 10:0 11:0 12:0 13:0 14:0 15:0 16:0 17:0 18:0.3827228 19:2.952431 20:2.6243832 21:7.217052 22:12.028454 23:24.275532 24:34.882416 25:5.3581147 26:1.64024 27:4.4833207 28:3.9365742 29:0.16402406 30:0.054674685 31:0 32:0 33:0 34:0 35:0 36:0 37:0 38:0 39:0 40:0 41:0 42:0 43:0 44:0 45:0 46:0 47:0 48:0 49:0 50:0 51:0 52:0 53:0 54:0 55:0 56:0.054674685 57:0.16402406 58:0 59:0.32804811 60:0.76544559 61:1.6949146 62:1.202843 63:3.8818996 64:7.4357505 65:5.3034401 66:11.481703 67:5.7955117 68:4.9753923 69:8.8026228 70:12.028454 71:9.8961248 72:7.2717266 73:2.3510101 74:1.4215415 75:2.515034 76:2.7884071 77:2.952431 78:1.6949146 79:0.49207217 80:0.76544559 81:0.71077091 82:0.76544559 83:0.87479496 84:0.65609622 85:0.10934937 86:0.16402406 87:0.21869874 88:0.32804811 89:0.16402406 90:0 91:0.054674685 92:0 93:0 94:0.32804811 95:1.64024 96:4.4286461 97:1.5855653 98:0.43739748 99:0.10934937 100:0.82012028 101:0.60142154 102:0.82012028 103:0.16402406 104:0.92946965 105:2.0229623 106:2.2416608 107:3.4445026 108:4.9753923 109:7.7637982 110:16.839848 111:14.215458 112:4.0459237 113:0.82012028 114:1.4215415 115:1.9682877 116:3.389828 117:5.6314878 118:5.030067 119:2.952431 120:2.6243832 121:1.4762161 122:1.0934937 123:0.98414433 124:0.43739748 125:0.82012028 126:0.27337343 127:0.60142154 128:0.43739748 129:0.87479496 130:0.82012028 131:0.92946965 132:0 133:0 134:0 135:0 136:0 137:0 138:0 139:0 140:0 141:0 142:0 143:0 144:0 145:0 146:0 147:0 148:0 149:0 150:0 151:0 152:0 153:0 154:0 155:0 156:0 157:0 158:0 159:0 160:0 161:0 162:0 163:0 164:0 165:0 166:0 167:0 168:0 169:0 170:0 171:0 172:0 173:0 174:0 175:0 176:0 177:0 178:0 179:0 180:0 181:0 182:0 183:0 184:0 185:0 186:0 187:0 188:0 189:0 190:0 191:0 192:0 193:0 194:0 195:0 196:0 197:0 198:0 199:0 200:0 201:0 202:0 203:0 204:0 205:0 206:0 207:0 208:0 209:0 210:0 211:0 212:0 213:0 214:0 215:0 216:0 217:0 218:0 219:0 220:0 221:0 222:0 223:0 224:0 225:0 226:0 227:0 228:0 229:0 230:0 231:0 232:0 233:0 234:0 235:0 236:0 237:0 238:0 239:0 240:0 241:0 242:0 243:0 244:0 245:0 246:0 247:0 248:0 249:0 250:0 251:0 252:0 253:0 254:0 255:0.054644808 256:0 257:0.10928962 258:0.054644808 259:0 260:0 261:0 262:0 263:0.054644808 264:0.054644808 265:0.054644808 266:0 267:0.21857923 268:0.21857923 269:0.16393442 270:0.32786888 271:0.32786888 272:1.6393446 273:1.2568308 274:1.4754101 275:1.3661205 276:2.6229513 277:3.005465 278:7.2677469 279:6.2294998 280:7.9234819 281:5.2458973 282:7.7595482 283:5.7376986 284:4.4808731 285:5.7923431 286:5.9562769 287:6.338789 288:3.1147547 289:1.1475412 290:1.2568308 291:1.0928963 292:0.32786888 293:1.0928963 294:0.60109299 295:0.54644817 296:0.76502746 297:0.60109299 298:0.65573782 299:1.2568308 300:0.81967229 301:1.0382515 302:1.3661205 303:1.3661205 304:1.5846997 305:1.9125687 306:1.803279 307:0.65573782 308:1.2568308 
0.229878195359075 0.1442725325054407 0.0698647747700066 0.07161214248395355 0.1166793897160679 0.1092974468063379 1:0 2:0 3:0 4:0 5:0 6:0 7:0 8:0 9:0 10:0 11:0 12:0 13:0 14:0 15:0 16:0 17:0 18:0.29052877 19:0.58105761 20:0.40674031 21:3.951189 22:10.400929 23:45.787163 24:13.306203 25:10.342824 26:5.7524734 27:7.3794398 28:0.92969221 29:0.52295184 30:0.34863454 31:0.058105752 32:0 33:0 34:0 35:0 36:0 37:0 38:0 39:0 40:0 41:0 42:0 43:0 44:0 45:0 46:0 47:0 48:0 49:0 50:0 51:0 52:0 53:0 54:0 55:0 56:0 57:0 58:0.058105752 59:0.29052877 60:0.34863454 61:0.63916337 62:1.8593836 63:2.2080178 64:3.8349776 65:2.2661235 66:3.8349776 67:5.4038377 68:4.8808842 69:10.110402 70:12.31841 71:10.51714 72:10.226613 73:7.7861814 74:7.6118636 75:0.81348068 76:0.69726914 77:0.75537491 78:0.63916337 79:0.58105761 80:1.0459037 81:2.1499121 82:3.3120263 83:5.2295198 84:0.58105761 85:0 86:0 87:0.058105752 88:0 89:0 90:0 91:0 92:0 93:0 94:0 95:0.058105752 96:0.63916337 97:3.1958148 98:4.009295 99:2.5566521 100:0.92969221 101:0.23242301 102:0.69726914 103:0.52295184 104:1.3364322 105:1.975595 106:3.370132 107:4.0674009 108:3.5444491 109:7.3794398 110:8.1348162 111:7.0308042 112:6.7983804 113:2.7890749 114:8.367238 115:8.1348162 116:6.2173209 117:4.4160366 118:3.2539206 119:2.3242292 120:1.9174893 121:1.2783265 122:0.98779798 123:0.92969221 124:1.1621151 125:0.17431726 126:0.23242301 127:0.1162115 128:0.058105752 129:0.058105752 130:0.29052877 131:0.46484607 132:0.34863454 133:0.058105752 134:0 135:0 136:0 137:0 138:0 139:0 140:0 141:0 142:0 143:0 144:0 145:0 146:0 147:0 148:0 149:0 150:0 151:0 152:0 153:0 154:0 155:0 156:0 157:0 158:0 159:0 160:0 161:0 162:0 163:0 164:0 165:0 166:0 167:0 168:0 169:0 170:0 171:0 172:0 173:0 174:0 175:0 176:0 177:0 178:0 179:0 180:0 181:0 182:0 183:0 184:0 185:0 186:0 187:0 188:0 189:0 190:0 191:0 192:0 193:0 194:0 195:0 196:0 197:0 198:0 199:0 200:0 201:0 202:0 203:0 204:0 205:0 206:0 207:0 208:0 209:0 210:0 211:0 212:0 213:0 214:0 215:0 216:0 217:0 218:0 219:0 220:0 221:0 222:0 223:0 224:0 225:0 226:0 227:0 228:0 229:0 230:0 231:0 232:0 233:0 234:0 235:0 236:0 237:0 238:0 239:0 240:0 241:0 242:0 243:0 244:0 245:0 246:0 247:0 248:0 249:0 250:0 251:0 252:0 253:0 254:0 255:0.058072008 256:0.058072008 257:0.11614402 258:0.058072008 259:0.11614402 260:0.11614402 261:0.058072008 262:0.058072008 263:0.11614402 264:0.17421603 265:0.058072008 266:0.11614402 267:0.29036006 268:0.63879216 269:0.69686419 270:0.69686419 271:0.34843206 272:0.23228805 273:0.23228805 274:0.29036006 275:0.058072008 276:0.11614402 277:0.29036006 278:0.29036006 279:0.34843206 280:0.46457607 281:0.11614402 282:0.46457607 283:0.17421603 284:0.46457607 285:0.29036006 286:2.5551686 287:7.7816567 288:6.3298545 289:3.7746825 290:3.42625 291:4.9361243 292:4.7619081 293:5.2264848 294:7.2009358 295:4.5876918 296:4.1231151 297:4.1811872 298:3.1939616 299:6.3879266 300:5.9814219 301:4.2392592 302:2.9036012 303:3.4843221 304:3.3101058 305:1.567944 306:1.3937281 307:0.98722434 308:0.058072008 
0.5783949762981553 0.2931691193521623 0.1745507644437188 0.1767837246000878 0.2942243890910419 0.2738815901886463 1:0 2:0 3:0 4:0 5:0 6:0 7:0 8:0 9:0 10:0 11:0 12:0 13:0 14:0 15:0 16:0 17:0 18:0 19:0 20:0 21:0 22:0 23:40.938217 24:50.221893 25:8.7901258 26:0.098765433 27:0 28:0 29:0 30:0 31:0 32:0 33:0 34:0 35:0 36:0 37:0 38:0 39:0 40:0 41:0 42:0 43:0 44:0 45:0 46:0 47:0 48:0 49:0 50:0 51:0 52:0 53:0 54:0 55:0 56:0 57:0 58:0 59:0 60:0 61:0.049382716 62:0.2962963 63:0.5925926 64:2.2716041 65:5.0864172 66:10.617303 67:18.370459 68:18.172926 69:17.432178 70:11.111135 71:4.1975288 72:2.4197521 73:2.3209867 74:2.2222214 75:1.7283944 76:3.1604924 77:0 78:0 79:0 80:0 81:0 82:0 83:0 84:0 85:0 86:0 87:0 88:0 89:0 90:0 91:0 92:0.049382716 93:0 94:0 95:0 96:0.049382716 97:0 98:0.19753087 99:0.098765433 100:0.2962963 101:0.5925926 102:0.74074066 103:0.5925926 104:0.79012334 105:1.5802463 106:2.2716041 107:3.9506154 108:7.6049342 109:15.061788 110:24.247055 111:23.506308 112:9.2839575 113:1.3333329 114:2.5185175 115:1.6790117 116:1.7283944 117:0.9382714 118:0.64197528 119:0.19753087 120:0.098765433 121:0 122:0 123:0 124:0 125:0 126:0 127:0 128:0 129:0 130:0 131:0 132:0 133:0 134:0 135:0 136:0 137:0 138:0 139:0 140:0 141:0 142:0 143:0 144:0 145:0 146:0 147:0 148:0 149:0 150:0 151:0 152:0 153:0 154:0 155:0 156:0 157:0 158:0 159:0 160:0 161:0 162:0 163:0 164:0 165:0 166:0 167:0 168:0 169:0 170:0 171:0 172:0 173:0 174:0 175:0 176:0 177:0 178:0 179:0 180:0 181:0 182:0 183:0 184:0 185:0 186:0 187:0 188:0 189:0 190:0 191:0 192:0 193:0 194:0 195:0 196:0 197:0 198:0 199:0 200:0 201:0 202:0 203:0 204:0 205:0 206:0 207:0 208:0 209:0 210:0 211:0 212:0 213:0 214:0 215:0 216:0 217:0 218:0 219:0 220:0 221:0 222:0 223:0 224:0 225:0 226:0 227:0 228:0 229:0 230:0 231:0 232:0 233:0 234:0 235:0 236:0 237:0 238:0 239:0 240:0 241:0 242:0 243:0 244:0 245:0 246:0 247:0 248:0 249:0 250:0 251:0 252:0 253:0 254:0 255:0 256:0 257:0 258:0 259:0 260:0 261:0 262:0 263:0 264:0 265:0 266:0 267:0 268:0 269:0 270:0 271:0 272:0 273:0 274:0 275:0 276:0 277:0 278:0 279:0 280:0 281:0 282:0 283:0 284:0 285:0 286:0 287:0.049358342 288:0.049358342 289:0 290:0.098716684 291:0 292:0.64165848 293:1.0858837 294:1.1352421 295:1.4313923 296:1.9743344 297:2.4679179 298:3.4550853 299:2.9615016 300:5.972362 301:10.612048 302:13.2774 303:21.372171 304:13.129325 305:4.9851947 306:4.0967441 307:3.6525187 308:7.5518298 
0.4281585534914129 0.2185955324677568 0.1309966051561965 0.1326222447205543 0.220189199507678 0.2046689542478719 1:0 2:0 3:0 4:0 5:0 6:0 7:0 8:0 9:0 10:0 11:0 12:0 13:0 14:0 15:0 16:0 17:0 18:0 19:0 20:0 21:0 22:1.1337868 23:44.274792 24:49.03677 25:5.5555511 26:0.056689341 27:0 28:0 29:0 30:0 31:0 32:0 33:0 34:0 35:0 36:0 37:0 38:0 39:0 40:0 41:0 42:0 43:0 44:0 45:0 46:0 47:0 48:0 49:0 50:0 51:0 52:0 53:0 54:0 55:0 56:0 57:0 58:0 59:0 60:0.11337868 61:0.34013605 62:1.020408 63:5.328794 64:9.9206247 65:14.739212 66:14.795901 67:13.718805 68:15.532862 69:15.362794 70:7.1428504 71:1.9841275 72:0.056689341 73:0 74:0 75:0 76:0 77:0 78:0 79:0 80:0 81:0 82:0 83:0 84:0 85:0 86:0 87:0 88:0 89:0 90:0 91:0.11337868 92:0.11337868 93:0.11337868 94:0.17006803 95:0.17006803 96:0.2834467 97:0.17006803 98:0.22675736 99:0.2834467 100:0.34013605 101:0.62358272 102:0.90702933 103:1.1904762 104:1.0770974 105:2.0408168 106:2.8344665 107:5.102037 108:8.2766361 109:11.961438 110:16.439898 111:20.124762 112:20.748354 113:1.75737 114:1.1904762 115:1.5306125 116:0.45351475 117:0.45351475 118:0.68027204 119:0.34013605 120:0.22675736 121:0.11337868 122:0 123:0 124:0 125:0 126:0 127:0 128:0 129:0 130:0 131:0 132:0 133:0 134:0 135:0 136:0 137:0 138:0 139:0 140:0 141:0 142:0 143:0 144:0 145:0 146:0 147:0 148:0 149:0 150:0 151:0 152:0 153:0 154:0 155:0 156:0 157:0 158:0 159:0 160:0 161:0 162:0 163:0 164:0 165:0 166:0 167:0 168:0 169:0 170:0 171:0 172:0 173:0 174:0 175:0 176:0 177:0 178:0 179:0 180:0 181:0 182:0 183:0 184:0 185:0 186:0 187:0 188:0 189:0 190:0 191:0 192:0 193:0 194:0 195:0 196:0 197:0 198:0 199:0 200:0 201:0 202:0 203:0 204:0 205:0 206:0 207:0 208:0 209:0 210:0 211:0 212:0 213:0 214:0 215:0 216:0 217:0 218:0 219:0 220:0 221:0 222:0 223:0 224:0 225:0 226:0 227:0 228:0 229:0 230:0 231:0 232:0 233:0 234:0 235:0 236:0 237:0 238:0 239:0 240:0 241:0 242:0 243:0 244:0 245:0 246:0 247:0 248:0 249:0 250:0 251:0 252:0 253:0 254:0 255:0 256:0 257:0 258:0 259:0 260:0 261:0 262:0 263:0 264:0 265:0 266:0 267:0 268:0 269:0 270:0 271:0 272:0 273:0 274:0 275:0 276:0 277:0 278:0 279:0 280:0 281:0 282:0 283:0 284:0 285:0.16997167 286:0.28328612 287:0.16997167 288:0.4532578 289:0.56657219 290:0.73654377 291:1.0764869 292:1.8130305 293:5.4390979 294:7.6487331 295:8.0453339 296:2.8328617 297:3.3994348 298:3.2861202 299:4.4192662 300:7.08216 301:12.067969 302:5.6090698 303:5.6090698 304:10.538235 305:9.5750685 306:7.3654466 307:1.7563733 308:0.056657225 
0.6245602594770788 0.4279064327559343 0.1879042106273976 0.1979752154980592 0.3158056021149566 0.2919289282219996 1:0 2:0 3:0 4:0 5:0 6:0 7:0 8:0 9:0 10:0 11:0 12:0 13:0 14:1.1686991 15:0.96544731 16:0.91463429 17:0.55894315 18:0.76219523 19:2.8963399 20:2.8963399 21:10.619916 22:17.530476 23:13.109739 24:26.524496 25:11.128043 26:7.6219621 27:1.4227639 28:0.66056919 29:0.66056919 30:0.050813008 31:0.050813008 32:0.10162602 33:0.10162602 34:0.050813008 35:0.15243903 36:0 37:0 38:0.10162602 39:0 40:0 41:0 42:0 43:0 44:0 45:0 46:0 47:0 48:0 49:0 50:0 51:0 52:0 53:0 54:0 55:0 56:0 57:0 58:0 59:0 60:1.8292676 61:4.268291 62:9.5020361 63:5.7926869 64:3.6585343 65:3.3028436 66:3.2012177 67:2.9471529 68:2.4390233 69:2.2865844 70:4.1666646 71:9.9593506 72:11.991859 73:5.8435001 74:5.8435001 75:1.7276417 76:1.6768287 77:1.371951 78:0.96544731 79:0.76219523 80:0.45731711 81:0.55894315 82:0.96544731 83:2.5914621 84:5.3353682 85:3.2012177 86:3.3028436 87:0.10162602 88:0 89:0 90:0 91:4.0650382 92:4.9796758 93:0.10162602 94:0.050813008 95:0.35569108 96:0.55894315 97:0.050813008 98:0.25406504 99:0.25406504 100:0.35569108 101:0.25406504 102:0.55894315 103:0.66056919 104:0.50813013 105:1.2195121 106:2.743901 107:3.7601602 108:5.284555 109:7.8252149 110:12.906488 111:8.6382198 112:2.743901 113:0.66056919 114:0.81300825 115:2.4390233 116:4.2174778 117:7.0122037 118:6.8597641 119:4.8272362 120:2.6422751 121:1.4227639 122:0.50813013 123:0.66056919 124:0.45731711 125:0.35569108 126:0.15243903 127:0.050813008 128:0.30487806 129:0.10162602 130:0.25406504 131:3.9125991 132:3.3028436 133:0.10162602 134:0.45731711 135:0.40650409 136:0 137:0 138:0 139:0 140:0 141:0 142:0 143:0 144:0 145:0 146:0 147:0 148:0 149:0 150:0 151:0 152:0 153:0 154:0 155:0 156:0 157:0 158:0 159:0 160:0 161:0 162:0 163:0 164:0 165:0 166:0 167:0 168:0 169:0 170:0 171:0 172:0 173:0 174:0 175:0 176:0 177:0 178:0 179:0 180:0 181:0 182:0 183:0 184:0 185:0 186:0 187:0 188:0 189:0 190:0 191:0 192:0 193:0 194:0 195:0 196:0 197:0 198:0 199:0 200:0 201:0 202:0 203:0 204:0 205:0 206:0 207:0 208:0 209:0 210:0 211:0 212:0 213:0 214:0 215:0 216:0 217:0 218:0 219:0 220:0 221:0 222:0 223:0 224:0 225:0 226:0 227:0 228:0 229:0 230:0 231:0 232:0 233:0 234:0 235:0 236:0 237:0 238:0 239:0 240:0 241:0 242:0 243:0 244:0 245:0.050787203 246:0 247:0 248:0 249:0 250:0.050787203 251:0 252:0 253:0 254:0 255:0 256:0 257:0 258:0 259:0.050787203 260:0 261:0.050787203 262:0.050787203 263:0.050787203 264:0 265:0.10157441 266:0 267:0.1523616 268:0 269:0.050787203 270:0 271:0.050787203 272:0 273:0 274:0 275:0.10157441 276:1.0665313 277:3.4027429 278:7.2117686 279:6.500751 280:8.9385262 281:9.8019047 282:7.8212123 283:6.7546859 284:8.0751476 285:6.7546859 286:4.723207 287:2.7932963 288:1.3204674 289:1.472829 290:3.5043173 291:1.6251906 292:1.9807011 293:0.60944647 294:0.45708483 295:0.50787205 296:0.40629762 297:0.71102089 298:0.66023368 299:1.0665313 300:1.0157441 301:0.96495694 302:0.81259531 303:0.55865926 304:0.71102089 305:1.9807011 306:2.3362114 307:2.3362114 308:0.35551041 
0.402810708227616 0.1995807231166806 0.1216611403828924 0.1231413293332933 0.2034303601982629 0.1905768799679323 1:0 2:0 3:0 4:0 5:0 6:0 7:0 8:0 9:0 10:0 11:0 12:0 13:0 14:0 15:0 16:0.08130081 17:0.32520324 18:0.73170722 19:0.56910563 20:0.81300801 21:3.0894301 22:11.707309 23:48.130417 24:22.276405 25:4.7967458 26:5.6910539 27:1.7886181 28:0.08130081 29:0 30:0 31:0 32:0 33:0 34:0 35:0 36:0 37:0 38:0 39:0 40:0 41:0 42:0 43:0 44:0 45:0 46:0 47:0 48:0 49:0 50:0 51:0 52:0 53:0 54:0 55:0 56:0 57:0.56910563 58:0.56910563 59:2.3577235 60:2.9268286 61:2.3577235 62:1.0569104 63:0.65040642 64:0.89430881 65:1.8699189 66:2.3577235 67:5.3658509 68:8.0487757 69:12.357715 70:11.707309 71:12.195113 72:12.601617 73:7.3170686 74:3.8211367 75:1.5447155 76:0.65040642 77:0.81300801 78:0.65040642 79:0.65040642 80:1.1382113 81:0.65040642 82:1.4634147 83:3.0894301 84:0.40650403 85:0 86:0 87:0 88:0 89:0 90:0 91:0 92:0 93:0 94:0 95:0.08130081 96:0.08130081 97:0.08130081 98:0.89430881 99:1.5447155 100:3.9024374 101:1.5447155 102:1.300813 103:1.6260164 104:1.6260164 105:1.300813 106:1.3821138 107:1.9512198 108:3.9024374 109:6.9918656 110:8.861783 111:9.5934896 112:4.4715428 113:1.8699189 114:12.520316 115:8.0487757 116:5.8536553 117:5.8536553 118:4.8780465 119:2.9268286 120:1.9512198 121:1.7073172 122:1.1382113 123:0.89430881 124:0.16260162 125:0.48780483 126:0.24390243 127:0.16260162 128:0.08130081 129:0.08130081 130:0.08130081 131:0 132:0 133:0 134:0 135:0 136:0 137:0 138:0 139:0 140:0 141:0 142:0 143:0 144:0 145:0 146:0 147:0 148:0 149:0 150:0 151:0 152:0 153:0 154:0 155:0 156:0 157:0 158:0 159:0 160:0 161:0 162:0 163:0 164:0 165:0 166:0 167:0 168:0 169:0 170:0 171:0 172:0 173:0 174:0 175:0 176:0 177:0 178:0 179:0 180:0 181:0 182:0 183:0 184:0 185:0 186:0 187:0 188:0 189:0 190:0 191:0 192:0 193:0 194:0 195:0 196:0 197:0 198:0 199:0 200:0 201:0 202:0 203:0 204:0 205:0 206:0 207:0 208:0 209:0 210:0 211:0 212:0 213:0 214:0 215:0 216:0 217:0 218:0 219:0 220:0 221:0 222:0 223:0 224:0 225:0 226:0 227:0 228:0 229:0 230:0 231:0 232:0 233:0 234:0 235:0 236:0 237:0 238:0 239:0 240:0 241:0 242:0 243:0 244:0 245:0 246:0 247:0 248:0 249:0 250:0 251:0 252:0 253:0 254:0 255:0 256:0 257:0 258:0 259:0 260:0.081234768 261:0 262:0.2437043 263:0 264:0.081234768 265:0.2437043 266:0.081234768 267:0.48740864 268:0.2437043 269:0.2437043 270:0.56864339 271:0.81234765 272:1.056052 273:1.8684001 274:1.8684001 275:2.1121044 276:5.6864357 277:4.5491467 278:5.8489056 279:5.280261 280:5.361496 281:6.498785 282:4.0617371 283:5.1990261 284:4.0617371 285:4.6303816 286:2.8432167 287:3.6555636 288:2.1933391 289:2.5182779 290:3.005686 291:5.1177912 292:6.6612549 293:1.6246957 294:1.5434608 295:1.9496349 296:1.462226 297:0.64987814 298:0.48740864 299:0.81234765 300:0.7311129 301:0.16246954 302:1.5434608 303:1.7871653 304:0.081234768 305:0 306:0 307:0 308:0 
0.1893675244917105 0.3198981866095855 0.05707141985907293 0.05678351794218528 0.0926195201673371 0.08971517002338381 1:0 2:0 3:0 4:0 5:0 6:0 7:0 8:0 9:0 10:0 11:0 12:0 13:0 14:0 15:0.088105723 16:0.35242289 17:0.17621145 18:0.26431715 19:0 20:1.6740085 21:1.2334801 22:18.678463 23:27.22476 24:23.876726 25:13.127775 26:4.933919 27:3.9647563 28:2.7312768 29:0.44052863 30:0 31:0 32:0 33:0 34:0 35:0 36:0.088105723 37:0.088105723 38:0.17621145 39:0 40:0 41:0.17621145 42:0.44052863 43:0.35242289 44:0 45:0 46:0 47:0 48:0 49:0 50:0 51:0 52:0 53:0 54:0 55:0 56:0.26431715 57:1.1453744 58:1.6740085 59:1.6740085 60:1.1453744 61:1.0572687 62:1.3215858 63:1.6740085 64:5.2863417 65:1.1453744 66:3.8766506 67:9.2511044 68:5.9030814 69:11.277546 70:14.537474 71:7.4889836 72:6.0792928 73:5.5506587 74:4.933919 75:1.4096915 76:0.35242289 77:0.35242289 78:0.70484585 79:1.5859028 80:1.3215858 81:1.4096915 82:2.378854 83:3.5242279 84:0.35242289 85:0.088105723 86:0 87:0.79295158 88:0.52863437 89:0 90:0 91:0 92:0 93:0.26431715 94:2.5550654 95:1.6740085 96:1.5859028 97:2.114537 98:3.0836995 99:0.44052863 100:0.26431715 101:0.44052863 102:0.26431715 103:0.35242289 104:0.26431715 105:1.2334801 106:3.8766506 107:6.9603496 108:11.718077 109:7.400878 110:8.1938305 111:4.5814962 112:2.5550654 113:1.4096915 114:2.0264313 115:5.0220246 116:8.2819366 117:8.0176182 118:3.8766506 119:2.2907484 120:1.4096915 121:1.5859028 122:1.4977971 123:0.35242289 124:0.26431715 125:0.35242289 126:0.44052863 127:0.52863437 128:0.88105732 129:0.44052863 130:0.26431715 131:0.26431715 132:0.44052863 133:0.61674011 134:0 135:0 136:0 137:0 138:0 139:0 140:0 141:0 142:0 143:0 144:0 145:0 146:0 147:0 148:0 149:0 150:0 151:0 152:0 153:0 154:0 155:0 156:0 157:0 158:0 159:0 160:0 161:0 162:0 163:0 164:0 165:0 166:0 167:0 168:0 169:0 170:0 171:0 172:0 173:0 174:0 175:0 176:0 177:0 178:0 179:0 180:0 181:0 182:0 183:0 184:0 185:0 186:0 187:0 188:0 189:0 190:0 191:0 192:0 193:0 194:0 195:0 196:0 197:0 198:0 199:0 200:0 201:0 202:0 203:0 204:0 205:0 206:0 207:0 208:0 209:0 210:0 211:0 212:0 213:0 214:0 215:0 216:0 217:0 218:0 219:0 220:0 221:0 222:0 223:0 224:0 225:0 226:0 227:0 228:0 229:0 230:0 231:0 232:0 233:0 234:0 235:0 236:0 237:0 238:0 239:0 240:0 241:0 242:0 243:0 244:0.17605634 245:0 246:0.70422542 247:0.26408452 248:0.08802817 249:0.52816904 250:0.08802817 251:0.26408452 252:0.17605634 253:0.61619723 254:0.44014084 255:0.08802817 256:0.35211268 257:0.44014084 258:0.26408452 259:0.26408452 260:0.08802817 261:0.08802817 262:0.17605634 263:0.08802817 264:0.17605634 265:0.70422542 266:0.26408452 267:0.08802817 268:0.35211268 269:0.52816904 270:0.96831 271:1.6725355 272:2.0246482 273:3.4330993 274:3.1690147 275:7.3063307 276:4.3133802 277:4.75352 278:4.4894361 279:5.1936598 280:4.0492964 281:3.3450711 282:3.6971838 283:7.0422468 284:6.5140791 285:4.2253523 286:3.3450711 287:2.0246482 288:2.8169019 289:4.3133802 290:2.9929583 291:2.9049301 292:2.8169019 293:1.9366201 294:0.70422542 295:0.52816904 296:0.26408452 297:0.52816904 298:0.35211268 299:0.26408452 300:0 301:0 302:0.70422542 303:0 304:0 305:0 306:0 307:0 308:0 
0.7952144163448137 0.4167992528561559 0.2404830198839808 0.2433094143260104 0.4043268643330082 0.3766907276939827 1:0 2:0 3:0 4:0 5:0.061881188 6:0.061881188 7:0.061881188 8:0.061881188 9:0 10:0 11:0 12:0 13:0 14:0 15:0 16:0 17:0 18:0 19:0.74257427 20:0.12376238 21:0.43316832 22:7.5495014 23:46.287514 24:23.762461 25:11.448009 26:8.6014795 27:0.86633664 28:0 29:0 30:0 31:0 32:0 33:0 34:0 35:0 36:0 37:0 38:0 39:0 40:0 41:0 42:0 43:0 44:0 45:0 46:0 47:0.061881188 48:0.99009901 49:0.80445546 50:1.6089109 51:0.43316832 52:0.74257427 53:0.37128714 54:0.43316832 55:0.30940595 56:0.061881188 57:0.061881188 58:0.061881188 59:0.061881188 60:0.061881188 61:3.0321801 62:3.7747557 63:2.2277231 64:3.2797053 65:2.0420792 66:3.4034679 67:1.980198 68:6.188118 69:6.6212854 70:9.4678144 71:7.9826689 72:11.50989 73:16.893557 74:8.7252417 75:5.5074263 76:0.37128714 77:0.49504951 78:0.30940595 79:0.12376238 80:0.061881188 81:0 82:0 83:0 84:0 85:0 86:0 87:0 88:0 89:0 90:0 91:0.061881188 92:0.061881188 93:0.061881188 94:0 95:0.061881188 96:0.061881188 97:0.18564357 98:0.24752475 99:0.30940595 100:0.37128714 101:0.12376238 102:1.2376238 103:2.5990109 104:1.9183168 105:1.7326733 106:3.7747557 107:5.3217831 108:12.561868 109:13.118797 110:9.962863 111:7.9826689 112:7.7351446 113:2.8465362 114:11.262365 115:2.8465362 116:1.7326733 117:1.980198 118:2.8465362 119:1.6089109 120:0.99009901 121:0.86633664 122:0.43316832 123:0.86633664 124:0.37128714 125:0.55693072 126:0.55693072 127:0.12376238 128:0.18564357 129:0.12376238 130:0.12376238 131:0 132:0.18564357 133:0.061881188 134:0 135:0 136:0 137:0 138:0 139:0 140:0 141:0 142:0 143:0 144:0 145:0 146:0 147:0 148:0 149:0 150:0 151:0 152:0 153:0 154:0 155:0 156:0 157:0 158:0 159:0 160:0 161:0 162:0 163:0 164:0 165:0 166:0 167:0 168:0 169:0 170:0 171:0 172:0 173:0 174:0 175:0 176:0 177:0 178:0 179:0 180:0 181:0 182:0 183:0 184:0 185:0 186:0 187:0 188:0 189:0 190:0 191:0 192:0 193:0 194:0 195:0 196:0 197:0 198:0 199:0 200:0 201:0 202:0 203:0 204:0 205:0 206:0 207:0 208:0 209:0 210:0 211:0 212:0 213:0 214:0 215:0 216:0 217:0 218:0 219:0 220:0 221:0 222:0 223:0 224:0 225:0 226:0 227:0 228:0 229:0 230:0 231:0 232:0 233:0 234:0 235:0 236:0 237:0 238:0 239:0 240:0 241:0 242:0 243:0 244:0 245:0 246:0 247:0 248:0 249:0 250:0 251:0 252:0 253:0 254:0 255:0 256:0 257:0.061842918 258:0.061842918 259:0 260:0 261:0 262:0.061842918 263:0.061842918 264:0 265:0.12368584 266:0 267:0.061842918 268:0 269:0.18552876 270:0 271:0.12368584 272:0 273:0 274:0.30921459 275:0.12368584 276:0.18552876 277:0.49474335 278:0.37105751 279:1.3605442 280:1.48423 281:0.98948669 282:0.92764378 283:4.6382189 284:3.3395176 285:5.0711193 286:6.4316635 287:7.8540506 288:7.9158936 289:5.1329622 290:2.9066172 291:4.2053185 292:10.698825 293:6.802721 294:8.4724798 295:4.576376 296:3.4013605 297:2.7829313 298:6.8645639 299:0.061842918 300:0.061842918 301:0.12368584 302:0.12368584 303:0.061842918 304:0.55658627 305:0.55658627 306:0.18552876 307:0.18552876 308:0 
0.1207347666933958 0.06440424291860047 0.04102003918742165 0.04091027015174691 0.06774917123543564 0.0636669787899351 1:0 2:0 3:0 4:0 5:0 6:0 7:0 8:0 9:0 10:0 11:0 12:0 13:0 14:0 15:0 16:0 17:0 18:0 19:0 20:0 21:0 22:4.8607626 23:54.733784 24:39.544041 25:0.91139233 26:0 27:0 28:0 29:0 30:0 31:0 32:0 33:0 34:0 35:0 36:0 37:0 38:0 39:0 40:0 41:0 42:0 43:0 44:0 45:0 46:0 47:0 48:0 49:0 50:0 51:0 52:0 53:0 54:0 55:0 56:0 57:0 58:0 59:0 60:0 61:0 62:0 63:0 64:0.55696207 65:1.6708865 66:4.5063319 67:15.797407 68:24.202398 69:30.37956 70:16.253099 71:5.7215228 72:0.96202523 73:0 74:0 75:0 76:0 77:0 78:0 79:0 80:0 81:0 82:0 83:0 84:0 85:0 86:0 87:0 88:0 89:0 90:0 91:0.10126583 92:0.15189874 93:0.050632913 94:0 95:0.10126583 96:0.10126583 97:0.15189874 98:0.15189874 99:0.15189874 100:0.10126583 101:0.15189874 102:0.45569625 103:0.60759497 104:0.86075944 105:1.4177217 106:2.0253172 107:4.1012683 108:6.4810171 109:9.2658176 110:12.607561 111:16.101202 112:21.265715 113:4.8101296 114:10.3291 115:4.6582308 116:1.2658229 117:0.70886075 118:0.15189874 119:0.050632913 120:0.10126583 121:0.25316456 122:0.20253165 123:0.20253165 124:0.25316456 125:0.10126583 126:0.10126583 127:0.050632913 128:0.10126583 129:0.10126583 130:0.050632913 131:0 132:0.050632913 133:0.050632913 134:0.050632913 135:0 136:0 137:0 138:0 139:0 140:0 141:0 142:0 143:0 144:0 145:0 146:0 147:0 148:0 149:0 150:0 151:0 152:0 153:0 154:0 155:0 156:0 157:0 158:0 159:0 160:0 161:0 162:0 163:0 164:0 165:0 166:0 167:0 168:0 169:0 170:0 171:0 172:0 173:0 174:0 175:0 176:0 177:0 178:0 179:0 180:0 181:0 182:0 183:0 184:0 185:0 186:0 187:0 188:0 189:0 190:0 191:0 192:0 193:0 194:0 195:0 196:0 197:0 198:0 199:0 200:0 201:0 202:0 203:0 204:0 205:0 206:0 207:0 208:0 209:0 210:0 211:0 212:0 213:0 214:0 215:0 216:0 217:0 218:0 219:0 220:0 221:0 222:0 223:0 224:0 225:0 226:0 227:0 228:0 229:0 230:0 231:0 232:0 233:0 234:0 235:0 236:0 237:0 238:0 239:0 240:0 241:0 242:0 243:0 244:0 245:0 246:0 247:0 248:0 249:0 250:0 251:0 252:0 253:0 254:0 255:0 256:0 257:0 258:0 259:0 260:0 261:0 262:0 263:0 264:0 265:0 266:0 267:0 268:0 269:0 270:0 271:0 272:0 273:0 274:0 275:0 276:0 277:0 278:0 279:0 280:0 281:0 282:0 283:0 284:0 285:0 286:0 287:0 288:0 289:0 290:0.10121457 291:0.15182187 292:0.30364373 293:0.60728741 294:3.5425081 295:6.1740828 296:6.5283332 297:6.6801548 298:8.2995882 299:9.767211 300:8.7044497 301:14.119472 302:15.081017 303:10.020249 304:6.0222611 305:2.8846145 306:1.0121455 307:0 308:0 
0.6326574989018363 0.3251590365735356 0.1906435837415437 0.1930644587269021 0.3200851835183839 0.2992413352696079 1:0 2:0 3:0 4:0 5:0 6:0 7:0.09199632 8:0 9:0.09199632 10:0 11:0 12:0 13:0 14:0 15:0 16:0 17:0 18:0 19:0 20:2.2999084 21:5.8877645 22:19.963224 23:39.098484 24:17.387304 25:6.2557492 26:4.4158254 27:1.8399264 28:0 29:0.45998159 30:0.18399264 31:0 32:0 33:0 34:0 35:0 36:0 37:0.27598897 38:0.18399264 39:0.09199632 40:0 41:0.18399264 42:1.2879485 43:0.09199632 44:0 45:0 46:0 47:0 48:0 49:0 50:0 51:0 52:0 53:0 54:0.18399264 55:0 56:0 57:0.09199632 58:0.09199632 59:0.82796687 60:0.91996318 61:1.0119596 62:0.82796687 63:1.4719411 64:2.2999084 65:4.9678025 66:10.027594 67:12.787479 68:12.419495 69:11.039552 70:11.039552 71:13.98343 72:8.9236393 73:2.207912 74:0.55197793 75:0.18399264 76:0.64397424 77:1.4719411 78:0.55197793 79:0.55197793 80:0.18399264 81:0.27598897 82:0 83:0.09199632 84:0 85:0 86:0 87:0.18399264 88:0 89:0.27598897 90:0 91:0 92:0 93:0 94:0 95:0 96:0 97:0 98:0.18399264 99:0.82796687 100:0.82796687 101:1.1959522 102:0.64397424 103:0.91996318 104:0.82796687 105:2.207912 106:2.6678941 107:4.1398368 108:4.0478406 109:10.487575 110:11.131548 111:7.5436959 112:5.9797606 113:1.4719411 114:2.5758977 115:2.6678941 116:8.8316431 117:8.0956736 118:2.3919048 119:3.495862 120:3.495862 121:2.2999084 122:3.8638477 123:2.2999084 124:2.6678941 125:1.3799448 126:0.18399264 127:0 128:0 129:0 130:0 131:0.18399264 132:0 133:0 134:0.09199632 135:0.45998159 136:0 137:0 138:0 139:0 140:0 141:0 142:0 143:0 144:0 145:0 146:0 147:0 148:0 149:0 150:0 151:0 152:0 153:0 154:0 155:0 156:0 157:0 158:0 159:0 160:0 161:0 162:0 163:0 164:0 165:0 166:0 167:0 168:0 169:0 170:0 171:0 172:0 173:0 174:0 175:0 176:0 177:0 178:0 179:0 180:0 181:0 182:0 183:0 184:0 185:0 186:0 187:0 188:0 189:0 190:0 191:0 192:0 193:0 194:0 195:0 196:0 197:0 198:0 199:0 200:0 201:0 202:0 203:0 204:0 205:0 206:0 207:0 208:0 209:0 210:0 211:0 212:0 213:0 214:0 215:0 216:0 217:0 218:0 219:0 220:0 221:0 222:0 223:0 224:0 225:0 226:0 227:0 228:0 229:0 230:0 231:0 232:0 233:0 234:0 235:0 236:0 237:0 238:0 239:0 240:0 241:0 242:0 243:0.36764705 244:0.091911763 245:0.73529416 246:0.36764705 247:0.45955881 248:1.0110295 249:0.36764705 250:0.091911763 251:0.18382353 252:0.091911763 253:0.36764705 254:0.091911763 255:0.091911763 256:0.27573529 257:0.18382353 258:0.27573529 259:0.18382353 260:0.64338237 261:0.27573529 262:0 263:0.18382353 264:0.18382353 265:0.091911763 266:0.091911763 267:0.27573529 268:0.27573529 269:0.18382353 270:1.1029413 271:2.2058828 272:3.1250007 273:6.5257368 274:6.1580896 275:6.2500014 276:7.6286783 277:7.8125019 278:6.5257368 279:4.687501 280:6.7095604 281:8.4558821 282:5.6985307 283:2.7573535 284:1.2867649 285:1.3786767 286:0.64338237 287:0.64338237 288:0.64338237 289:0.73529416 290:0.73529416 291:1.654412 292:1.654412 293:1.3786767 294:0.82720596 295:2.2058828 296:1.4705884 297:1.5625002 298:0.091911763 299:0 300:0 301:0 302:0 303:0 304:0 305:0 306:0 307:0 308:0 
0.6680838221717925 0.5141263926979665 0.2015432672596154 0.2033334787857176 0.3383453594898072 0.315588624932511 1:0 2:0 3:0 4:0 5:0 6:0 7:0 8:0 9:0 10:0 11:0 12:0 13:0 14:0 15:0 16:0 17:0 18:0 19:0 20:0 21:0.099850222 22:17.224133 23:44.633358 24:30.004894 25:7.4887805 26:0.29955068 27:0.24962556 28:0.049925111 29:0 30:0 31:0 32:0 33:0 34:0 35:0 36:0 37:0 38:0 39:0 40:0 41:0 42:0 43:0 44:0 45:0 46:0 47:0 48:0 49:0 50:0 51:0 52:0 53:0 54:0 55:0 56:0 57:0 58:0.049925111 59:0 60:0.049925111 61:0.24962556 62:1.4478279 63:1.7973036 64:4.6430368 65:7.9880338 66:9.5856295 67:17.823231 68:14.777814 69:14.977513 70:5.7913194 71:3.4947567 72:3.7943072 73:2.8457305 74:2.54618 75:3.0454309 76:3.2451313 77:1.4478279 78:0.3494758 79:0.049925111 80:0.049925111 81:0 82:0 83:0 84:0 85:0 86:0 87:0 88:0 89:0 90:0 91:0 92:0 93:0 94:0.049925111 95:0 96:0.049925111 97:0 98:0.099850222 99:0 100:0.049925111 101:0 102:0.049925111 103:0.19970044 104:0.099850222 105:0.39940092 106:1.2481276 107:2.2965546 108:5.741394 109:9.6355543 110:15.177213 111:14.378415 112:6.6899753 113:1.8971537 114:8.0878839 115:9.735404 116:9.8851786 117:5.2421408 118:3.8442323 119:1.9970039 120:1.0983523 121:0.54917628 122:0.54917628 123:0.049925111 124:0.099850222 125:0.049925111 126:0.049925111 127:0.14977533 128:0.049925111 129:0.099850222 130:0.049925111 131:0.099850222 132:0.14977533 133:0.049925111 134:0 135:0.099850222 136:0 137:0 138:0 139:0 140:0 141:0 142:0 143:0 144:0 145:0 146:0 147:0 148:0 149:0 150:0 151:0 152:0 153:0 154:0 155:0 156:0 157:0 158:0 159:0 160:0 161:0 162:0 163:0 164:0 165:0 166:0 167:0 168:0 169:0 170:0 171:0 172:0 173:0 174:0 175:0 176:0 177:0 178:0 179:0 180:0 181:0 182:0 183:0 184:0 185:0 186:0 187:0 188:0 189:0 190:0 191:0 192:0 193:0 194:0 195:0 196:0 197:0 198:0 199:0 200:0 201:0 202:0 203:0 204:0 205:0 206:0 207:0 208:0 209:0 210:0 211:0 212:0 213:0 214:0 215:0 216:0 217:0 218:0 219:0 220:0 221:0 222:0 223:0 224:0 225:0 226:0 227:0 228:0 229:0 230:0 231:0 232:0 233:0 234:0 235:0 236:0 237:0 238:0 239:0 240:0 241:0 242:0 243:0 244:0 245:0 246:0 247:0 248:0 249:0 250:0 251:0 252:0 253:0 254:0 255:0 256:0 257:0 258:0 259:0 260:0 261:0 262:0 263:0 264:0 265:0 266:0 267:0 268:0 269:0 270:0 271:0 272:0 273:0 274:0 275:0 276:0 277:0.0499002 278:0 279:0 280:0 281:0 282:0 283:0.0499002 284:0 285:0 286:0.0998004 287:0.0998004 288:0.0499002 289:0.0499002 290:0 291:0.0998004 292:0.249501 293:0.74850291 294:1.047904 295:1.4970056 296:1.1976045 297:2.5948107 298:3.7924178 299:3.9920189 300:7.1357226 301:18.113735 302:13.82233 303:18.263435 304:14.171631 305:7.2854228 306:2.5948107 307:2.1457081 308:0.84830326 
0.4068233129385612 0.1988112676995439 0.1190301142475794 0.1204532553975143 0.2002036957312092 0.1869031955482722 1:0 2:0 3:0 4:0 5:0 6:0 7:0 8:0 9:0 10:0 11:0 12:0 13:0 14:0 15:0 16:0 17:0 18:0 19:0 20:0 21:0 22:1.5033947 23:42.191811 24:51.745571 25:4.6071835 26:0 27:0 28:0 29:0 30:0 31:0 32:0 33:0 34:0 35:0 36:0 37:0 38:0 39:0 40:0 41:0 42:0 43:0 44:0 45:0 46:0 47:0 48:0 49:0 50:0 51:0 52:0 53:0 54:0 55:0 56:0 57:0 58:0 59:0 60:0 61:0 62:0.24248302 63:1.9883608 64:6.4985557 65:10.960225 66:14.839925 67:20.174513 68:18.137671 69:15.373384 70:6.6925426 71:3.2492752 72:1.0184287 73:0.53346264 74:0.33947623 75:0 76:0 77:0 78:0 79:0 80:0 81:0 82:0 83:0 84:0 85:0 86:0 87:0 88:0 89:0 90:0 91:0.096993208 92:0 93:0 94:0 95:0.096993208 96:0 97:0 98:0 99:0 100:0.14548981 101:0.38797283 102:0.92143548 103:0.63045585 104:2.3278375 105:2.6673145 106:4.1222162 107:5.1406474 108:8.6809015 109:12.172631 110:17.022257 111:19.107595 112:13.385037 113:1.3579049 114:4.1707129 115:4.7526736 116:2.2793407 117:0.14548981 118:0 119:0 120:0 121:0.096993208 122:0.048496604 123:0.14548981 124:0 125:0 126:0.048496604 127:0 128:0.048496604 129:0 130:0 131:0 132:0 133:0.048496604 134:0 135:0 136:0 137:0 138:0 139:0 140:0 141:0 142:0 143:0 144:0 145:0 146:0 147:0 148:0 149:0 150:0 151:0 152:0 153:0 154:0 155:0 156:0 157:0 158:0 159:0 160:0 161:0 162:0 163:0 164:0 165:0 166:0 167:0 168:0 169:0 170:0 171:0 172:0 173:0 174:0 175:0 176:0 177:0 178:0 179:0 180:0 181:0 182:0 183:0 184:0 185:0 186:0 187:0 188:0 189:0 190:0 191:0 192:0 193:0 194:0 195:0 196:0 197:0 198:0 199:0 200:0 201:0 202:0 203:0 204:0 205:0 206:0 207:0 208:0 209:0 210:0 211:0 212:0 213:0 214:0 215:0 216:0 217:0 218:0 219:0 220:0 221:0 222:0 223:0 224:0 225:0 226:0 227:0 228:0 229:0 230:0 231:0 232:0 233:0 234:0 235:0 236:0 237:0 238:0 239:0 240:0 241:0 242:0 243:0 244:0 245:0 246:0 247:0 248:0 249:0 250:0 251:0 252:0 253:0 254:0 255:0 256:0 257:0 258:0 259:0 260:0 261:0 262:0 263:0 264:0 265:0 266:0 267:0 268:0 269:0 270:0 271:0 272:0 273:0 274:0 275:0 276:0 277:0 278:0 279:0 280:0 281:0 282:0 283:0 284:0 285:0 286:0 287:0 288:0 289:0 290:0 291:0.048473097 292:0.096946195 293:0 294:0.048473097 295:0.2908386 296:2.2782364 297:3.9747956 298:3.9263225 299:9.5007191 300:21.085852 301:21.376692 302:15.269049 303:10.179346 304:6.6408043 305:3.1992257 306:0.77556968 307:0.92098904 308:0.38778478 
0.926199777153488 0.4723778105208248 0.2785095259377271 0.2816862380106991 0.4680910310744971 0.4371539694346632 1:0 2:0 3:0 4:0 5:0 6:0 7:0 8:0 9:0 10:0 11:0 12:0 13:0 14:0 15:0 16:0 17:0 18:0 19:0 20:0.4259851 21:3.674123 22:32.108452 23:17.997871 24:29.605816 25:12.939308 26:2.8754005 27:0.4259851 28:0 29:0 30:0 31:0 32:0 33:0 34:0 35:0 36:0 37:0 38:0 39:0 40:0 41:0 42:0 43:0 44:0 45:0 46:0 47:0 48:0 49:0 50:0 51:0 52:0 53:0 54:0 55:0 56:0.21299255 57:0 58:0.31948882 59:0.10649627 60:0 61:0 62:0.15974441 63:0.4259851 64:1.5441965 65:2.6091597 66:3.9936121 67:5.5378022 68:9.2119198 69:11.927588 70:12.566569 71:14.909499 72:12.19383 73:4.1533561 74:1.064963 75:0.69222581 76:0.53248137 77:1.2247075 78:6.3365211 79:4.952075 80:3.3013859 81:1.4377002 82:0.58572948 83:0.053248137 84:0 85:0 86:0 87:0 88:0 89:0 90:0 91:0 92:0 93:0 94:0 95:0.053248137 96:0 97:0.10649627 98:0 99:0 100:0 101:0 102:1.064963 103:1.1714593 104:1.0117148 105:1.5974447 106:2.396167 107:6.2300253 108:4.8455791 109:4.952075 110:16.719933 111:9.7444038 112:2.2364225 113:0.31948882 114:2.715656 115:7.5079756 116:10.649627 117:11.235359 118:6.3897691 119:1.6506928 120:1.1714593 121:0.53248137 122:0.31948882 123:0.63897765 124:0.74547398 125:2.5026634 126:0.95846665 127:0.10649627 128:0.26624069 129:0.21299255 130:0 131:0 132:0 133:0 134:0 135:0 136:0 137:0 138:0 139:0 140:0 141:0 142:0 143:0 144:0 145:0 146:0 147:0 148:0 149:0 150:0 151:0 152:0 153:0 154:0 155:0 156:0 157:0 158:0 159:0 160:0 161:0 162:0 163:0 164:0 165:0 166:0 167:0 168:0 169:0 170:0 171:0 172:0 173:0 174:0 175:0 176:0 177:0 178:0 179:0 180:0 181:0 182:0 183:0 184:0 185:0 186:0 187:0 188:0 189:0 190:0 191:0 192:0 193:0 194:0 195:0 196:0 197:0 198:0 199:0 200:0 201:0 202:0 203:0 204:0 205:0 206:0 207:0 208:0 209:0 210:0 211:0 212:0 213:0 214:0 215:0 216:0 217:0 218:0 219:0 220:0 221:0 222:0 223:0 224:0 225:0 226:0 227:0 228:0 229:0 230:0 231:0 232:0 233:0 234:0 235:0 236:0 237:0 238:0 239:0 240:0 241:0 242:0 243:0 244:0 245:0 246:0 247:0 248:0 249:0 250:0 251:0 252:0 253:0 254:0 255:0 256:0 257:0 258:0 259:0 260:0 261:0 262:0 263:0 264:0 265:0 266:0 267:0 268:0 269:0 270:0 271:0 272:0 273:0 274:0.053219799 275:0.1596594 276:0 277:0.3193188 278:0.2128792 279:0.42575839 280:0.1596594 281:0 282:0 283:0 284:0 285:0.053219799 286:0.85151678 287:0.79829699 288:3.0335286 289:9.6327839 290:15.220862 291:8.1958494 292:5.588079 293:3.6721661 294:4.8430018 295:6.5460353 296:7.3443322 297:6.0138373 298:5.1091008 299:3.2464077 300:2.1820118 301:0.90473658 302:0.6386376 303:0.79829699 304:1.2772752 305:2.2884514 306:1.7562534 307:2.2884514 308:6.3863759 
0.1242034689711497 0.07106953822297285 0.03734212781759293 0.03741269349223056 0.06260935508971231 0.0585266176615306 1:0 2:0 3:0 4:0 5:0 6:0 7:0 8:0 9:0 10:0 11:0 12:0 13:0 14:0 15:0 16:0 17:0 18:0 19:0 20:0 21:1.8732775 22:5.6198392 23:51.018852 24:38.622326 25:2.920109 26:0 27:0 28:0 29:0 30:0 31:0 32:0 33:0 34:0 35:0 36:0 37:0 38:0 39:0 40:0 41:0 42:0 43:0 44:0 45:0 46:0 47:0 48:0 49:0 50:0 51:0 52:0 53:0 54:0 55:0 56:0 57:0 58:0 59:0 60:0 61:0 62:0 63:0.44077134 64:0.11019284 65:1.8732775 66:6.9972548 67:13.27827 68:25.895226 69:21.873241 70:13.663946 71:12.121241 72:2.9752054 73:0.55096418 74:0.22038567 75:0.055096418 76:0 77:0 78:0 79:0 80:0 81:0 82:0 83:0 84:0 85:0 86:0 87:0 88:0 89:0 90:0 91:0 92:0.055096418 93:0 94:0.11019284 95:0.055096418 96:0.11019284 97:0.11019284 98:0.11019284 99:0 100:0.27548209 101:0.22038567 102:0.16528925 103:0.22038567 104:0.77134979 105:1.4876028 106:3.5261693 107:6.1708055 108:8.7052498 109:10.633632 110:10.523438 111:11.294791 112:19.449032 113:9.0909262 114:3.195591 115:5.5096459 116:2.3691452 117:3.2506874 118:0.88154256 119:0.16528925 120:0.055096418 121:0.22038567 122:0.16528925 123:0.16528925 124:0.055096418 125:0.27548209 126:0.22038567 127:0.055096418 128:0.11019284 129:0.11019284 130:0.11019284 131:0 132:0 133:0.055096418 134:0 135:0 136:0 137:0 138:0 139:0 140:0 141:0 142:0 143:0 144:0 145:0 146:0 147:0 148:0 149:0 150:0 151:0 152:0 153:0 154:0 155:0 156:0 157:0 158:0 159:0 160:0 161:0 162:0 163:0 164:0 165:0 166:0 167:0 168:0 169:0 170:0 171:0 172:0 173:0 174:0 175:0 176:0 177:0 178:0 179:0 180:0 181:0 182:0 183:0 184:0 185:0 186:0 187:0 188:0 189:0 190:0 191:0 192:0 193:0 194:0 195:0 196:0 197:0 198:0 199:0 200:0 201:0 202:0 203:0 204:0 205:0 206:0 207:0 208:0 209:0 210:0 211:0 212:0 213:0 214:0 215:0 216:0 217:0 218:0 219:0 220:0 221:0 222:0 223:0 224:0 225:0 226:0 227:0 228:0 229:0 230:0 231:0 232:0 233:0 234:0 235:0 236:0 237:0 238:0 239:0 240:0 241:0 242:0 243:0 244:0 245:0 246:0 247:0 248:0 249:0 250:0 251:0 252:0 253:0 254:0 255:0 256:0 257:0 258:0 259:0 260:0 261:0 262:0 263:0 264:0 265:0 266:0 267:0 268:0 269:0 270:0 271:0 272:0 273:0 274:0 275:0 276:0 277:0 278:0 279:0 280:0 281:0 282:0 283:0 284:0 285:0 286:0 287:0 288:0 289:0 290:1.6519829 291:1.3766524 292:1.211454 293:2.0925117 294:2.0925117 295:2.8083711 296:3.8546271 297:3.6343627 298:8.3149815 299:11.839212 300:11.288551 301:16.354628 302:9.8017664 303:12.114543 304:9.7467003 305:1.8171812 306:0 307:0 308:0 
0.2361135189798053 0.1203090305685584 0.07181957190087924 0.07203287373925285 0.1206732545043444 0.1116258357375464 1:0 2:0 3:0 4:0 5:0 6:0 7:0 8:0 9:0 10:0 11:0 12:0 13:0 14:0 15:0 16:0 17:0 18:0 19:0.062972292 20:1.3224183 21:2.3929474 22:13.664954 23:45.40332 24:32.68277 25:3.4005044 26:0.69269532 27:0.44080609 28:0 29:0 30:0 31:0 32:0 33:0 34:0 35:0 36:0 37:0 38:0 39:0 40:0 41:0 42:0 43:0 44:0 45:0 46:0 47:0 48:0 49:0 50:0.12594458 51:0.62972301 52:1.1335014 53:1.1335014 54:0.25188917 55:0.5037784 56:0.25188917 57:0.25188917 58:0.5037784 59:0.062972292 60:0.25188917 61:0.88161224 62:0.94458455 63:1.259446 64:3.6523936 65:9.3828535 66:11.209044 67:12.846317 68:12.090652 69:7.8715234 70:5.1007524 71:10.20149 72:6.2972217 73:1.8261968 74:0.44080609 75:0.5037784 76:0.37783378 77:0.37783378 78:4.4710317 79:5.2266965 80:0 81:0 82:0 83:0 84:0 85:0 86:0 87:0 88:0 89:0 90:0 91:0.062972292 92:0 93:0 94:0 95:0 96:0 97:0 98:0 99:0.062972292 100:0 101:0.25188917 102:0.31486148 103:1.0705291 104:0.56675071 105:1.0705291 106:2.1410582 107:2.3929474 108:3.0226705 109:9.0679932 110:14.105759 111:16.81357 112:7.8085513 113:1.5743076 114:10.831211 115:8.5012445 116:5.2266965 117:2.7707813 118:3.1486151 119:2.8967259 120:1.5743076 121:1.5743076 122:1.1335014 123:0.5037784 124:0.37783378 125:0.12594458 126:0.25188917 127:0.25188917 128:0.12594458 129:0.062972292 130:0.18891688 131:0.12594458 132:0 133:0.062972292 134:0 135:0 136:0 137:0 138:0 139:0 140:0 141:0 142:0 143:0 144:0 145:0 146:0 147:0 148:0 149:0 150:0 151:0 152:0 153:0 154:0 155:0 156:0 157:0 158:0 159:0 160:0 161:0 162:0 163:0 164:0 165:0 166:0 167:0 168:0 169:0 170:0 171:0 172:0 173:0 174:0 175:0 176:0 177:0 178:0 179:0 180:0 181:0 182:0 183:0 184:0 185:0 186:0 187:0 188:0 189:0 190:0 191:0 192:0 193:0 194:0 195:0 196:0 197:0 198:0 199:0 200:0 201:0 202:0 203:0 204:0 205:0 206:0 207:0 208:0 209:0 210:0 211:0 212:0 213:0 214:0 215:0 216:0 217:0 218:0 219:0 220:0 221:0 222:0 223:0 224:0 225:0 226:0 227:0 228:0 229:0 230:0 231:0 232:0 233:0 234:0 235:0 236:0 237:0 238:0 239:0 240:0 241:0 242:0 243:0 244:0 245:0 246:0 247:0 248:0 249:0 250:0 251:0 252:0 253:0 254:0 255:0 256:0 257:0 258:0 259:0 260:0 261:0 262:0 263:0 264:0 265:0 266:0 267:0 268:0 269:0.31466332 270:0 271:0.12586533 272:0.062932663 273:0.18879798 274:0.44052866 275:0 276:0.062932663 277:0 278:0 279:0.12586533 280:0.44052866 281:1.6362487 282:2.8949027 283:4.4052868 284:6.733789 285:6.607924 286:7.8665738 287:9.2510977 288:7.7407088 289:6.9855189 290:6.9855189 291:2.7690372 292:1.6362487 293:2.5802391 294:6.7967215 295:6.9225864 296:3.6500955 297:2.9578354 298:1.3215857 299:0.88105732 300:0.62932664 301:1.1957204 302:0.37759599 303:0.44052866 304:0.56639397 305:0.75519198 306:0.94398999 307:1.1327878 308:1.5733161 
