svm_type c_svc
kernel_type linear
nr_class 7
total_sv 573
rho 1.57866 -5.5199 0.449233 0.875922 0.95568 -0.962857 -1.80546 -0.0662902 -2.76226 -0.194389 -13.7114 0.64009 -1.79627 -2.24173 -5.16323 -0.745493 -0.681561 -1.31722 -0.393755 -2.27443 -2.51251
label 1 2 3 4 5 6 7
probA -2.12513 -2.41724 -3.37498 -2.69595 -2.32756 -2.71185 -2.56433 -2.72485 -2.2129 -3.14463 -1.69814 -2.58355 -2.37835 -1.68806 -3.14867 -2.32424 -3.20801 -2.99097 -2.95893 -2.12431 -3.04186
probB -0.194641 -0.554357 0.219432 -0.180321 -0.431388 0.0445827 -0.387942 -0.567775 -0.242886 -0.0889576 -0.317574 0.0461514 -0.0330319 -0.076808 0.149627 0.159837 0.363918 0.236393 0.599732 -0.0536466 0.358343
nr_sv 60 120 102 58 81 87 65
SV
0 0.00289260755563297 0 0 0 0 1:0 2:0 3:0 4:0 5:0 6:0 7:0 8:0 9:0 10:0 11:0 12:0 13:0 14:0 15:0 16:0 17:0 18:0 19:0 20:0 21:0.5005005 22:6.9069171 23:38.438473 24:36.536617 25:16.766748 26:0.2002002 27:0.70070064 28:0 29:0 30:0 31:0 32:0 33:0 34:0 35:0 36:0 37:0 38:0 39:0 40:0 41:0 42:0 43:0 44:0 45:0 46:0 47:0 48:0 49:0 50:0 51:0 52:0 53:0.1001001 54:0 55:0.1001001 56:0.45045045 57:0.1001001 58:0 59:0 60:1.0510508 61:1.1511508 62:2.0520513 63:3.4534519 64:5.7057109 65:3.6036019 66:3.5535519 67:5.9059119 68:13.363349 69:14.064046 70:13.013 71:15.265241 72:10.710711 73:3.5535519 74:1.8018011 75:0.3003003 76:0.55055058 77:0.2002002 78:0 79:0 80:0 81:0 82:0 83:0 84:0 85:0 86:0 87:0 88:0 89:0 90:0 91:0 92:0 93:0 94:0 95:0.05005005 96:0 97:0.05005005 98:0.05005005 99:0 100:0.15015015 101:0.25025025 102:0.8508507 103:1.4514509 104:1.4514509 105:2.9029016 106:5.3053088 107:5.6556606 108:8.6586695 109:16.16614 110:15.565539 111:11.411407 112:10.86086 113:3.4034019 114:5.0550575 115:2.3023014 116:1.4514509 117:1.9519511 118:2.0020013 119:0.8508507 120:0.15015015 121:0.1001001 122:0.35035035 123:0.25025025 124:0.1001001 125:0.4004004 126:0.1001001 127:0.25025025 128:0.25025025 129:0.05005005 130:0.1001001 131:0.1001001 132:0 133:0 134:0 135:0 136:0 137:0 138:0 139:0 140:0 141:0 142:0 143:0 144:0 145:0 146:0 147:0 148:0 149:0 150:0 151:0 152:0 153:0 154:0 155:0 156:0 157:0 158:0 159:0 160:0 161:0 162:0 163:0 164:0 165:0 166:0 167:0 168:0 169:0 170:0 171:0 172:0 173:0 174:0 175:0 176:0 177:0 178:0 179:0 180:0 181:0 182:0 183:0 184:0 185:0 186:0 187:0 188:0 189:0 190:0 191:0 192:0 193:0 194:0 195:0 196:0 197:0 198:0 199:0 200:0 201:0 202:0 203:0 204:0 205:0 206:0 207:0 208:0 209:0 210:0 211:0 212:0 213:0 214:0 215:0 216:0 217:0 218:0 219:0 220:0 221:0 222:0 223:0 224:0 225:0 226:0 227:0 228:0 229:0 230:0 231:0 232:0 233:0 234:0 235:0 236:0 237:0 238:0 239:0 240:0 241:0 242:0 243:0 244:0 245:0 246:0 247:0 248:0 249:0 250:0 251:0 252:0 253:0 254:0 255:0 256:0 257:0 258:0 259:0 260:0 261:0 262:0 263:0 264:0 265:0 266:0 267:0 268:0 269:0 270:0 271:0 272:0 273:0 274:0 275:0 276:0 277:0 278:0 279:0 280:0 281:0 282:0 283:0 284:0 285:0 286:0 287:0.050025012 288:0.10005002 289:0.20010005 290:0.5002501 291:0.45022511 292:1.2506249 293:1.5007498 294:6.4532237 295:11.905948 296:7.6538234 297:4.7023492 298:4.5522742 299:4.2521243 300:5.252624 301:5.1025491 302:7.8038983 303:7.9539733 304:14.307147 305:10.305148 306:1.7508748 307:2.4512246 308:1.5007498 
0.0004863379034931811 0 0.001025331153002251 0 0 0 1:0 2:0 3:0 4:0 5:0 6:0 7:0 8:0 9:0 10:0 11:0 12:0 13:0 14:0 15:0 16:0 17:0 18:0 19:0 20:1.924976 21:2.4185596 22:19.249762 23:32.872669 24:37.462997 25:6.1204371 26:0 27:0 28:0 29:0 30:0 31:0 32:0 33:0 34:0 35:0 36:0 37:0 38:0 39:0 40:0 41:0 42:0 43:0 44:0 45:0 46:0 47:0 48:0 49:0 50:0 51:0 52:0 53:0 54:0 55:0 56:0 57:0 58:0 59:0 60:0.049358342 61:0.049358342 62:0.19743337 63:0.74037522 64:6.2685122 65:5.2813449 66:6.8114543 67:9.5755224 68:17.620935 69:15.99211 70:8.7857885 71:8.4896383 72:6.1697955 73:3.7512355 74:1.7275425 75:1.4807507 76:1.9743344 77:1.6288258 78:1.4807507 79:0.83909196 80:0.54294175 81:0.44422507 82:0.14807503 83:0 84:0 85:0 86:0 87:0 88:0 89:0 90:0 91:0 92:0 93:0 94:0 95:0 96:0 97:0 98:0 99:0.049358342 100:0.049358342 101:0.098716684 102:0.3455084 103:0.049358342 104:0.29615006 105:0.29615006 106:0.49358341 107:1.0365254 108:4.1461024 109:14.165851 110:22.606131 111:14.264567 112:3.5044436 113:0.49358341 114:5.7255702 115:8.5883551 116:5.3800616 117:5.42942 118:4.1954608 119:2.0236926 120:0.74037522 121:1.2339588 122:1.1352421 123:0.93780869 124:1.0858837 125:1.0365254 126:0.14807503 127:0.098716684 128:0.049358342 129:0.14807503 130:0.049358342 131:0.049358342 132:0 133:0 134:0.049358342 135:0.049358342 136:0 137:0 138:0 139:0 140:0 141:0 142:0 143:0 144:0 145:0 146:0 147:0 148:0 149:0 150:0 151:0 152:0 153:0 154:0 155:0 156:0 157:0 158:0 159:0 160:0 161:0 162:0 163:0 164:0 165:0 166:0 167:0 168:0 169:0 170:0 171:0 172:0 173:0 174:0 175:0 176:0 177:0 178:0 179:0 180:0 181:0 182:0 183:0 184:0 185:0 186:0 187:0 188:0 189:0 190:0 191:0 192:0 193:0 194:0 195:0 196:0 197:0 198:0 199:0 200:0 201:0 202:0 203:0 204:0 205:0 206:0 207:0 208:0 209:0 210:0 211:0 212:0 213:0 214:0 215:0 216:0 217:0 218:0 219:0 220:0 221:0 222:0 223:0 224:0 225:0 226:0 227:0 228:0 229:0 230:0 231:0 232:0 233:0 234:0 235:0 236:0 237:0 238:0 239:0 240:0 241:0 242:0 243:0 244:0 245:0 246:0 247:0 248:0 249:0 250:0 251:0 252:0 253:0 254:0 255:0 256:0 257:0 258:0 259:0 260:0 261:0 262:0 263:0 264:0 265:0 266:0 267:0 268:0 269:0 270:0 271:0 272:0 273:0 274:0 275:0 276:0 277:0 278:0 279:0 280:0 281:0 282:0 283:0 284:0 285:0 286:0 287:0 288:0.04933399 289:0.04933399 290:0 291:0 292:0 293:0.098667979 294:0 295:0.14800197 296:0.69067585 297:2.220031 298:3.5027163 299:3.7000525 300:6.1667547 301:18.154831 302:17.661495 303:18.6975 304:10.656128 305:4.9827375 306:3.7000525 307:7.9427805 308:1.5786884 
0 0.001879603732047944 0 0 0 0 1:0 2:0 3:0 4:0 5:0 6:0 7:0 8:0.073909827 9:0.073909827 10:0 11:0.14781965 12:0.073909827 13:3.1781223 14:1.3303771 15:1.0347376 16:1.8477463 17:5.0258665 18:6.5779715 19:4.8041372 20:11.825564 21:3.7694004 22:2.956393 23:6.1345129 24:16.40797 25:21.138195 26:13.673308 27:0 28:0 29:0 30:0 31:0 32:0 33:0 34:0 35:0 36:0 37:0 38:0 39:0 40:0 41:0 42:0 43:0 44:0 45:0 46:0 47:0 48:0 49:0 50:0 51:0.81300807 52:8.7952642 53:3.4737613 54:1.0347376 55:1.4781969 56:1.0347376 57:0.36954913 58:1.4781969 59:2.5129344 60:3.7694004 61:5.2475958 62:5.6171446 63:6.3562422 64:7.0953398 65:5.8388739 66:6.5779715 67:4.0650396 68:2.8085735 69:2.2912052 70:2.2912052 71:2.2172954 72:4.8041372 73:4.7302275 74:3.252032 75:1.9216561 76:0.59127861 77:0.36954913 78:2.8824832 79:2.8085735 80:0.96082771 81:0.59127861 82:1.7738364 83:0.073909827 84:0.073909827 85:0.073909827 86:0 87:0 88:0 89:0 90:0 91:0 92:0.96082771 93:11.603835 94:4.4345884 95:0.66518843 96:0.073909827 97:0.22172949 98:0.14781965 99:0.29563931 100:0.14781965 101:5.173686 102:1.1825573 103:1.1086475 104:2.0694759 105:4.8041372 106:13.968947 107:10.273459 108:6.1345129 109:2.956393 110:1.9216561 111:0.73909825 112:0.59127861 113:0 114:0.36954913 115:0.88691789 116:1.2564672 117:2.2172954 118:4.5084982 119:5.173686 120:3.0303028 121:1.8477463 122:1.3303771 123:0.51736879 124:0.96082771 125:0.96082771 126:0.59127861 127:3.0303028 128:3.6954906 129:0.22172949 130:0 131:0 132:0 133:0 134:0 135:0 136:0 137:0 138:0 139:0 140:0 141:0 142:0 143:0 144:0 145:0 146:0 147:0 148:0 149:0 150:0 151:0 152:0 153:0 154:0 155:0 156:0 157:0 158:0 159:0 160:0 161:0 162:0 163:0 164:0 165:0 166:0 167:0 168:0 169:0 170:0 171:0 172:0 173:0 174:0 175:0 176:0 177:0 178:0 179:0 180:0 181:0 182:0 183:0 184:0 185:0 186:0 187:0 188:0 189:0 190:0 191:0 192:0 193:0 194:0 195:0 196:0 197:0 198:0 199:0 200:0 201:0 202:0 203:0 204:0 205:0 206:0 207:0 208:0 209:0 210:0 211:0 212:0 213:0 214:0 215:0 216:0 217:0 218:0 219:0 220:0 221:0 222:0 223:0 224:0 225:0 226:0 227:0 228:0 229:0 230:0 231:0 232:0 233:0 234:0 235:0 236:0 237:0 238:0 239:0 240:0 241:0 242:0 243:0 244:0 245:0.073855244 246:0.073855244 247:0.073855244 248:0.073855244 249:0 250:0 251:0.14771049 252:0.073855244 253:0.073855244 254:0 255:0.073855244 256:0.14771049 257:0 258:0 259:0 260:0 261:0 262:0 263:0 264:0 265:0.44313148 266:0.59084195 267:0.073855244 268:0.96011806 269:0.66469717 270:0.59084195 271:0.22156574 272:0.36927623 273:0.66469717 274:1.8463814 275:2.3633678 276:1.994092 277:1.477105 278:5.1698675 279:8.8626375 280:5.6129999 281:4.3574581 282:4.6528797 283:5.5391445 284:4.5051689 285:3.6927607 286:4.8005905 287:6.0561323 288:4.3574581 289:2.1418023 290:1.477105 291:1.6986709 292:2.1418023 293:2.8803539 294:3.0280643 295:3.6189055 296:2.2895126 297:1.994092 298:0.44313148 299:0.51698673 300:0.22156574 301:0.14771049 302:0.36927623 303:0.14771049 304:0.81240761 305:0.073855244 306:0 307:0.44313148 308:4.8744459 
0 0.0007972148513340196 0 0 0 0 1:0 2:0 3:0 4:0 5:0 6:0 7:0 8:0 9:0 10:0 11:0 12:0 13:0 14:0 15:0 16:0 17:0 18:0 19:0 20:0 21:0.92510992 22:4.4493399 23:48.589821 24:41.189064 25:4.0528622 26:0.83700424 27:0 28:0 29:0 30:0 31:0 32:0 33:0 34:0 35:0 36:0 37:0 38:0 39:0 40:0 41:0 42:0 43:0 44:0 45:0 46:0 47:0 48:0 49:0 50:0 51:0 52:0 53:0 54:0 55:0 56:0 57:0 58:0 59:0 60:0 61:0 62:0.39647579 63:4.4933929 64:5.110136 65:9.2511253 66:10.925142 67:17.797384 68:18.634375 69:8.9868069 70:9.6916561 71:7.4890022 72:4.3171806 73:2.0704839 74:0.66079289 75:0.22026432 76:0 77:0 78:0 79:0 80:0 81:0 82:0 83:0 84:0 85:0 86:0 87:0 88:0 89:0 90:0 91:0 92:0 93:0 94:0 95:0 96:0 97:0 98:0.13215858 99:0.088105723 100:0.26431718 101:0.13215858 102:0.26431718 103:0.13215858 104:0.35242292 105:1.4096912 106:1.8942724 107:5.5506668 108:9.6916561 109:15.462609 110:14.317229 111:11.89431 112:16.431768 113:2.599118 114:2.2026424 115:3.1277521 116:2.8193822 117:4.4933929 118:2.2907481 119:1.189427 120:0.70484573 121:0.66079289 122:0.66079289 123:0.39647579 124:0.35242292 125:0.26431718 126:0.13215858 127:0 128:0 129:0.044052862 130:0 131:0 132:0 133:0.044052862 134:0.044052862 135:0 136:0 137:0 138:0 139:0 140:0 141:0 142:0 143:0 144:0 145:0 146:0 147:0 148:0 149:0 150:0 151:0 152:0 153:0 154:0 155:0 156:0 157:0 158:0 159:0 160:0 161:0 162:0 163:0 164:0 165:0 166:0 167:0 168:0 169:0 170:0 171:0 172:0 173:0 174:0 175:0 176:0 177:0 178:0 179:0 180:0 181:0 182:0 183:0 184:0 185:0 186:0 187:0 188:0 189:0 190:0 191:0 192:0 193:0 194:0 195:0 196:0 197:0 198:0 199:0 200:0 201:0 202:0 203:0 204:0 205:0 206:0 207:0 208:0 209:0 210:0 211:0 212:0 213:0 214:0 215:0 216:0 217:0 218:0 219:0 220:0 221:0 222:0 223:0 224:0 225:0 226:0 227:0 228:0 229:0 230:0 231:0 232:0 233:0 234:0 235:0 236:0 237:0 238:0 239:0 240:0 241:0 242:0 243:0 244:0 245:0 246:0 247:0 248:0 249:0 250:0 251:0 252:0 253:0 254:0 255:0 256:0 257:0 258:0 259:0 260:0 261:0 262:0 263:0 264:0 265:0 266:0 267:0 268:0 269:0 270:0 271:0 272:0 273:0 274:0 275:0 276:0 277:0 278:0 279:0 280:0 281:0 282:0 283:0 284:0 285:0.044033464 286:0.044033464 287:0.13210039 288:0.044033464 289:0.088066928 290:0.26420078 291:0.39630118 292:0.8806693 293:0.66050196 294:0.70453542 295:0.74856889 296:2.6860411 297:1.9815047 298:1.8494045 299:3.1704099 300:5.7243543 301:8.5424938 302:11.580774 303:11.977072 304:11.404642 305:11.580774 306:14.619055 307:9.9955845 308:0.8806693 
0.03125 0.006030472251759227 0.004713380502352344 0.03125 0.007682798235144138 0.02195763164807823 1:100.09262 2:0 3:0 4:0 5:0 6:0 7:0 8:0 9:0 10:0 11:0 12:0 13:0 14:0 15:0 16:0 17:0 18:0 19:0 20:0 21:0 22:0 23:0 24:0 25:0 26:0 27:0 28:0 29:0 30:0 31:0 32:0 33:0 34:0 35:0 36:0 37:0 38:0 39:0 40:0 41:0 42:0 43:0 44:0 45:0 46:100.09262 47:0 48:0 49:0 50:0 51:0 52:0 53:0 54:0 55:0 56:0 57:0 58:0 59:0 60:0 61:0 62:0 63:0 64:0 65:0 66:0 67:0 68:0 69:0 70:0 71:0 72:0 73:0 74:0 75:0 76:0 77:0 78:0 79:0 80:0 81:0 82:0 83:0 84:0 85:0 86:0 87:0 88:0 89:0 90:0 91:100.09262 92:0 93:0 94:0 95:0 96:0 97:0 98:0 99:0 100:0 101:0 102:0 103:0 104:0 105:0 106:0 107:0 108:0 109:0 110:0 111:0 112:0 113:0 114:0 115:0 116:0 117:0 118:0 119:0 120:0 121:0 122:0 123:0 124:0 125:0 126:0 127:0 128:0 129:0 130:0 131:0 132:0 133:0 134:0 135:0 136:0 137:0 138:0 139:0 140:0 141:0 142:0 143:0 144:0 145:0 146:0 147:0 148:0 149:0 150:0 151:0 152:0 153:0 154:0 155:0 156:0 157:0 158:0 159:0 160:0 161:0 162:0 163:0 164:0 165:0 166:0 167:0 168:0 169:0 170:0 171:0 172:0 173:0 174:0 175:0 176:0 177:0 178:0 179:0 180:0 181:0.093457945 182:0 183:0 184:0 185:0 186:0 187:0 188:0 189:0 190:0 191:0 192:0 193:0 194:0 195:0 196:0 197:0 198:0 199:0 200:0 201:0 202:0 203:0 204:0 205:0 206:0 207:0 208:0 209:0 210:0 211:0 212:0 213:0 214:0 215:0 216:0 217:0 218:0 219:0 220:0 221:0 222:0 223:0 224:0 225:0 226:0 227:0 228:0 229:0 230:0 231:0 232:0 233:0 234:0 235:0 236:0 237:0 238:0 239:0 240:0 241:0 242:0 243:0 244:0 245:0 246:0 247:0 248:0 249:0 250:0 251:0 252:0 253:0 254:0 255:0 256:0 257:0 258:0 259:0 260:0 261:0 262:0 263:0 264:0 265:0 266:0 267:0 268:0 269:0 270:0.28037384 271:0.56074768 272:0.84112149 273:1.0280374 274:2.4299066 275:3.0841122 276:2.7102804 277:4.6728988 278:9.5327234 279:5.9813132 280:5.327106 281:7.7570186 282:5.7943969 283:5.7943969 284:3.8317757 285:3.7383177 286:4.1121497 287:2.2429907 288:2.3364487 289:0.84112149 290:0.74766356 291:1.3084112 292:0.74766356 293:3.5514019 294:1.0280374 295:2.2429907 296:1.8691589 297:1.3084112 298:0.65420562 299:1.4018692 300:2.8971963 301:2.6168225 302:1.8691589 303:1.1214954 304:1.2149533 305:1.0280374 306:0.18691589 307:1.2149533 308:0 
0 0 0.0001229890951101793 0 0 0 1:0 2:0 3:0 4:0 5:0 6:0 7:0 8:0 9:0 10:0 11:0 12:0 13:0 14:0 15:0 16:0 17:0 18:0 19:0 20:0 21:1.7272723 22:5.6363597 23:44.227531 24:42.318382 25:4.7727242 26:1.3636363 27:0 28:0 29:0 30:0 31:0 32:0 33:0 34:0 35:0 36:0 37:0 38:0 39:0 40:0 41:0 42:0 43:0 44:0 45:0 46:0 47:0 48:0 49:0 50:0 51:0 52:0 53:0 54:0 55:0 56:0 57:0 58:0.090909094 59:0.045454547 60:0 61:0.045454547 62:0.54545462 63:0.95454568 64:2.4090898 65:9.4545527 66:15.90916 67:14.681875 68:13.772776 69:14.27278 70:14.500055 71:7.5909033 72:2.5909078 73:1.5909088 74:1.2272727 75:0.36363637 76:0 77:0 78:0 79:0 80:0 81:0 82:0 83:0 84:0 85:0 86:0 87:0 88:0 89:0 90:0 91:0 92:0.090909094 93:0 94:0 95:0.090909094 96:0.13636364 97:0.090909094 98:0.090909094 99:0.22727273 100:0.090909094 101:0.36363637 102:0.22727273 103:0.63636374 104:0.68181831 105:1.1363637 106:2.5454533 107:5.8181777 108:11.000022 109:14.045506 110:14.318235 111:13.863686 112:13.363681 113:2.4090898 114:3.5454524 115:2.4545443 116:2.6363623 117:1.0909092 118:1.5454543 119:2.0909083 120:1.7272723 121:1.7727268 122:0.81818199 123:0.36363637 124:0.13636364 125:0.13636364 126:0 127:0.090909094 128:0.13636364 129:0.090909094 130:0 131:0.045454547 132:0.045454547 133:0.045454547 134:0.045454547 135:0 136:0 137:0 138:0 139:0 140:0 141:0 142:0 143:0 144:0 145:0 146:0 147:0 148:0 149:0 150:0 151:0 152:0 153:0 154:0 155:0 156:0 157:0 158:0 159:0 160:0 161:0 162:0 163:0 164:0 165:0 166:0 167:0 168:0 169:0 170:0 171:0 172:0 173:0 174:0 175:0 176:0 177:0 178:0 179:0 180:0 181:0 182:0 183:0 184:0 185:0 186:0 187:0 188:0 189:0 190:0 191:0 192:0 193:0 194:0 195:0 196:0 197:0 198:0 199:0 200:0 201:0 202:0 203:0 204:0 205:0 206:0 207:0 208:0 209:0 210:0 211:0 212:0 213:0 214:0 215:0 216:0 217:0 218:0 219:0 220:0 221:0 222:0 223:0 224:0 225:0 226:0 227:0 228:0 229:0 230:0 231:0 232:0 233:0 234:0 235:0 236:0 237:0 238:0 239:0 240:0 241:0 242:0 243:0 244:0 245:0 246:0 247:0 248:0 249:0 250:0 251:0 252:0 253:0 254:0 255:0 256:0 257:0 258:0 259:0 260:0 261:0 262:0 263:0 264:0 265:0 266:0 267:0 268:0 269:0 270:0 271:0 272:0 273:0 274:0 275:0 276:0 277:0 278:0 279:0 280:0 281:0 282:0 283:0 284:0 285:0.27260336 286:0.18173558 287:0.090867788 288:0.36347112 289:0.45433888 290:0.27260336 291:0.31803724 292:0.27260336 293:0.36347112 294:0.77237606 295:0.6815083 296:0.59064054 297:1.7719214 298:1.3630165 299:2.6351666 300:4.3616586 301:8.8596239 302:11.903702 303:14.26627 304:13.58476 305:15.084082 306:13.902798 307:4.2253566 308:3.4075446 
0 0.005962686050435344 0 0 0.0003180333429944449 0 1:0.12970169 2:0 3:0.38910505 4:0.38910505 5:0.51880676 6:1.1673152 7:0.38910505 8:0 9:0.064850844 10:0 11:0.12970169 12:0 13:0.064850844 14:0.12970169 15:0.19455254 16:0.064850844 17:0.64850849 18:0.64850849 19:2.2049282 20:2.9831378 21:13.164715 22:13.942924 23:6.9390373 24:8.8197107 25:22.827585 26:11.089489 27:9.9870253 28:2.0752265 29:0.77821022 30:0 31:0 32:0 33:0 34:0.064850844 35:0 36:0 37:0 38:0.064850844 39:0 40:0 41:0 42:0 43:0 44:0.12970169 45:0.064850844 46:0.45395589 47:0.38910505 48:0 49:0.12970169 50:0.58365762 51:0.25940338 52:1.0376136 53:1.7509725 54:0.32425421 55:0.064850844 56:0.064850844 57:0 58:1.1024644 59:1.5564201 60:2.6588838 61:4.7989607 62:6.2256784 63:4.345005 64:3.5667951 65:1.8806741 66:2.5291822 67:3.1776903 68:3.6964967 69:2.8534362 70:5.3177671 71:8.1063519 72:6.6147833 73:6.0959768 74:6.031126 75:3.2425411 76:3.8910491 77:4.2801542 78:2.7885854 79:1.6212709 80:2.269779 81:0.97276282 82:0.25940338 83:0.12970169 84:0 85:0 86:0.32425421 87:0.32425421 88:0.64850849 89:0.25940338 90:3.4370935 91:0 92:1.0376136 93:2.2049282 94:2.269779 95:4.2801542 96:4.4747066 97:3.3722427 98:3.5667951 99:2.7885854 100:0.58365762 101:0.12970169 102:0.32425421 103:0.84306109 104:1.2321661 105:6.3553801 106:10.700384 107:8.1712027 108:3.1128395 109:1.7509725 110:1.9455249 111:1.5564201 112:0.71335936 113:0.19455254 114:0.58365762 115:2.4643314 116:3.8910491 117:4.0856018 118:4.6692591 119:4.020751 120:4.2801542 121:4.1504526 122:2.7885854 123:2.3346298 124:1.4267185 125:0.84306109 126:1.0376136 127:0.38910505 128:0.25940338 129:0.19455254 130:0.12970169 131:0.12970169 132:0.45395589 133:0.12970169 134:0.064850844 135:0.12970169 136:0 137:0 138:0 139:0 140:0 141:0 142:0 143:0 144:0 145:0 146:0 147:0 148:0 149:0 150:0 151:0 152:0 153:0 154:0 155:0 156:0 157:0 158:0 159:0 160:0 161:0 162:0 163:0 164:0 165:0 166:0 167:0 168:0 169:0 170:0 171:0 172:0 173:0 174:0 175:0 176:0 177:0 178:0 179:0 180:0 181:0 182:0 183:0 184:0 185:0 186:0 187:0 188:0 189:0 190:0 191:0 192:0 193:0 194:0 195:0 196:0 197:0 198:0 199:0 200:0 201:0 202:0 203:0 204:0 205:0 206:0 207:0 208:0 209:0 210:0 211:0 212:0 213:0 214:0 215:0 216:0 217:0 218:0 219:0 220:0 221:0 222:0 223:0 224:0 225:0 226:0 227:0 228:0 229:0 230:0 231:0 232:0 233:0 234:0 235:0 236:0 237:0 238:0 239:0 240:0 241:0 242:0 243:0 244:0.064808816 245:0.19442645 246:0.25923526 247:0.19442645 248:0.25923526 249:0.32404408 250:0.25923526 251:0.25923526 252:0.45366171 253:1.2313673 254:0.32404408 255:0.38885289 256:0.064808816 257:0.25923526 258:0.19442645 259:0.19442645 260:0 261:0.12961763 262:0.064808816 263:0.064808816 264:0.12961763 265:0.064808816 266:0.19442645 267:0 268:0.12961763 269:0.45366171 270:0.32404408 271:0.38885289 272:0.71289688 273:1.360985 274:1.9442647 275:2.1386912 276:2.3979266 277:3.5644858 278:6.5456924 279:8.2307224 280:3.6292946 281:4.3421917 282:3.88853 283:4.1477652 284:3.4348681 285:2.8515885 286:2.3979266 287:1.4906027 288:2.2683089 289:2.1386912 290:2.3331177 291:2.0738823 292:2.0090735 293:1.7498381 294:2.1386912 295:2.0090735 296:1.1017497 297:1.7498381 298:1.814647 299:1.5554116 300:0.84251446 301:0.58327931 302:0.77770567 303:0.84251446 304:0.84251446 305:2.9812062 306:3.6941035 307:2.5275443 308:4.0181475 
0 0.006050666429511603 0 0 0 0 1:0 2:0 3:0 4:0 5:0 6:0 7:0 8:0 9:0 10:0 11:0 12:0 13:0 14:0 15:0 16:0 17:0 18:0 19:0 20:0.16992353 21:2.8886988 22:26.847828 23:14.188627 24:16.14275 25:14.018703 26:7.5615997 27:5.6074762 28:1.9541206 29:1.1894647 30:2.2090056 31:1.0195411 32:0.25488529 33:0 34:0.16992353 35:0.16992353 36:3.1435838 37:0.50977057 38:0.59473234 39:0.93457943 40:0.50977057 41:0 42:0 43:0 44:0 45:0 46:0 47:0 48:0 49:0 50:0.67969412 51:1.7841971 52:1.1045029 53:2.9736605 54:1.3593882 55:0.50977057 56:0.25488529 57:0.16992353 58:0.33984706 59:0.42480883 60:5.012743 61:3.9082386 62:2.8037372 63:3.3135071 64:5.6924381 65:6.8819046 66:7.3067141 67:7.7315235 68:8.8360281 69:10.960075 70:11.045037 71:6.4570951 72:3.4834304 73:1.3593882 74:0.59473234 75:1.1045029 76:0.50977057 77:0.33984706 78:0.16992353 79:0 80:2.5488522 81:0.42480883 82:0 83:0 84:0 85:0 86:0 87:0 88:0 89:0 90:0 91:0 92:0 93:0 94:0.16992353 95:0 96:0 97:1.0195411 98:1.6992353 99:3.2285454 100:2.9736605 101:6.1172476 102:4.5029716 103:3.0586221 104:5.012743 105:4.1631241 106:4.5029716 107:5.4375525 108:7.8164854 109:6.9668665 110:3.3984687 111:0.67969412 112:0 113:0 114:0 115:0.084961765 116:1.5293118 117:10.365342 118:6.6270189 119:3.823277 120:3.2285454 121:2.1240439 122:1.1894647 123:0.67969412 124:1.5293118 125:2.8037372 126:0.76465589 127:0.33984706 128:0.33984706 129:0.25488529 130:0.76465589 131:1.6992353 132:0.42480883 133:0.67969412 134:0.084961765 135:0 136:0 137:0 138:0 139:0 140:0 141:0 142:0 143:0 144:0 145:0 146:0 147:0 148:0 149:0 150:0 151:0 152:0 153:0 154:0 155:0 156:0 157:0 158:0 159:0 160:0 161:0 162:0 163:0 164:0 165:0 166:0 167:0 168:0 169:0 170:0 171:0 172:0 173:0 174:0 175:0 176:0 177:0 178:0 179:0 180:0 181:0 182:0 183:0 184:0 185:0 186:0 187:0 188:0 189:0 190:0 191:0 192:0 193:0 194:0 195:0 196:0 197:0 198:0 199:0 200:0 201:0 202:0 203:0 204:0 205:0 206:0 207:0 208:0 209:0 210:0 211:0 212:0 213:0 214:0 215:0 216:0 217:0 218:0 219:0 220:0 221:0 222:0 223:0 224:0 225:0 226:0 227:0 228:0 229:0 230:0 231:0 232:0 233:0 234:0 235:0 236:0 237:0 238:0 239:0 240:0 241:0 242:0 243:0.16977929 244:0.084889643 245:0.084889643 246:0.16977929 247:0.16977929 248:0.25466892 249:0.50933784 250:0.25466892 251:0.16977929 252:0.42444822 253:0.33955857 254:0.16977929 255:0.084889643 256:0.084889643 257:0.50933784 258:0.33955857 259:0.59422749 260:0.16977929 261:0.16977929 262:0.76400679 263:0.16977929 264:0.84889644 265:1.188455 266:0.59422749 267:1.5280136 268:1.0186757 269:1.6977929 270:1.1035653 271:0.67911714 272:3.2258065 273:3.820034 274:3.5653651 275:4.329371 276:4.2444816 277:3.7351444 278:4.0747027 279:4.0747027 280:5.772491 281:8.3191738 282:7.215611 283:4.4142604 284:3.1409168 285:3.0560272 286:4.4142604 287:2.122241 288:1.4431239 289:3.4804754 290:2.9711375 291:1.0186757 292:1.4431239 293:1.188455 294:0.25466892 295:0.16977929 296:0.25466892 297:0.33955857 298:0.59422749 299:0.67911714 300:1.1035653 301:0.59422749 302:0.084889643 303:0.33955857 304:0.16977929 305:0 306:0 307:0 308:0 
0 0 0 0.0007644115668869675 0 0 1:0 2:0 3:0 4:0 5:0 6:0 7:0 8:0 9:0 10:0 11:0 12:0 13:0 14:0 15:0 16:0 17:0.33585224 18:3.4424868 19:2.518892 20:0.92359352 21:1.5113348 22:4.5340061 23:43.744625 24:19.731359 25:9.4878263 26:7.1368566 27:6.6330791 28:0.083963059 29:0 30:0 31:0 32:0 33:0 34:0 35:0 36:0 37:0 38:0 39:0 40:0 41:0 42:0 43:0 44:0 45:0 46:0 47:0 48:0 49:0 50:0 51:0 52:0 53:0 54:0 55:0 56:0.083963059 57:0.16792612 58:0.33585224 59:1.0915196 60:1.6792608 61:1.93115 62:1.4273717 63:1.1754826 64:0.50377834 65:1.3434087 66:3.1066341 67:4.0302286 68:2.2670026 69:4.8698578 70:7.1368566 71:14.52563 72:7.8085599 73:6.9689307 74:4.1981544 75:2.518892 76:2.9387078 77:3.8623025 78:5.3736353 79:5.5415611 80:5.4575982 81:1.93115 82:4.1981544 83:3.5264499 84:0.083963059 85:0 86:0 87:0 88:0 89:0 90:0 91:0 92:0.083963059 93:0 94:1.0075566 95:1.6792608 96:4.4500432 97:6.8010049 98:3.1066341 99:1.7632239 100:2.4349289 101:3.1066341 102:2.8547447 103:3.022671 104:3.5264499 105:4.3660803 106:4.617969 107:5.8774128 108:5.9613757 109:3.8623025 110:3.9462657 111:1.0075566 112:0.25188917 113:0 114:0 115:1.7632239 116:9.7397165 117:6.717042 118:3.1066341 119:2.0151131 120:1.3434087 121:1.6792608 122:0.75566745 123:0.67170441 124:0.75566745 125:0.25188917 126:0.4198153 127:0.16792612 128:0.25188917 129:0.16792612 130:0.16792612 131:0 132:0 133:0 134:3.2745605 135:3.1066341 136:0 137:0 138:0 139:0 140:0 141:0 142:0 143:0 144:0 145:0 146:0 147:0 148:0 149:0 150:0 151:0 152:0 153:0 154:0 155:0 156:0 157:0 158:0 159:0 160:0 161:0 162:0 163:0 164:0 165:0 166:0 167:0 168:0 169:0 170:0 171:0 172:0 173:0 174:0 175:0 176:0 177:0 178:0 179:0 180:0 181:0 182:0 183:0 184:0 185:0 186:0 187:0 188:0 189:0 190:0 191:0 192:0 193:0 194:0 195:0 196:0 197:0 198:0 199:0 200:0 201:0 202:0 203:0 204:0 205:0 206:0 207:0 208:0 209:0 210:0 211:0 212:0 213:0 214:0 215:0 216:0 217:0 218:0 219:0 220:0 221:0 222:0 223:0 224:0 225:0 226:0 227:0 228:0 229:0 230:0 231:0 232:0 233:0 234:0 235:0 236:0 237:0 238:0 239:0 240:0 241:0 242:0 243:0 244:0 245:0 246:0 247:0 248:0 249:0 250:0 251:0 252:0 253:0 254:0 255:0 256:0 257:0 258:0 259:0 260:0 261:0 262:0 263:0 264:0.50335574 265:1.1744968 266:0.4194631 267:1.8456374 268:1.7617449 269:2.4328856 270:1.3422819 271:1.0906042 272:1.0067116 273:0.67114103 274:0.50335574 275:0.4194631 276:0.83892632 277:0.92281896 278:0.4194631 279:0.75503367 280:0.58724838 281:1.0906042 282:2.0973153 283:0.92281896 284:1.4261745 285:1.92953 286:3.0201337 287:3.1879189 288:3.1879189 289:3.6912744 290:6.8792009 291:8.724843 292:9.1443071 293:7.9698076 294:3.2718115 295:1.8456374 296:1.4261745 297:2.0134227 298:1.6778523 299:2.3489931 300:2.5167782 301:1.5100671 302:1.6778523 303:1.0906042 304:1.8456374 305:3.1040263 306:5.7047014 307:0 308:0 
0.01153886219865031 0 0 0.01011113809687168 0 0.003766550360267457 1:100.06717 2:0 3:0 4:0 5:0 6:0 7:0 8:0 9:0 10:0 11:0 12:0 13:0 14:0 15:0 16:0 17:0 18:0 19:0 20:0 21:0 22:0 23:0 24:0 25:0 26:0 27:0 28:0 29:0 30:0 31:0 32:0 33:0 34:0 35:0 36:0 37:0 38:0 39:0 40:0 41:0 42:0 43:0 44:0 45:0 46:100.06717 47:0 48:0 49:0 50:0 51:0 52:0 53:0 54:0 55:0 56:0 57:0 58:0 59:0 60:0 61:0 62:0 63:0 64:0 65:0 66:0 67:0 68:0 69:0 70:0 71:0 72:0 73:0 74:0 75:0 76:0 77:0 78:0 79:0 80:0 81:0 82:0 83:0 84:0 85:0 86:0 87:0 88:0 89:0 90:0 91:100.06717 92:0 93:0 94:0 95:0 96:0 97:0 98:0 99:0 100:0 101:0 102:0 103:0 104:0 105:0 106:0 107:0 108:0 109:0 110:0 111:0 112:0 113:0 114:0 115:0 116:0 117:0 118:0 119:0 120:0 121:0 122:0 123:0 124:0 125:0 126:0 127:0 128:0 129:0 130:0 131:0 132:0 133:0 134:0 135:0 136:0 137:0 138:0 139:0 140:0 141:0 142:0 143:0 144:0 145:0 146:0 147:0 148:0 149:0 150:0 151:0 152:0 153:0 154:0 155:0 156:0 157:0 158:0 159:0 160:0 161:0 162:0 163:0 164:0 165:0 166:0 167:0 168:0 169:0 170:0 171:0 172:0 173:0 174:0 175:0 176:0 177:0 178:0 179:0 180:0 181:0.066979237 182:0 183:0 184:0 185:0 186:0 187:0 188:0 189:0 190:0 191:0 192:0 193:0 194:0 195:0 196:0 197:0 198:0 199:0 200:0 201:0 202:0 203:0 204:0 205:0 206:0 207:0 208:0 209:0 210:0 211:0 212:0 213:0 214:0 215:0 216:0 217:0 218:0 219:0 220:0 221:0 222:0 223:0 224:0 225:0 226:0 227:0 228:0 229:0 230:0 231:0 232:0 233:0 234:0 235:0 236:0 237:0 238:0 239:0 240:0 241:0 242:0 243:0.13395847 244:0.33489618 245:0.26791695 246:0.5358339 247:0.73677158 248:0.40187541 249:0.60281312 250:0.5358339 251:0.60281312 252:0.33489618 253:0.13395847 254:0.13395847 255:0.2009377 256:0.13395847 257:0.26791695 258:0.13395847 259:0.13395847 260:0 261:0.13395847 262:0 263:0 264:0.2009377 265:0 266:0.13395847 267:0.2009377 268:0.066979237 269:0.066979237 270:1.0046885 271:0.73677158 272:0.87073004 273:1.1386471 274:2.2103152 275:3.2819819 276:6.3630323 277:4.4876089 278:3.4159403 279:10.180859 280:14.132644 281:9.5110645 282:7.1667852 283:3.683857 284:2.3442736 285:1.5405228 286:0.80375081 287:1.2056264 288:1.4065642 289:1.4735435 290:1.6744814 291:2.2103152 292:1.2726057 293:0.80375081 294:0.73677158 295:1.2056264 296:0.40187541 297:1.8754193 298:1.2726057 299:0.33489618 300:0.46885464 301:1.0716678 302:0.73677158 303:0.40187541 304:0.40187541 305:0.80375081 306:0.66979235 307:0.2009377 308:0 
0.003920913589359461 0 0 0 0 0 1:0 2:0 3:0 4:0 5:0 6:0 7:0 8:0 9:0 10:0 11:0 12:0 13:0 14:0 15:0 16:0 17:0 18:1.1315417 19:1.4144268 20:0.18859029 21:1.0843942 22:5.7991548 23:38.990887 24:48.13718 25:3.3003273 26:0 27:0 28:0 29:0 30:0 31:0 32:0 33:0 34:0 35:0 36:0 37:0 38:0 39:0 40:0 41:0 42:0 43:0 44:0 45:0 46:0 47:0 48:0 49:0 50:0 51:0 52:0.047147572 53:0.047147572 54:0.18859029 55:0.28288543 56:0.18859029 57:0.42432815 58:0.18859029 59:0.42432815 60:0.51862329 61:0.094295144 62:0.047147572 63:0.23573786 64:0.56577086 65:5.6577115 66:12.682726 67:19.51915 68:32.72049 69:11.834066 70:4.43187 71:2.8759997 72:2.5459671 73:1.8387544 74:0.75436115 75:0.47147572 76:0.330033 77:0.56577086 78:0.18859029 79:0.047147572 80:0 81:0.14144272 82:0.047147572 83:0.094295144 84:0.047147572 85:0 86:0 87:0 88:0 89:0 90:0 91:0.047147572 92:0.047147572 93:0.047147572 94:0 95:0.14144272 96:0.18859029 97:0 98:0.23573786 99:0.14144272 100:0.23573786 101:0.330033 102:0.66006601 103:0.66006601 104:0.89580387 105:0.89580387 106:2.168787 107:5.0447907 108:8.2979851 109:10.0896 110:11.97551 111:16.218807 112:20.5564 113:2.4988196 114:2.3102295 115:2.4988196 116:2.7817047 117:2.4516721 118:2.8288522 119:1.6973119 120:0.8486563 121:0.23573786 122:0.37718058 123:0.47147572 124:0.51862329 125:0.330033 126:0.51862329 127:0.37718058 128:0.14144272 129:0.18859029 130:0 131:0.047147572 132:0 133:0.047147572 134:0 135:0 136:0 137:0 138:0 139:0 140:0 141:0 142:0 143:0 144:0 145:0 146:0 147:0 148:0 149:0 150:0 151:0 152:0 153:0 154:0 155:0 156:0 157:0 158:0 159:0 160:0 161:0 162:0 163:0 164:0 165:0 166:0 167:0 168:0 169:0 170:0 171:0 172:0 173:0 174:0 175:0 176:0 177:0 178:0 179:0 180:0 181:0 182:0 183:0 184:0 185:0 186:0 187:0 188:0 189:0 190:0 191:0 192:0 193:0 194:0 195:0 196:0 197:0 198:0 199:0 200:0 201:0 202:0 203:0 204:0 205:0 206:0 207:0 208:0 209:0 210:0 211:0 212:0 213:0 214:0 215:0 216:0 217:0 218:0 219:0 220:0 221:0 222:0 223:0 224:0 225:0 226:0 227:0 228:0 229:0 230:0 231:0 232:0 233:0 234:0 235:0 236:0 237:0 238:0 239:0 240:0 241:0 242:0 243:0 244:0 245:0 246:0 247:0 248:0 249:0 250:0 251:0 252:0 253:0.047125354 254:0 255:0 256:0 257:0.047125354 258:0 259:0.047125354 260:0.047125354 261:0.047125354 262:0.14137606 263:0.047125354 264:0.047125354 265:0.094250709 266:0.14137606 267:0 268:0.047125354 269:0.094250709 270:0.18850142 271:0.14137606 272:0.094250709 273:0.094250709 274:0.14137606 275:0.23562677 276:0.094250709 277:0.14137606 278:0.32987747 279:0 280:0 281:0.047125354 282:0 283:0.047125354 284:0 285:0 286:0 287:0 288:0 289:0 290:0.047125354 291:0 292:0 293:0 294:0.047125354 295:0.23562677 296:0.32987747 297:3.298774 298:5.8435426 299:6.8331747 300:11.781374 301:15.88132 302:13.807784 303:16.164072 304:12.865268 305:6.1262946 306:1.6022617 307:0.75400555 308:1.9792644 
0 0.001363268801086092 0 0 0 0 1:0 2:0 3:0 4:0 5:0 6:0 7:0 8:0 9:0 10:0 11:0 12:0 13:0 14:0 15:0 16:0 17:0 18:0 19:0 20:0 21:0 22:7.4443879 23:35.633274 24:49.114426 25:7.7621355 26:0.090785295 27:0 28:0 29:0 30:0 31:0 32:0 33:0 34:0 35:0 36:0 37:0 38:0 39:0 40:0 41:0 42:0 43:0 44:0 45:0 46:0 47:0 48:0 49:0 50:0 51:0 52:0 53:0 54:0 55:0 56:0 57:0 58:0 59:0 60:0 61:0.045392647 62:0.8170675 63:2.2242396 64:3.4044511 65:9.8048172 66:15.887478 67:13.34547 68:12.256039 69:13.209291 70:8.9423504 71:8.8515644 72:5.2655473 73:3.3136656 74:1.8610981 75:0.8170675 76:0 77:0 78:0 79:0 80:0 81:0 82:0 83:0 84:0 85:0 86:0 87:0 88:0 89:0 90:0 91:0.045392647 92:0.045392647 93:0.090785295 94:0 95:0.13617794 96:0.090785295 97:0.090785295 98:0.22696324 99:0.13617794 100:0.090785295 101:0.22696324 102:0.59010434 103:0.77167487 104:1.0894233 105:1.7703128 106:3.9037714 107:6.2187901 108:9.6686382 109:13.073112 110:16.704552 111:14.389509 112:16.386801 113:0.86246014 114:2.5419888 115:3.7675931 116:2.5873816 117:1.9064907 118:0.8170675 119:0.13617794 120:0.27235588 121:0.18157059 122:0.18157059 123:0.22696324 124:0.090785295 125:0.045392647 126:0.18157059 127:0.045392647 128:0.090785295 129:0.18157059 130:0.045392647 131:0.045392647 132:0 133:0.090785295 134:0 135:0 136:0 137:0 138:0 139:0 140:0 141:0 142:0 143:0 144:0 145:0 146:0 147:0 148:0 149:0 150:0 151:0 152:0 153:0 154:0 155:0 156:0 157:0 158:0 159:0 160:0 161:0 162:0 163:0 164:0 165:0 166:0 167:0 168:0 169:0 170:0 171:0 172:0 173:0 174:0 175:0 176:0 177:0 178:0 179:0 180:0 181:0 182:0 183:0 184:0 185:0 186:0 187:0 188:0 189:0 190:0 191:0 192:0 193:0 194:0 195:0 196:0 197:0 198:0 199:0 200:0 201:0 202:0 203:0 204:0 205:0 206:0 207:0 208:0 209:0 210:0 211:0 212:0 213:0 214:0 215:0 216:0 217:0 218:0 219:0 220:0 221:0 222:0 223:0 224:0 225:0 226:0 227:0 228:0 229:0 230:0 231:0 232:0 233:0 234:0 235:0 236:0 237:0 238:0 239:0 240:0 241:0 242:0 243:0 244:0 245:0 246:0 247:0 248:0 249:0 250:0 251:0 252:0 253:0 254:0 255:0 256:0 257:0 258:0 259:0 260:0 261:0 262:0 263:0 264:0 265:0 266:0 267:0 268:0 269:0 270:0 271:0 272:0 273:0 274:0 275:0 276:0 277:0 278:0 279:0 280:0 281:0 282:0 283:0 284:0 285:0 286:0 287:0 288:0.090744101 289:0 290:0 291:0 292:0.090744101 293:0.22686026 294:0.45372045 295:1.4972774 296:2.9491818 297:4.3103423 298:6.4881988 299:5.7168746 300:4.9001784 301:6.5789428 302:10.934656 303:17.558969 304:14.292185 305:8.6206837 306:5.3992705 307:6.3974547 308:3.4936459 
5.583761061614764e-05 0 0 0 0 0 1:0 2:0 3:0 4:0 5:0 6:0 7:0 8:0 9:0 10:0 11:0 12:0 13:0 14:0 15:0 16:0 17:0 18:0 19:0 20:0 21:0.099850222 22:17.224133 23:44.633358 24:30.004894 25:7.4887805 26:0.29955068 27:0.24962556 28:0.049925111 29:0 30:0 31:0 32:0 33:0 34:0 35:0 36:0 37:0 38:0 39:0 40:0 41:0 42:0 43:0 44:0 45:0 46:0 47:0 48:0 49:0 50:0 51:0 52:0 53:0 54:0 55:0 56:0 57:0 58:0.049925111 59:0 60:0.049925111 61:0.24962556 62:1.4478279 63:1.7973036 64:4.6430368 65:7.9880338 66:9.5856295 67:17.823231 68:14.777814 69:14.977513 70:5.7913194 71:3.4947567 72:3.7943072 73:2.8457305 74:2.54618 75:3.0454309 76:3.2451313 77:1.4478279 78:0.3494758 79:0.049925111 80:0.049925111 81:0 82:0 83:0 84:0 85:0 86:0 87:0 88:0 89:0 90:0 91:0 92:0 93:0 94:0.049925111 95:0 96:0.049925111 97:0 98:0.099850222 99:0 100:0.049925111 101:0 102:0.049925111 103:0.19970044 104:0.099850222 105:0.39940092 106:1.2481276 107:2.2965546 108:5.741394 109:9.6355543 110:15.177213 111:14.378415 112:6.6899753 113:1.8971537 114:8.0878839 115:9.735404 116:9.8851786 117:5.2421408 118:3.8442323 119:1.9970039 120:1.0983523 121:0.54917628 122:0.54917628 123:0.049925111 124:0.099850222 125:0.049925111 126:0.049925111 127:0.14977533 128:0.049925111 129:0.099850222 130:0.049925111 131:0.099850222 132:0.14977533 133:0.049925111 134:0 135:0.099850222 136:0 137:0 138:0 139:0 140:0 141:0 142:0 143:0 144:0 145:0 146:0 147:0 148:0 149:0 150:0 151:0 152:0 153:0 154:0 155:0 156:0 157:0 158:0 159:0 160:0 161:0 162:0 163:0 164:0 165:0 166:0 167:0 168:0 169:0 170:0 171:0 172:0 173:0 174:0 175:0 176:0 177:0 178:0 179:0 180:0 181:0 182:0 183:0 184:0 185:0 186:0 187:0 188:0 189:0 190:0 191:0 192:0 193:0 194:0 195:0 196:0 197:0 198:0 199:0 200:0 201:0 202:0 203:0 204:0 205:0 206:0 207:0 208:0 209:0 210:0 211:0 212:0 213:0 214:0 215:0 216:0 217:0 218:0 219:0 220:0 221:0 222:0 223:0 224:0 225:0 226:0 227:0 228:0 229:0 230:0 231:0 232:0 233:0 234:0 235:0 236:0 237:0 238:0 239:0 240:0 241:0 242:0 243:0 244:0 245:0 246:0 247:0 248:0 249:0 250:0 251:0 252:0 253:0 254:0 255:0 256:0 257:0 258:0 259:0 260:0 261:0 262:0 263:0 264:0 265:0 266:0 267:0 268:0 269:0 270:0 271:0 272:0 273:0 274:0 275:0 276:0 277:0.0499002 278:0 279:0 280:0 281:0 282:0 283:0.0499002 284:0 285:0 286:0.0998004 287:0.0998004 288:0.0499002 289:0.0499002 290:0 291:0.0998004 292:0.249501 293:0.74850291 294:1.047904 295:1.4970056 296:1.1976045 297:2.5948107 298:3.7924178 299:3.9920189 300:7.1357226 301:18.113735 302:13.82233 303:18.263435 304:14.171631 305:7.2854228 306:2.5948107 307:2.1457081 308:0.84830326 
0 0.0001712349830938152 0 0 0 0 1:0.26385224 2:0.1759015 3:0.1759015 4:0.1759015 5:0 6:0 7:0 8:0 9:0 10:0 11:0.087950751 12:0 13:0 14:0 15:0.087950751 16:0.087950751 17:0 18:0.087950751 19:0.087950751 20:0.26385224 21:3.2541769 22:20.844372 23:22.163647 24:32.366039 25:11.521544 26:4.485487 27:0 28:0.087950751 29:0 30:0.52770454 31:0.1759015 32:0.26385224 33:0.087950751 34:0.351803 35:0.43975377 36:0.26385224 37:0.087950751 38:1.4072119 39:0.26385224 40:0 41:0 42:0 43:0 44:0 45:0 46:0 47:0 48:0 49:0 50:1.9349161 51:2.8144233 52:2.7264726 53:1.5831133 54:0.70360607 55:0.26385224 56:0.43975377 57:1.1433598 58:0.6156553 59:0.1759015 60:0.1759015 61:3.8698318 62:9.2348251 63:15.127522 64:8.091466 65:5.8047476 66:2.7264726 67:2.3746698 68:1.1433598 69:2.1987684 70:6.8601561 71:6.5083532 72:5.7167969 73:3.4300783 74:2.2867191 75:3.6059797 76:1.9349161 77:0.79155684 78:1.4072119 79:0.26385224 80:0.43975377 81:0.087950751 82:0.087950751 83:0 84:0 85:0.52770454 86:0.43975377 87:0.96745837 88:0.087950751 89:0.1759015 90:1.3192612 91:0 92:0 93:0 94:0 95:0 96:0 97:0.087950751 98:3.0782754 99:3.0782754 100:2.3746698 101:2.9903247 102:2.5505712 103:1.9349161 104:1.4951626 105:1.671064 106:1.9349161 107:4.0457335 108:7.2999096 109:5.2770433 110:6.2445011 111:9.6745787 112:3.9577825 113:1.0554091 114:6.8601561 115:9.8504801 116:9.586628 117:4.3095856 118:1.4951626 119:0.52770454 120:0.43975377 121:0.43975377 122:0.70360607 123:0.52770454 124:0.8795076 125:1.3192612 126:0.8795076 127:0.43975377 128:0.52770454 129:0.1759015 130:0.52770454 131:0.52770454 132:0.26385224 133:0.6156553 134:0.43975377 135:0 136:0 137:0 138:0 139:0 140:0 141:0 142:0 143:0 144:0 145:0 146:0 147:0 148:0 149:0 150:0 151:0 152:0 153:0 154:0 155:0 156:0 157:0 158:0 159:0 160:0 161:0 162:0 163:0 164:0 165:0 166:0 167:0 168:0 169:0 170:0 171:0 172:0 173:0 174:0 175:0 176:0 177:0 178:0 179:0 180:0 181:0 182:0 183:0 184:0 185:0 186:0 187:0 188:0 189:0 190:0 191:0 192:0 193:0 194:0 195:0 196:0 197:0 198:0 199:0 200:0 201:0 202:0 203:0 204:0 205:0 206:0 207:0 208:0 209:0 210:0 211:0 212:0 213:0 214:0 215:0 216:0 217:0 218:0 219:0 220:0 221:0 222:0 223:0 224:0 225:0 226:0 227:0 228:0 229:0 230:0 231:0 232:0 233:0 234:0 235:0 236:0 237:0 238:0 239:0 240:0 241:0 242:0 243:0.35149384 244:0.17574692 245:0 246:0 247:0 248:0.61511421 249:0.17574692 250:0 251:0.35149384 252:0.26362038 253:0.087873459 254:0.35149384 255:0.26362038 256:0 257:0.087873459 258:0.17574692 259:0.087873459 260:0.17574692 261:0.35149384 262:0.79086113 263:0.79086113 264:1.142355 265:0.87873459 266:2.0210896 267:1.2302284 268:1.6695957 269:2.2847099 270:2.7240772 271:2.2847099 272:2.4604568 273:3.0755711 274:5.5360279 275:9.3145866 276:6.8541298 277:5.2724075 278:8.2601051 279:5.5360279 280:4.3057995 281:1.7574692 282:0.87873459 283:0.79086113 284:1.0544815 285:1.142355 286:1.5817223 287:1.5817223 288:1.5817223 289:0.61511421 290:1.142355 291:0.70298767 292:0.61511421 293:0.96660805 294:0.70298767 295:0.70298767 296:0.70298767 297:0.70298767 298:0.96660805 299:1.5817223 300:2.5483303 301:4.1300526 302:0.35149384 303:0.43936729 304:0.61511421 305:0.79086113 306:0.70298767 307:0.70298767 308:0 
0 0 0 0 0 0.0003547866073152681 1:0 2:0 3:0 4:0 5:0 6:0 7:0 8:0 9:0 10:0 11:0 12:0 13:0 14:0 15:0 16:0 17:0 18:0 19:0.23854962 20:0.19083969 21:1.1927483 22:2.4332068 23:38.311226 24:46.994522 25:10.496161 26:0.19083969 27:0 28:0 29:0 30:0 31:0 32:0 33:0 34:0 35:0 36:0 37:0 38:0 39:0 40:0 41:0 42:0 43:0 44:0 45:0 46:0 47:0 48:0 49:0 50:0 51:0 52:0 53:0 54:0 55:0 56:0 57:0 58:0 59:0 60:0 61:0.095419846 62:0.66793895 63:1.1927483 64:1.2881682 65:2.5286267 66:5.4389329 67:15.839622 68:17.891167 69:16.936958 70:15.219398 71:14.074371 72:6.6793914 73:1.8606875 74:0.33396944 75:0 76:0 77:0 78:0 79:0 80:0 81:0 82:0 83:0 84:0 85:0 86:0 87:0 88:0 89:0 90:0 91:0.19083969 92:0.38167936 93:0.095419846 94:0.33396944 95:0.28625953 96:0.47709918 97:0.42938927 98:0.33396944 99:0.33396944 100:0.33396944 101:0.71564889 102:1.0496185 103:1.6221378 104:3.101146 105:3.4828255 106:4.5801539 107:6.0591621 108:8.0152693 109:11.593479 110:10.973256 111:14.551466 112:13.883533 113:6.3454218 114:3.912215 115:1.6698477 116:1.5267179 117:1.2881682 118:0.62022901 119:0.71564889 120:0.66793895 121:0.047709923 122:0.095419846 123:0 124:0 125:0.095419846 126:0.14312977 127:0.095419846 128:0 129:0 130:0 131:0 132:0 133:0 134:0 135:0 136:0 137:0 138:0 139:0 140:0 141:0 142:0 143:0 144:0 145:0 146:0 147:0 148:0 149:0 150:0 151:0 152:0 153:0 154:0 155:0 156:0 157:0 158:0 159:0 160:0 161:0 162:0 163:0 164:0 165:0 166:0 167:0 168:0 169:0 170:0 171:0 172:0 173:0 174:0 175:0 176:0 177:0 178:0 179:0 180:0 181:0 182:0 183:0 184:0 185:0 186:0 187:0 188:0 189:0 190:0 191:0 192:0 193:0 194:0 195:0 196:0 197:0 198:0 199:0 200:0 201:0 202:0 203:0 204:0 205:0 206:0 207:0 208:0 209:0 210:0 211:0 212:0 213:0 214:0 215:0 216:0 217:0 218:0 219:0 220:0 221:0 222:0 223:0 224:0 225:0 226:0 227:0 228:0 229:0 230:0 231:0 232:0 233:0 234:0 235:0 236:0 237:0 238:0 239:0 240:0 241:0 242:0 243:0 244:0 245:0 246:0 247:0 248:0 249:0 250:0 251:0 252:0 253:0 254:0 255:0 256:0 257:0 258:0 259:0 260:0 261:0 262:0 263:0 264:0 265:0 266:0 267:0 268:0 269:0 270:0 271:0 272:0 273:0 274:0 275:0 276:0 277:0 278:0 279:0 280:0 281:0 282:0 283:0 284:0 285:0 286:0 287:0 288:0 289:0 290:0 291:0.38149738 292:1.1444921 293:6.1516352 294:7.2007504 295:4.5779624 296:4.6256495 297:6.5331316 298:6.8192539 299:6.6285057 300:14.449247 301:13.257059 302:18.407312 303:6.866941 304:1.0491178 305:1.7167382 306:0.095374346 307:0.095374346 308:0 
0 0.002446239717149222 0 0 0 0 1:0 2:0 3:0 4:0 5:0 6:0 7:0 8:0 9:0 10:0 11:0 12:0 13:0 14:0 15:0 16:0 17:0 18:0 19:0 20:0 21:4.7285495 22:18.169952 23:23.467718 24:24.212032 25:17.119156 26:5.4728556 27:2.5831888 28:3.8091114 29:0.48161116 30:0 31:0 32:0 33:0 34:0 35:0 36:0 37:0 38:0 39:0 40:0 41:0 42:0 43:0 44:0 45:0 46:0 47:0 48:0 49:0 50:2.5394058 51:2.7145376 52:0.65674251 53:0.56917685 54:0.83187383 55:0.70052534 56:0.87565666 57:0.65674251 58:1.0070052 59:0.56917685 60:0.61295968 61:3.3712819 62:4.9912457 63:6.0858135 64:7.6182084 65:5.5166383 66:5.4290729 67:5.7355518 68:4.8161149 69:6.1733789 70:6.1295962 71:5.8231173 72:8.9316998 73:5.0350285 74:2.8021035 75:1.576182 76:1.0945709 77:1.6199648 78:3.5026307 79:0.56917685 80:1.4886163 81:0 82:0 83:0 84:0 85:0 86:0 87:0 88:0 89:0 90:0 91:0 92:0 93:0 94:4.9036803 95:3.3712819 96:0.43782833 97:0.87565666 98:0.56917685 99:0.43782833 100:0.70052534 101:0.65674251 102:0.26269701 103:0.35026267 104:0.788091 105:0.96322232 106:3.3712819 107:4.5534186 108:8.0998192 109:11.120859 110:10.639244 111:10.026279 112:5.4290729 113:0.3940455 114:2.408057 115:8.3625183 116:5.4728556 117:2.5394058 118:2.6707547 119:3.283716 120:2.6269717 121:1.5323992 122:0.65674251 123:0.65674251 124:0.65674251 125:0.35026267 126:0.087565675 127:0.17513135 128:0.087565675 129:0.13134852 130:0.087565675 131:0.17513135 132:0.087565675 133:0.043782838 134:0 135:0 136:0 137:0 138:0 139:0 140:0 141:0 142:0 143:0 144:0 145:0 146:0 147:0 148:0 149:0 150:0 151:0 152:0 153:0 154:0 155:0 156:0 157:0 158:0 159:0 160:0 161:0 162:0 163:0 164:0 165:0 166:0 167:0 168:0 169:0 170:0 171:0 172:0 173:0 174:0 175:0 176:0 177:0 178:0 179:0 180:0 181:0 182:0 183:0 184:0 185:0 186:0 187:0 188:0 189:0 190:0 191:0 192:0 193:0 194:0 195:0 196:0 197:0 198:0 199:0 200:0 201:0 202:0 203:0 204:0 205:0 206:0 207:0 208:0 209:0 210:0 211:0 212:0 213:0 214:0 215:0 216:0 217:0 218:0 219:0 220:0 221:0 222:0 223:0 224:0 225:0 226:0 227:0 228:0 229:0 230:0 231:0 232:0 233:0 234:0 235:0 236:0 237:0 238:0 239:0 240:0 241:0 242:0 243:0 244:0 245:0 246:0 247:0 248:0 249:0 250:0 251:0 252:0 253:0 254:0 255:0 256:0 257:0 258:0 259:0 260:0 261:0 262:0 263:0 264:0 265:0 266:0 267:0 268:0 269:0 270:0 271:0 272:0 273:0 274:0 275:0 276:0 277:0 278:0.52516407 279:0.26258206 280:0.26258206 281:0.08752735 282:0.17505471 283:0.52516407 284:0.83150995 285:2.8446376 286:3.4135649 287:3.4573286 288:6.4332561 289:9.2779064 290:9.9781322 291:6.1706743 292:5.5579834 293:7.4398198 294:5.5579834 295:4.8140016 296:5.4704561 297:6.8708925 298:4.2450743 299:1.5317284 300:0.96280104 301:1.3566738 302:0.91903734 303:1.0503284 304:4.5951834 305:1.6630193 306:0.91903734 307:1.6192557 308:1.1816193 
0 0.0009821861506470212 0 0 0 0 1:0 2:0 3:0 4:0 5:0 6:0 7:0.13080445 8:0.58861995 9:0.2616089 10:0.13080445 11:0.065402225 12:0 13:0.98103321 14:0.52321774 15:0.19620667 16:0 17:0.45781553 18:0.58861995 19:1.0464355 20:2.7468944 21:6.9980311 22:27.861452 23:26.618795 24:15.042481 25:5.7553926 26:2.8122966 27:1.3080446 28:0.915631 29:0.45781553 30:0.2616089 31:0.58861995 32:0.78482658 33:0.58861995 34:0.39241332 35:0.32701111 36:0.39241332 37:0.58861995 38:0.65402216 39:0 40:0 41:0 42:0 43:0 44:0 45:0 46:0 47:0 48:0 49:0.65402216 50:1.896665 51:2.6814921 52:1.5696536 53:1.3080446 54:0.45781553 55:0.45781553 56:0.13080445 57:0.19620667 58:1.3734468 59:0.13080445 60:0.19620667 61:0 62:0.71942437 63:2.9431012 64:13.538235 65:10.725947 66:8.5022783 67:6.2132068 68:5.5591865 69:5.9515986 70:12.360998 71:6.0824027 72:2.2890785 73:0.58861995 74:1.9620672 75:3.0085034 76:2.0928717 77:1.0464355 78:0.98103321 79:0.39241332 80:0.13080445 81:0.19620667 82:0 83:0.065402225 84:0.065402225 85:3.5317216 86:0 87:0.065402225 88:0 89:0 90:0 91:0 92:0 93:0 94:0 95:0 96:0.065402225 97:0.19620667 98:1.0464355 99:1.0464355 100:1.2426423 101:0.45781553 102:0.915631 103:1.7658604 104:1.0464355 105:1.2426423 106:1.8312627 107:3.2701125 108:3.139308 109:4.9051661 110:8.5022783 111:5.4283824 112:4.4473519 113:1.5696536 114:8.9600925 115:14.977079 116:7.1288352 117:3.7279284 118:3.4009171 119:3.9241352 120:2.2236762 121:1.7004582 122:0.85022879 123:0.2616089 124:0.32701111 125:0.2616089 126:0.71942437 127:0.32701111 128:0.58861995 129:0.39241332 130:0.065402225 131:0.2616089 132:2.0274694 133:0.85022879 134:0.13080445 135:4.8397641 136:0 137:0 138:0 139:0 140:0 141:0 142:0 143:0 144:0 145:0 146:0 147:0 148:0 149:0 150:0 151:0 152:0 153:0 154:0 155:0 156:0 157:0 158:0 159:0 160:0 161:0 162:0 163:0 164:0 165:0 166:0 167:0 168:0 169:0 170:0 171:0 172:0 173:0 174:0 175:0 176:0 177:0 178:0 179:0 180:0 181:0 182:0 183:0 184:0 185:0 186:0 187:0 188:0 189:0 190:0 191:0 192:0 193:0 194:0 195:0 196:0 197:0 198:0 199:0 200:0 201:0 202:0 203:0 204:0 205:0 206:0 207:0 208:0 209:0 210:0 211:0 212:0 213:0 214:0 215:0 216:0 217:0 218:0 219:0 220:0 221:0 222:0 223:0 224:0 225:0 226:0 227:0 228:0 229:0 230:0 231:0 232:0 233:0 234:0 235:0 236:0 237:0 238:0 239:0 240:0 241:0 242:0 243:0 244:0 245:0.065359481 246:0.065359481 247:0.26143792 248:0.13071896 249:0.3267974 250:0.26143792 251:0.13071896 252:0.3267974 253:0.52287585 254:0.26143792 255:0.19607843 256:0.065359481 257:0.065359481 258:0.3267974 259:0.19607843 260:0.26143792 261:0.19607843 262:0.3267974 263:0.39215687 264:0.19607843 265:0.26143792 266:0.3267974 267:0.13071896 268:0.26143792 269:0.45751634 270:0.45751634 271:0.26143792 272:0.26143792 273:0.13071896 274:0.3267974 275:0.39215687 276:0.26143792 277:0.71895427 278:0.84967321 279:0.065359481 280:0.13071896 281:0.84967321 282:0.78431374 283:1.1764706 284:1.3725491 285:2.2222226 286:2.4836609 287:4.9673252 288:2.3529418 289:1.6993464 290:2.8104589 291:5.6209211 292:14.052264 293:6.8627534 294:6.601315 295:6.0784383 296:9.0196123 297:7.9085069 298:5.0326848 299:2.7450993 300:2.4183013 301:1.9607843 302:0.52287585 303:0.13071896 304:0.065359481 305:0.13071896 306:0.19607843 307:0.065359481 308:0 
0 0.005309760670724448 0 0 0.001682088977861137 0 1:0 2:0 3:0 4:0 5:0 6:0 7:0 8:0 9:0 10:0 11:0 12:0 13:0 14:0 15:0 16:0 17:0 18:0 19:0 20:0 21:0 22:0.052029137 23:38.033169 24:48.907158 25:11.082234 26:1.9771072 27:0 28:0 29:0 30:0 31:0 32:0 33:0 34:0 35:0 36:0 37:0 38:0 39:0 40:0 41:0 42:0 43:0 44:0 45:0 46:0 47:0 48:0 49:0 50:0 51:0 52:0 53:0 54:0 55:0 56:0 57:0 58:0.052029137 59:0.052029137 60:0.62434965 61:1.2486993 62:0.88449532 63:1.925078 64:5.2549429 65:7.5442247 66:12.487034 67:13.371537 68:18.522423 69:19.40691 70:9.6254053 71:5.306972 72:2.0291364 73:1.144641 74:0.20811655 75:0.20811655 76:0 77:0.052029137 78:0.10405827 79:0 80:0 81:0 82:0 83:0 84:0 85:0 86:0 87:0 88:0 89:0 90:0 91:0.052029137 92:0.10405827 93:0.10405827 94:0.15608741 95:0.31217483 96:0.31217483 97:0.41623309 98:0.26014569 99:0.36420396 100:0.57232052 101:0.98855358 102:1.0926119 103:1.1966702 104:1.6129032 105:2.9656608 106:4.3704476 107:7.648283 108:12.9553 109:15.088514 110:14.099952 111:11.550501 112:10.718027 113:4.6305933 114:4.3704476 115:2.237253 116:1.508845 117:0.052029137 118:0 119:0 120:0 121:0 122:0 123:0 124:0 125:0.052029137 126:0 127:0.10405827 128:0.052029137 129:0 130:0.052029137 131:0 132:0.052029137 133:0 134:0 135:0 136:0 137:0 138:0 139:0 140:0 141:0 142:0 143:0 144:0 145:0 146:0 147:0 148:0 149:0 150:0 151:0 152:0 153:0 154:0 155:0 156:0 157:0 158:0 159:0 160:0 161:0 162:0 163:0 164:0 165:0 166:0 167:0 168:0 169:0 170:0 171:0 172:0 173:0 174:0 175:0 176:0 177:0 178:0 179:0 180:0 181:0 182:0 183:0 184:0 185:0 186:0 187:0 188:0 189:0 190:0 191:0 192:0 193:0 194:0 195:0 196:0 197:0 198:0 199:0 200:0 201:0 202:0 203:0 204:0 205:0 206:0 207:0 208:0 209:0 210:0 211:0 212:0 213:0 214:0 215:0 216:0 217:0 218:0 219:0 220:0 221:0 222:0 223:0 224:0 225:0 226:0 227:0 228:0 229:0 230:0 231:0 232:0 233:0 234:0 235:0 236:0 237:0 238:0 239:0 240:0 241:0 242:0 243:0 244:0 245:0 246:0 247:0 248:0 249:0 250:0 251:0 252:0 253:0 254:0 255:0 256:0 257:0 258:0 259:0 260:0 261:0 262:0 263:0 264:0 265:0 266:0 267:0 268:0 269:0 270:0 271:0 272:0 273:0 274:0 275:0 276:0 277:0 278:0 279:0 280:0 281:0 282:0 283:0 284:0 285:0 286:0.62402493 287:0.20800833 288:0.15600625 289:0.52002078 290:0.676027 291:0.72802907 292:0.31201249 293:0.20800833 294:0.31201249 295:2.3920963 296:4.8361955 297:14.924575 298:11.804458 299:6.1882463 300:5.0962052 301:9.7763815 302:16.120621 303:12.116469 304:6.1882463 305:4.264174 306:2.2360897 307:0.31201249 308:0 
0 0 0.0009696914745304908 0 0 0 1:0.057903878 2:0.11580776 3:0 4:0 5:0 6:0 7:0 8:0 9:0 10:0 11:0 12:0 13:0 14:0 15:0 16:0 17:0.057903878 18:0.17371163 19:6.1378036 20:7.4695902 21:7.2379751 22:15.691988 23:24.724907 24:15.807796 25:9.033 26:3.3584225 27:3.995364 28:3.7637489 29:0.52113491 30:0.34742329 31:0.69484657 32:0.34742329 33:0.17371163 34:0 35:0 36:0 37:0 38:0.17371163 39:0.17371163 40:0 41:0 42:0 43:0 44:0 45:0 46:0 47:0 48:0 49:0.23161551 50:0.11580776 51:1.3317893 52:3.1847112 53:1.7950203 54:3.7637489 55:3.4163263 56:1.7950203 57:2.2003472 58:4.4585943 59:4.5164981 60:4.2269793 61:2.8372886 62:2.2003472 63:2.0266359 64:1.8529242 65:4.4585943 66:3.6479414 67:2.8951924 68:3.4742301 69:4.4585943 70:5.1534395 71:4.4006906 72:5.3271508 73:3.7637489 74:2.3740585 75:1.7371165 76:3.3005188 77:5.8482847 78:4.5744019 79:2.258251 80:0.86855823 81:0.46323106 82:0.75275046 83:0.17371163 84:0 85:0.057903878 86:0.11580776 87:0 88:0 89:0 90:0 91:0 92:0 93:0 94:0 95:0 96:1.447597 97:2.6056736 98:1.8529242 99:0.81065434 100:0.63694268 101:1.1580776 102:1.9108281 103:2.3740585 104:2.0845397 105:2.7793849 106:2.7793849 107:3.1847112 108:4.5164981 109:7.5853977 110:7.0063601 111:3.1268075 112:1.5634048 113:0.17371163 114:1.2738854 115:5.2113433 116:7.9328203 117:4.7481132 118:2.3161547 119:1.8529242 120:1.1001737 121:1.6213087 122:2.6056736 123:3.1847112 124:2.8372886 125:2.489866 126:1.7371165 127:2.5477698 128:1.0422698 129:1.6792126 130:6.3694186 131:1.447597 132:0.34742329 133:0.11580776 134:0 135:0 136:0 137:0 138:0 139:0 140:0 141:0 142:0 143:0 144:0 145:0 146:0 147:0 148:0 149:0 150:0 151:0 152:0 153:0 154:0 155:0 156:0 157:0 158:0 159:0 160:0 161:0 162:0 163:0 164:0 165:0 166:0 167:0 168:0 169:0 170:0 171:0 172:0 173:0 174:0 175:0 176:0 177:0 178:0 179:0 180:0 181:0 182:0 183:0 184:0 185:0 186:0 187:0 188:0 189:0 190:0 191:0 192:0 193:0 194:0 195:0 196:0 197:0 198:0 199:0 200:0 201:0 202:0 203:0 204:0 205:0 206:0 207:0 208:0 209:0 210:0 211:0 212:0 213:0 214:0 215:0 216:0 217:0 218:0 219:0 220:0 221:0 222:0 223:0 224:0 225:0 226:0 227:0 228:0 229:0 230:0 231:0 232:0 233:0 234:0 235:0 236:0 237:0 238:0 239:0 240:0 241:0 242:0 243:0 244:0 245:0 246:0.057870369 247:0.11574074 248:0.057870369 249:0.057870369 250:0 251:0 252:0.057870369 253:0 254:0.11574074 255:0.11574074 256:0 257:0.057870369 258:0 259:0.057870369 260:0.11574074 261:0.057870369 262:0.11574074 263:0.28935185 264:0.1736111 265:0.11574074 266:0.11574074 267:0.057870369 268:0.1736111 269:0.75231487 270:0.5787037 271:0.69444448 272:0.69444448 273:0.86805564 274:0.92592603 275:0.69444448 276:1.4467595 277:1.5625002 278:1.967593 279:2.3726857 280:3.1828711 281:3.7037046 282:3.472223 283:4.1087971 284:2.6041672 285:2.3148153 286:1.2152779 287:1.1574075 288:1.678241 289:1.2731483 290:1.5046299 291:1.3888891 292:1.8518522 293:1.6203706 294:1.678241 295:2.7777784 296:3.0671303 297:2.0254633 298:1.7939818 299:1.8518522 300:2.1990745 301:3.1250007 302:3.8773158 303:4.3402786 304:3.472223 305:4.4560194 306:8.5069427 307:7.233798 308:4.0509267 
0 0.0005893670013525172 0 0 0 0 1:0 2:0 3:0 4:0 5:0 6:0 7:0 8:0 9:0 10:0 11:0 12:0 13:0 14:0 15:0 16:0 17:0 18:0 19:0 20:0 21:0 22:1.3802315 23:53.250786 24:34.327599 25:7.0792656 26:2.8049889 27:0.84594834 28:0.31166518 29:0 30:0.044523597 31:0 32:0 33:0 34:0 35:0 36:0 37:0 38:0 39:0 40:0 41:0 42:0 43:0 44:0 45:0 46:0 47:0.089047194 48:0 49:0.044523597 50:0.044523597 51:0.044523597 52:0.13357079 53:0.13357079 54:0.17809439 55:0.13357079 56:0.35618877 57:0.40071237 58:0.35618877 59:0.66785395 60:0.97951913 61:1.1576135 62:1.5138023 63:2.7159414 64:3.1611786 65:8.1033096 66:17.408667 67:14.202993 68:12.733727 69:11.26446 70:11.13089 71:7.3464079 72:3.4728446 73:1.0685663 74:0.48975956 75:0.66785395 76:0.044523597 77:0 78:0 79:0 80:0 81:0 82:0 83:0 84:0 85:0 86:0 87:0 88:0 89:0 90:0 91:0 92:0.044523597 93:0 94:0 95:0 96:0.089047194 97:0.044523597 98:0.40071237 99:0.13357079 100:0.22261798 101:0.53428316 102:0.75690114 103:1.3802315 104:0.89047194 105:0.53428316 106:0.80142474 107:2.4933228 108:6.5895047 109:13.089912 110:20.258154 111:15.80583 112:10.329472 113:2.4487991 114:6.4114099 115:5.8326015 116:2.7604651 117:1.1576135 118:1.3802315 119:1.6028495 120:1.5583259 121:1.0685663 122:0.62333035 123:0.40071237 124:0.13357079 125:0.044523597 126:0.089047194 127:0 128:0.089047194 129:0.044523597 130:0 131:0 132:0 133:0 134:0 135:0 136:0 137:0 138:0 139:0 140:0 141:0 142:0 143:0 144:0 145:0 146:0 147:0 148:0 149:0 150:0 151:0 152:0 153:0 154:0 155:0 156:0 157:0 158:0 159:0 160:0 161:0 162:0 163:0 164:0 165:0 166:0 167:0 168:0 169:0 170:0 171:0 172:0 173:0 174:0 175:0 176:0 177:0 178:0 179:0 180:0 181:0 182:0 183:0 184:0 185:0 186:0 187:0 188:0 189:0 190:0 191:0 192:0 193:0 194:0 195:0 196:0 197:0 198:0 199:0 200:0 201:0 202:0 203:0 204:0 205:0 206:0 207:0 208:0 209:0 210:0 211:0 212:0 213:0 214:0 215:0 216:0 217:0 218:0 219:0 220:0 221:0 222:0 223:0 224:0 225:0 226:0 227:0 228:0 229:0 230:0 231:0 232:0 233:0 234:0 235:0 236:0 237:0 238:0 239:0 240:0 241:0 242:0 243:0 244:0 245:0 246:0 247:0 248:0 249:0 250:0 251:0 252:0 253:0 254:0 255:0 256:0 257:0 258:0 259:0 260:0 261:0 262:0 263:0 264:0 265:0 266:0 267:0 268:0 269:0 270:0 271:0 272:0 273:0 274:0 275:0 276:0 277:0.089007564 278:0 279:0 280:0 281:0.044503782 282:0 283:0.044503782 284:0.044503782 285:0.089007564 286:0 287:0.044503782 288:0.17801513 289:0.40053403 290:0.62305301 291:0.22251891 292:0.2670227 293:0.44503781 294:0.48954159 295:1.2016025 296:2.5367153 297:3.4712927 298:5.5629663 299:13.751707 300:16.866999 301:9.3012905 302:8.0106697 303:9.3012905 304:14.018732 305:7.1205955 306:2.002671 307:1.3796177 308:2.4922116 
0 0 0 0.0008706550135348354 0 0 1:0 2:0 3:0 4:0 5:0 6:0 7:0 8:0 9:0 10:0 11:0 12:0 13:0 14:0 15:0 16:0 17:0 18:0.14234875 19:0.92526692 20:2.6334519 21:3.9857652 22:17.722441 23:29.608603 24:18.861235 25:10.32028 26:5.0533776 27:8.256216 28:0.35587189 29:0.92526692 30:1.13879 31:0.071174376 32:0 33:0 34:0 35:0 36:0 37:0 38:0.071174376 39:0 40:0 41:0 42:0 43:0 44:0 45:0 46:0 47:0 48:0 49:0 50:0 51:0 52:0 53:0 54:0 55:0 56:0 57:0 58:0 59:0.071174376 60:0.42704627 61:0.14234875 62:0.42704627 63:0.2846975 64:0.92526692 65:5.3380742 66:6.9039054 67:4.6975069 68:5.9786415 69:3.202847 70:4.1992879 71:8.3273907 72:9.8932323 73:7.7579951 74:4.9110293 75:4.8398552 76:4.1992879 77:2.7046263 78:3.7722421 79:1.4946619 80:1.4234875 81:0.85409254 82:0.85409254 83:2.1352313 84:5.8362932 85:8.4697399 86:0 87:0 88:0 89:0 90:0 91:0 92:0.071174376 93:0.14234875 94:0.2846975 95:1.6370107 96:4.9822035 97:6.6192088 98:3.6298933 99:0.78291816 100:0.71174377 101:1.2099644 102:1.7793595 103:2.9181495 104:3.7010677 105:4.4839845 106:6.1921639 107:7.7579951 108:9.6797085 109:8.5409145 110:3.6298933 111:1.6370107 112:0.2846975 113:0 114:0 115:0.9964413 116:2.2064056 117:4.4839845 118:4.4128103 119:3.5587189 120:2.9893239 121:1.7081851 122:1.2811388 123:0.9964413 124:1.2099644 125:0.9964413 126:1.0676156 127:0.85409254 128:0.2846975 129:0.071174376 130:0.14234875 131:0.21352312 132:0.49822065 133:0.2846975 134:0.64056939 135:0.49822065 136:0 137:0 138:0 139:0 140:0 141:0 142:0 143:0 144:0 145:0 146:0 147:0 148:0 149:0 150:0 151:0 152:0 153:0 154:0 155:0 156:0 157:0 158:0 159:0 160:0 161:0 162:0 163:0 164:0 165:0 166:0 167:0 168:0 169:0 170:0 171:0 172:0 173:0 174:0 175:0 176:0 177:0 178:0 179:0 180:0 181:0 182:0 183:0 184:0 185:0 186:0 187:0 188:0 189:0 190:0 191:0 192:0 193:0 194:0 195:0 196:0 197:0 198:0 199:0 200:0 201:0 202:0 203:0 204:0 205:0 206:0 207:0 208:0 209:0 210:0 211:0 212:0 213:0 214:0 215:0 216:0 217:0 218:0 219:0 220:0 221:0 222:0 223:0 224:0 225:0 226:0 227:0 228:0 229:0 230:0 231:0 232:0 233:0 234:0 235:0 236:0 237:0 238:0 239:0 240:0 241:0 242:0 243:0.071123756 244:0 245:0 246:0 247:0.071123756 248:0 249:0.071123756 250:0.21337126 251:0.28449503 252:0 253:0.42674252 254:0.14224751 255:0.14224751 256:0.21337126 257:0.14224751 258:0.14224751 259:0.071123756 260:0.21337126 261:0 262:0.14224751 263:0 264:0 265:0.64011383 266:1.1379802 267:2.6315794 268:1.4224751 269:0.99573272 270:1.4224751 271:0.99573272 272:2.0625887 273:0.56899005 274:0.78236139 275:0.99573272 276:0.64011383 277:0.92460895 278:0.49786627 279:0.99573272 280:0.56899005 281:0.85348517 282:1.0668565 283:1.1379802 284:1.7780937 285:1.7780937 286:1.6358463 287:3.5561893 288:4.1251798 289:4.1251798 290:4.3385506 291:5.689899 292:5.4765282 293:5.1920338 294:3.4850655 295:2.4893317 296:2.5604556 297:2.7738271 298:2.6315794 299:2.6315794 300:3.3428178 301:3.5561893 302:5.0497866 303:4.3385506 304:3.3428178 305:1.4224751 306:0.78236139 307:0.49786627 308:0.71123761 
0.0006383758753256029 0 0 0.001154829944802037 0 0 1:0 2:0 3:0 4:0 5:0 6:0 7:0 8:0 9:0 10:0 11:0 12:0 13:0 14:0 15:0 16:0 17:0 18:0 19:0 20:2.5396838 21:6.2585073 22:16.779964 23:23.446566 24:28.02702 25:10.340118 26:9.1156406 27:2.3129263 28:0.81632674 29:0.3628118 30:0.045351475 31:0 32:0 33:0 34:0 35:0 36:0 37:0 38:0 39:0 40:0 41:0 42:0 43:0 44:0 45:0 46:0 47:0 48:0 49:2.1315203 50:4.9886651 51:1.3151933 52:1.1337873 53:1.6780053 54:0.77097523 55:0.77097523 56:1.2244903 57:1.3151933 58:0.49886623 59:0.40816328 60:1.0430843 61:4.0362835 62:5.4875317 63:4.8979621 64:5.6235862 65:4.6258531 66:4.263041 67:3.6281199 68:2.9478474 69:4.263041 70:3.990932 71:3.9455805 72:3.9455805 73:5.2607741 74:6.4399133 75:7.8911614 76:3.1746049 77:4.4897985 78:3.6734715 79:0.045351475 80:0.13605443 81:0 82:0 83:0 84:0 85:0 86:0 87:0 88:0 89:0 90:0 91:0 92:0 93:0.68027222 94:1.5419508 95:1.3151933 96:6.5306163 97:1.3605448 98:0.54421771 99:0.45351475 100:0.090702951 101:0.22675738 102:0.27210885 103:0.90702975 104:1.5873023 105:2.9024959 106:3.0385504 107:3.1292534 108:5.4875317 109:7.3922949 110:10.068012 111:11.972755 112:6.3945618 113:0.3628118 114:5.2154226 115:7.0294828 116:4.0362835 117:2.0408173 118:1.2698418 119:1.2698418 120:1.7687083 121:2.5396838 122:2.1315203 123:2.1315203 124:0.95238125 125:1.1791388 126:0.90702975 127:0.86167824 128:0.13605443 129:0.31746033 130:0 131:0 132:0 133:0 134:0 135:0 136:0 137:0 138:0 139:0 140:0 141:0 142:0 143:0 144:0 145:0 146:0 147:0 148:0 149:0 150:0 151:0 152:0 153:0 154:0 155:0 156:0 157:0 158:0 159:0 160:0 161:0 162:0 163:0 164:0 165:0 166:0 167:0 168:0 169:0 170:0 171:0 172:0 173:0 174:0 175:0 176:0 177:0 178:0 179:0 180:0 181:0 182:0 183:0 184:0 185:0 186:0 187:0 188:0 189:0 190:0 191:0 192:0 193:0 194:0 195:0 196:0 197:0 198:0 199:0 200:0 201:0 202:0 203:0 204:0 205:0 206:0 207:0 208:0 209:0 210:0 211:0 212:0 213:0 214:0 215:0 216:0 217:0 218:0 219:0 220:0 221:0 222:0 223:0 224:0 225:0 226:0 227:0 228:0 229:0 230:0 231:0 232:0 233:0 234:0 235:0 236:0 237:0 238:0 239:0 240:0 241:0 242:0 243:0 244:0 245:0 246:0 247:0 248:0 249:0 250:0 251:0 252:0 253:0 254:0 255:0 256:0 257:0 258:0 259:0 260:0 261:0 262:0 263:0 264:0 265:0 266:0 267:0 268:0 269:0 270:0 271:0 272:0 273:0 274:0.31731641 275:0.045330916 276:0.13599275 277:0.13599275 278:0.13599275 279:0.090661831 280:0.045330916 281:0.045330916 282:0.45330915 283:0.45330915 284:0.72529477 285:1.2692658 286:3.3544898 287:2.8558488 288:3.4451518 289:6.1196809 290:9.2475195 291:10.698112 292:8.2049065 293:4.9864058 294:4.1251168 295:4.1251168 296:3.4451518 297:2.9011798 298:2.5385318 299:3.1278348 300:3.2638278 301:3.6718068 302:6.2103429 303:2.7198558 304:1.2692658 305:3.8077998 306:5.5303779 307:0.49864006 308:0 
0 0.003004828919322441 0 0 0.0004060215972752273 0 1:0 2:0 3:0 4:0 5:0 6:0 7:0 8:0 9:0 10:0 11:0 12:0 13:0 14:0 15:0 16:0 17:0 18:0.098376781 19:1.2788979 20:1.5740281 21:6.5420666 22:14.658188 23:24.88942 24:27.840736 25:15.100885 26:5.7550488 27:0.68863738 28:0.54107225 29:0.19675356 30:0.19675356 31:0.098376781 32:0.098376781 33:0 34:0.24594195 35:0.14756517 36:0.098376781 37:0 38:0 39:0 40:0 41:0 42:0 43:0 44:0 45:0 46:0 47:0 48:0 49:0 50:0 51:0 52:0 53:0 54:0.098376781 55:0.04918839 56:0.14756517 57:0 58:0.04918839 59:0 60:0.098376781 61:0.59026062 62:1.032956 63:0.4426955 64:0.88539088 65:2.7545493 66:3.7875051 67:3.0004911 68:7.6734047 69:10.624722 70:12.887398 71:9.8377037 72:9.296629 73:15.543583 74:8.8047428 75:1.4756514 76:1.0821444 77:0.34431875 78:0.8362025 79:0.78701413 80:0.39350712 81:0.14756517 82:0.88539088 83:1.3280863 84:0.98376763 85:1.1313328 86:2.4102306 87:0.49188387 88:0.14756517 89:0 90:0 91:0 92:0 93:0 94:0 95:0.098376781 96:0.34431875 97:0.68863738 98:0.8362025 99:0.73782575 100:1.2297095 101:1.2297095 102:2.065912 103:2.852926 104:2.1151004 105:1.6724049 106:1.9675351 107:2.7545493 108:5.9518032 109:10.526344 110:15.346828 111:9.4933834 112:1.6724049 113:0.88539088 114:1.7707816 115:4.1810131 116:6.5912552 117:6.4436893 118:5.2631626 119:2.3610423 120:1.3280863 121:1.032956 122:0.24594195 123:0.19675356 124:0.24594195 125:0.24594195 126:0.098376781 127:0.04918839 128:0 129:0.04918839 130:0.98376763 131:2.4102306 132:3.2956214 133:0.78701413 134:0 135:0 136:0 137:0 138:0 139:0 140:0 141:0 142:0 143:0 144:0 145:0 146:0 147:0 148:0 149:0 150:0 151:0 152:0 153:0 154:0 155:0 156:0 157:0 158:0 159:0 160:0 161:0 162:0 163:0 164:0 165:0 166:0 167:0 168:0 169:0 170:0 171:0 172:0 173:0 174:0 175:0 176:0 177:0 178:0 179:0 180:0 181:0 182:0 183:0 184:0 185:0 186:0 187:0 188:0 189:0 190:0 191:0 192:0 193:0 194:0 195:0 196:0 197:0 198:0 199:0 200:0 201:0 202:0 203:0 204:0 205:0 206:0 207:0 208:0 209:0 210:0 211:0 212:0 213:0 214:0 215:0 216:0 217:0 218:0 219:0 220:0 221:0 222:0 223:0 224:0 225:0 226:0 227:0 228:0 229:0 230:0 231:0 232:0 233:0 234:0 235:0 236:0 237:0 238:0 239:0 240:0 241:0 242:0 243:0 244:0 245:0 246:0 247:0 248:0 249:0 250:0 251:0.04916421 252:0.098328419 253:0 254:0 255:0.04916421 256:0 257:0 258:0.04916421 259:0 260:0 261:0.04916421 262:0 263:0 264:0.04916421 265:0 266:0.098328419 267:0 268:0 269:0.098328419 270:0 271:0 272:0 273:0.098328419 274:0.098328419 275:0.04916421 276:0.098328419 277:0 278:0 279:0.098328419 280:0.04916421 281:0 282:0.04916421 283:0.04916421 284:0.04916421 285:0.04916421 286:0.24582104 287:1.3765979 288:1.0816128 289:2.4090466 290:5.0639186 291:6.1455331 292:5.5063972 293:5.2114115 294:5.1622472 295:3.9823041 296:7.8171191 297:8.3087587 298:5.8505473 299:2.3598824 300:2.2123895 301:1.8682396 302:2.3107181 303:2.9006896 304:6.5880117 305:12.733502 306:6.293026 307:2.3598824 308:0.98328441 
0 0.002679304079550458 0 0 0 0 1:0 2:0 3:0 4:0 5:0 6:0 7:0 8:0 9:0 10:0 11:0 12:0 13:0 14:0 15:0 16:0 17:0 18:0 19:0.079365082 20:0.15873016 21:1.1904763 22:15.555534 23:36.904659 24:27.61898 25:12.222214 26:3.333333 27:1.1904763 28:0.15873016 29:0 30:0.079365082 31:0 32:0 33:0 34:0 35:0 36:0 37:0.079365082 38:0.3968254 39:0.95238096 40:0.15873016 41:0 42:0 43:0 44:0 45:0 46:0 47:0 48:0 49:0.71428573 50:2.3809528 51:0.55555558 52:0.47619048 53:0.31746033 54:0.31746033 55:0.63492066 56:0.95238096 57:1.5079368 58:0.87301588 59:0.47619048 60:0.3968254 61:2.8571429 62:3.7301581 63:5.9523845 64:11.428566 65:7.380959 66:5.8730192 67:5.0000014 68:3.333333 69:6.2698455 70:4.0476184 71:5.7142887 72:9.285717 73:6.111115 74:4.6825404 75:2.2222228 76:0.87301588 77:0 78:0.079365082 79:0.079365082 80:0.15873016 81:0.079365082 82:0 83:0 84:0 85:0.23809525 86:1.5079368 87:0.47619048 88:0.15873016 89:2.9365079 90:0 91:0 92:0 93:0.079365082 94:0.23809525 95:0.15873016 96:0 97:0.15873016 98:0.15873016 99:3.015873 100:2.3015878 101:1.2698414 102:2.3809528 103:1.8253974 104:2.1428578 105:1.9841276 106:2.8571429 107:5.2380972 108:6.2698455 109:8.4127045 110:10 111:8.3333397 112:5.7142887 113:1.5079368 114:6.428576 115:10.476189 116:8.1746101 117:3.6507931 118:1.031746 119:0.47619048 120:1.031746 121:0.71428573 122:0.63492066 123:0.23809525 124:0.55555558 125:0.55555558 126:0.79365081 127:0.23809525 128:0.3968254 129:0.31746033 130:0.15873016 131:0 132:0.15873016 133:0 134:0 135:0 136:0 137:0 138:0 139:0 140:0 141:0 142:0 143:0 144:0 145:0 146:0 147:0 148:0 149:0 150:0 151:0 152:0 153:0 154:0 155:0 156:0 157:0 158:0 159:0 160:0 161:0 162:0 163:0 164:0 165:0 166:0 167:0 168:0 169:0 170:0 171:0 172:0 173:0 174:0 175:0 176:0 177:0 178:0 179:0 180:0 181:0 182:0 183:0 184:0 185:0 186:0 187:0 188:0 189:0 190:0 191:0 192:0 193:0 194:0 195:0 196:0 197:0 198:0 199:0 200:0 201:0 202:0 203:0 204:0 205:0 206:0 207:0 208:0 209:0 210:0 211:0 212:0 213:0 214:0 215:0 216:0 217:0 218:0 219:0 220:0 221:0 222:0 223:0 224:0 225:0 226:0 227:0 228:0 229:0 230:0 231:0 232:0 233:0 234:0 235:0 236:0 237:0 238:0 239:0 240:0 241:0 242:0 243:0 244:0 245:0 246:0 247:0 248:0 249:0 250:0.07930214 251:0 252:0.15860428 253:0.23790643 254:0.23790643 255:0.07930214 256:0.31720856 257:0.39651069 258:0 259:0.31720856 260:0.39651069 261:0.07930214 262:0.31720856 263:0.39651069 264:1.1895322 265:1.5067409 266:1.9032519 267:1.4274387 268:2.2204604 269:2.7755749 270:4.1237106 271:4.8374314 272:4.2030129 273:4.2030129 274:6.1855707 275:5.6304545 276:6.50278 277:4.0444083 278:2.2997625 279:1.5067409 280:3.7271998 281:2.2204604 282:2.6962729 283:1.7446475 284:1.2688344 285:1.8239497 286:5.3925476 287:1.3481365 288:2.6169708 289:1.9825541 290:1.5860431 291:0.15860428 292:0.71371925 293:0.15860428 294:0.47581282 295:0.47581282 296:0 297:1.2688344 298:1.8239497 299:2.2204604 300:1.3481365 301:0.39651069 302:1.1895322 303:1.9032519 304:2.4583666 305:0.39651069 306:0.47581282 307:0.39651069 308:0.15860428 
0 0.00232236496507318 0 0 0 0 1:0 2:0 3:0 4:0 5:0 6:0 7:0 8:0 9:0 10:0 11:0 12:0 13:0 14:0 15:0 16:0 17:0 18:0 19:0 20:0 21:0.86558044 22:12.118153 23:40.732994 24:40.427505 25:4.8879852 26:1.01833 27:0 28:0 29:0 30:0 31:0 32:0 33:0 34:0 35:0 36:0 37:0 38:0 39:0 40:0 41:0 42:0 43:0 44:0 45:0 46:0 47:0 48:0 49:0 50:0 51:0 52:0 53:0 54:0 55:0 56:0 57:0 58:0 59:0 60:0 61:0 62:0.15274949 63:0.71283096 64:2.2912431 65:2.6985745 66:9.2159023 67:16.853403 68:19.704737 69:15.325903 70:7.5356522 71:5.1934853 72:3.9714854 73:4.6843185 74:5.4989853 75:3.6150703 76:1.6293286 77:0.86558044 78:0.10183299 79:0 80:0 81:0 82:0 83:0 84:0 85:0 86:0 87:0 88:0 89:0 90:0 91:0 92:0 93:0 94:0 95:0 96:0 97:0 98:0 99:0 100:0 101:0 102:0 103:0 104:0.40733197 105:0.61099797 106:1.6293286 107:2.2912431 108:7.9939022 109:11.761736 110:19.297403 111:15.325903 112:5.7535686 113:0.86558044 114:4.1242352 115:9.3177357 116:8.7067356 117:4.8370686 118:3.5641539 119:1.7820783 120:0.50916499 121:0.20366599 122:0.25458249 123:0.25458249 124:0.10183299 125:0.15274949 126:0.050916497 127:0.10183299 128:0 129:0.050916497 130:0 131:0 132:0.050916497 133:0 134:0 135:0.050916497 136:0 137:0 138:0 139:0 140:0 141:0 142:0 143:0 144:0 145:0 146:0 147:0 148:0 149:0 150:0 151:0 152:0 153:0 154:0 155:0 156:0 157:0 158:0 159:0 160:0 161:0 162:0 163:0 164:0 165:0 166:0 167:0 168:0 169:0 170:0 171:0 172:0 173:0 174:0 175:0 176:0 177:0 178:0 179:0 180:0 181:0 182:0 183:0 184:0 185:0 186:0 187:0 188:0 189:0 190:0 191:0 192:0 193:0 194:0 195:0 196:0 197:0 198:0 199:0 200:0 201:0 202:0 203:0 204:0 205:0 206:0 207:0 208:0 209:0 210:0 211:0 212:0 213:0 214:0 215:0 216:0 217:0 218:0 219:0 220:0 221:0 222:0 223:0 224:0 225:0 226:0 227:0 228:0 229:0 230:0 231:0 232:0 233:0 234:0 235:0 236:0 237:0 238:0 239:0 240:0 241:0 242:0 243:0 244:0 245:0 246:0 247:0 248:0 249:0 250:0 251:0 252:0 253:0 254:0 255:0 256:0 257:0 258:0 259:0 260:0 261:0 262:0 263:0 264:0 265:0 266:0 267:0 268:0 269:0 270:0 271:0 272:0 273:0 274:0 275:0 276:0 277:0 278:0 279:0 280:0 281:0 282:0 283:0 284:0 285:0 286:0 287:0 288:0 289:0 290:0 291:0 292:0 293:0.050890584 294:0 295:0.20356233 296:0.55979645 297:0.96692097 298:3.8676875 299:6.7684436 300:12.417324 301:6.1068678 302:7.4300194 303:18.218847 304:16.997488 305:15.114543 306:8.2442684 307:2.4427483 308:0.61068702 
0 0.001235886306676905 0 0 0 0 1:0 2:0 3:0 4:0 5:0 6:0 7:0 8:0 9:0 10:0 11:0 12:0 13:0 14:0 15:0 16:0 17:0 18:0 19:0 20:0 21:0 22:7.779099 23:44.833691 24:43.586639 25:3.8598583 26:0 27:0 28:0 29:0 30:0 31:0 32:0 33:0 34:0 35:0 36:0 37:0 38:0 39:0 40:0 41:0 42:0 43:0 44:0 45:0 46:0 47:0 48:0 49:0 50:0 51:0 52:0 53:0 54:0 55:0 56:0 57:0 58:0 59:0 60:0 61:0.2375297 62:2.0190027 63:2.1377676 64:4.9287419 65:13.123518 66:16.033257 67:27.196976 68:18.527279 69:5.7007136 70:5.878861 71:3.9192407 72:0.35629457 73:0 74:0 75:0 76:0 77:0 78:0 79:0 80:0 81:0 82:0 83:0 84:0 85:0 86:0 87:0 88:0 89:0 90:0 91:0 92:0 93:0 94:0 95:0 96:0 97:0 98:0 99:0 100:0.059382424 101:0 102:0.2375297 103:0.17814727 104:0.47505945 105:1.1876487 106:2.4346797 107:6.7102151 108:10.688838 109:11.342045 110:12.885988 111:15.61758 112:12.589076 113:3.681711 114:8.7886 115:10.035631 116:1.4845608 117:0.11876485 118:0.17814727 119:0.11876485 120:0.29691213 121:0.29691213 122:0.29691213 123:0.17814727 124:0.059382424 125:0.059382424 126:0.059382424 127:0 128:0 129:0 130:0 131:0 132:0 133:0 134:0 135:0 136:0 137:0 138:0 139:0 140:0 141:0 142:0 143:0 144:0 145:0 146:0 147:0 148:0 149:0 150:0 151:0 152:0 153:0 154:0 155:0 156:0 157:0 158:0 159:0 160:0 161:0 162:0 163:0 164:0 165:0 166:0 167:0 168:0 169:0 170:0 171:0 172:0 173:0 174:0 175:0 176:0 177:0 178:0 179:0 180:0 181:0 182:0 183:0 184:0 185:0 186:0 187:0 188:0 189:0 190:0 191:0 192:0 193:0 194:0 195:0 196:0 197:0 198:0 199:0 200:0 201:0 202:0 203:0 204:0 205:0 206:0 207:0 208:0 209:0 210:0 211:0 212:0 213:0 214:0 215:0 216:0 217:0 218:0 219:0 220:0 221:0 222:0 223:0 224:0 225:0 226:0 227:0 228:0 229:0 230:0 231:0 232:0 233:0 234:0 235:0 236:0 237:0 238:0 239:0 240:0 241:0 242:0 243:0 244:0 245:0 246:0 247:0 248:0 249:0 250:0 251:0 252:0 253:0 254:0 255:0 256:0 257:0 258:0 259:0 260:0 261:0 262:0 263:0 264:0 265:0 266:0 267:0 268:0 269:0 270:0 271:0 272:0 273:0 274:0 275:0 276:0 277:0 278:0 279:0 280:0 281:0 282:0 283:0 284:0 285:0 286:0 287:0 288:0 289:0 290:0 291:0.83086038 292:1.0089018 293:0.71216607 294:1.1869433 295:5.1632028 296:9.1988096 297:10.148364 298:4.6290784 299:3.8575652 300:4.2136483 301:10.504447 302:13.827888 303:10.385753 304:10.801183 305:5.5192857 306:4.9258142 307:2.9673579 308:0.11869437 
0 0.01046114918900901 0 0 0 0 1:0 2:0 3:0 4:0 5:0 6:0 7:0 8:0 9:0 10:0 11:0 12:0 13:0 14:0 15:0 16:0 17:2.0872865 18:3.9848218 19:0.18975332 20:0 21:2.9411774 22:21.821644 23:13.472471 24:13.187842 25:14.895616 26:10.151801 27:5.6926036 28:3.889945 29:2.1821632 30:1.5180265 31:0 32:0 33:0 34:0 35:0 36:0 37:0.37950665 38:0.75901324 39:2.8463006 40:0.094876662 41:0 42:0 43:0 44:0 45:0 46:0 47:0 48:0 49:0 50:0 51:0 52:0 53:0 54:0 55:0.37950665 56:0.28463 57:0.18975332 58:0.18975332 59:0.18975332 60:1.4231498 61:1.5180265 62:2.27704 63:4.3643289 64:5.9772339 65:4.9335895 66:6.356741 67:5.3130965 68:4.4592056 69:8.6337805 70:8.4440279 71:10.056925 72:3.7001915 73:5.5028501 74:6.736248 75:5.3130965 76:2.3719168 77:3.4155612 78:1.4231498 79:0.18975332 80:0.37950665 81:1.8975331 82:2.3719168 83:1.4231498 84:0.28463 85:0.094876662 86:0 87:0 88:0 89:0 90:0 91:0 92:0 93:0 94:0 95:0 96:0.94876653 97:0.66413659 98:0.85388988 99:2.8463006 100:3.4155612 101:5.5028501 102:5.0284662 103:6.2618642 104:5.4079733 105:3.9848218 106:4.6489592 107:5.5028501 108:4.7438359 109:2.7514238 110:2.4667935 111:1.8026564 112:0.28463 113:0 114:0 115:0.28463 116:0.47438329 117:2.8463006 118:5.6926036 119:9.5825434 120:4.4592056 121:2.8463006 122:3.1309309 123:1.5180265 124:1.0436432 125:1.8975331 126:1.5180265 127:0.94876653 128:0.37950665 129:0.094876662 130:0 131:0 132:2.5616703 133:3.3206844 134:0.37950665 135:0 136:0 137:0 138:0 139:0 140:0 141:0 142:0 143:0 144:0 145:0 146:0 147:0 148:0 149:0 150:0 151:0 152:0 153:0 154:0 155:0 156:0 157:0 158:0 159:0 160:0 161:0 162:0 163:0 164:0 165:0 166:0 167:0 168:0 169:0 170:0 171:0 172:0 173:0 174:0 175:0 176:0 177:0 178:0 179:0 180:0 181:0 182:0 183:0 184:0 185:0 186:0 187:0 188:0 189:0 190:0 191:0 192:0 193:0 194:0 195:0 196:0 197:0 198:0 199:0 200:0 201:0 202:0 203:0 204:0 205:0 206:0 207:0 208:0 209:0 210:0 211:0 212:0 213:0 214:0 215:0 216:0 217:0 218:0 219:0 220:0 221:0 222:0 223:0 224:0 225:0 226:0 227:0 228:0 229:0 230:0 231:0 232:0 233:0 234:0 235:0 236:0 237:0 238:0 239:0 240:0 241:0 242:0 243:0 244:0 245:0 246:0 247:0.094786733 248:0.094786733 249:0 250:0 251:0.094786733 252:0 253:0 254:0 255:0 256:0.094786733 257:0 258:2.6540282 259:0.37914693 260:0.37914693 261:0.18957347 262:0.094786733 263:0.37914693 264:0.75829381 265:0.47393367 266:0.37914693 267:1.800948 268:1.3270142 269:0.47393367 270:0.094786733 271:1.1374407 272:2.3696682 273:2.3696682 274:2.3696682 275:1.2322274 276:3.0331748 277:5.4976277 278:4.8341212 279:9.004734 280:8.1516542 281:9.4786673 282:4.8341212 283:3.9810412 284:5.5924144 285:4.7393346 286:3.6966813 287:4.360188 288:5.4976277 289:1.421801 290:0.37914693 291:0 292:0 293:0 294:0 295:0 296:0 297:0 298:0 299:0 300:0 301:0 302:0 303:0 304:0.2843602 305:0 306:0.47393367 307:0 308:5.4976277 
0.0004640076953013879 0 0 0 0 0 1:0 2:0 3:0 4:0 5:0 6:0 7:0 8:0 9:0 10:0 11:0 12:0 13:0 14:0 15:0 16:0 17:0 18:0 19:0 20:0 21:0 22:2.5123155 23:35.172295 24:51.920418 25:9.2610846 26:1.133005 27:0.049261082 28:0 29:0 30:0 31:0 32:0 33:0 34:0 35:0 36:0 37:0 38:0 39:0 40:0 41:0 42:0 43:0 44:0 45:0 46:0 47:0 48:0 49:0 50:0 51:0 52:0 53:0 54:0.049261082 55:0.049261082 56:0 57:0 58:0 59:0.14778325 60:0.14778325 61:0.19704433 62:0.2955665 63:0.44334978 64:1.2807883 65:4.0394092 66:10.098523 67:13.694583 68:20.147785 69:21.428574 70:16.847292 71:9.4581289 72:1.7241381 73:0 74:0 75:0 76:0 77:0 78:0 79:0 80:0 81:0 82:0 83:0 84:0 85:0 86:0 87:0 88:0 89:0 90:0 91:0 92:0.19704433 93:0.049261082 94:0.2955665 95:0.34482759 96:0.64039415 97:0.44334978 98:0.34482759 99:0.64039415 100:0.68965524 101:0.93596071 102:1.4778327 103:2.1674879 104:2.6108377 105:5.1231532 106:6.1083751 107:6.7487693 108:9.1625624 109:8.1280794 110:8.8177347 111:12.463056 112:14.187194 113:9.2610846 114:3.0049264 115:2.8571432 116:1.674877 117:0.88669962 118:0.64039415 119:0.098522164 120:0 121:0 122:0 123:0 124:0 125:0 126:0 127:0 128:0 129:0 130:0 131:0 132:0 133:0.049261082 134:0 135:0 136:0 137:0 138:0 139:0 140:0 141:0 142:0 143:0 144:0 145:0 146:0 147:0 148:0 149:0 150:0 151:0 152:0 153:0 154:0 155:0 156:0 157:0 158:0 159:0 160:0 161:0 162:0 163:0 164:0 165:0 166:0 167:0 168:0 169:0 170:0 171:0 172:0 173:0 174:0 175:0 176:0 177:0 178:0 179:0 180:0 181:0 182:0 183:0 184:0 185:0 186:0 187:0 188:0 189:0 190:0 191:0 192:0 193:0 194:0 195:0 196:0 197:0 198:0 199:0 200:0 201:0 202:0 203:0 204:0 205:0 206:0 207:0 208:0 209:0 210:0 211:0 212:0 213:0 214:0 215:0 216:0 217:0 218:0 219:0 220:0 221:0 222:0 223:0 224:0 225:0 226:0 227:0 228:0 229:0 230:0 231:0 232:0 233:0 234:0 235:0 236:0 237:0 238:0 239:0 240:0 241:0 242:0 243:0 244:0 245:0 246:0 247:0 248:0 249:0 250:0 251:0 252:0 253:0 254:0 255:0 256:0 257:0 258:0 259:0 260:0 261:0 262:0 263:0 264:0 265:0 266:0 267:0 268:0 269:0 270:0 271:0 272:0 273:0 274:0 275:0 276:0 277:0 278:0 279:0 280:0 281:0 282:0 283:0 284:0 285:0 286:0 287:0 288:0.098473661 289:0.04923683 290:0.19694732 291:0.24618416 292:0.34465781 293:1.1816838 294:5.4160466 295:5.0713892 296:10.09356 297:8.0255957 298:9.6011877 299:11.226017 300:15.903556 301:8.7641544 302:8.4194937 303:11.029068 304:4.3328376 305:0 306:0 307:0 308:0 
0 0 0 0.0005467695897365361 0 0 1:0 2:0 3:0 4:0 5:0 6:0 7:0 8:0 9:0 10:0 11:0 12:0 13:0 14:0 15:0 16:0 17:0 18:0 19:0 20:0.53165776 21:11.986452 22:12.179781 23:28.177744 24:35.427578 25:11.406466 26:0.33832771 27:0 28:0 29:0 30:0 31:0 32:0 33:0 34:0 35:0 36:0 37:0 38:0 39:0 40:0 41:0 42:0 43:0 44:0 45:0 46:0 47:0 48:0 49:0 50:0.096665055 51:0.33832771 52:0.33832771 53:0.86998534 54:2.6099563 55:2.2716291 56:1.2083132 57:0.77332032 58:0.38666022 59:0.7249878 60:0.82165283 61:0.91831785 62:0.7249878 63:2.8516185 64:7.4915514 65:5.2199149 66:5.1232495 67:3.9149325 68:4.3982592 69:3.7216027 70:3.4799404 71:2.3199615 72:2.4166265 73:5.0265841 74:14.934717 75:8.6998615 76:2.1266317 77:0.96665037 78:1.2083132 79:1.0149829 80:2.7066212 81:4.6882553 82:2.8032861 83:0.53165776 84:0.14499758 85:0.38666022 86:0.53165776 87:0.53165776 88:0.48332524 89:0.24166264 90:0 91:0.048332527 92:0 93:0.096665055 94:0 95:0.048332527 96:0.048332527 97:0.096665055 98:0 99:0.096665055 100:0.096665055 101:0.048332527 102:0.86998534 103:3.0449483 104:1.2083132 105:1.0149829 106:1.3049784 107:2.2232966 108:4.0599303 109:9.7631702 110:12.228113 111:14.258066 112:15.514704 113:1.1599807 114:2.8516185 115:4.3982592 116:2.0782993 117:2.4166265 118:3.5282729 119:2.899951 120:2.7066212 121:3.6732702 122:2.6099563 123:0.96665037 124:2.6582887 125:1.3049784 126:0.24166264 127:0.14499758 128:0.14499758 129:0.048332527 130:0.096665055 131:0.048332527 132:0 133:0 134:0 135:0 136:0 137:0 138:0 139:0 140:0 141:0 142:0 143:0 144:0 145:0 146:0 147:0 148:0 149:0 150:0 151:0 152:0 153:0 154:0 155:0 156:0 157:0 158:0 159:0 160:0 161:0 162:0 163:0 164:0 165:0 166:0 167:0 168:0 169:0 170:0 171:0 172:0 173:0 174:0 175:0 176:0 177:0 178:0 179:0 180:0 181:0 182:0 183:0 184:0 185:0 186:0 187:0 188:0 189:0 190:0 191:0 192:0 193:0 194:0 195:0 196:0 197:0 198:0 199:0 200:0 201:0 202:0 203:0 204:0 205:0 206:0 207:0 208:0 209:0 210:0 211:0 212:0 213:0 214:0 215:0 216:0 217:0 218:0 219:0 220:0 221:0 222:0 223:0 224:0 225:0 226:0 227:0 228:0 229:0 230:0 231:0 232:0 233:0 234:0 235:0 236:0 237:0 238:0 239:0 240:0 241:0 242:0 243:0 244:0 245:0 246:0 247:0 248:0 249:0 250:0 251:0 252:0 253:0 254:0 255:0 256:0 257:0 258:0 259:0 260:0 261:0 262:0 263:0 264:0 265:0 266:0 267:0 268:0 269:0 270:0 271:0 272:0 273:0 274:0.048309177 275:0.048309177 276:0.096618354 277:0.096618354 278:0.43478259 279:0.82125622 280:0.57971019 281:0.53140098 282:0.38647342 283:0.57971019 284:0.6763286 285:2.463768 286:6.1835785 287:10.676346 288:10.000015 289:8.5024261 290:4.927536 291:3.1884043 292:2.5603862 293:2.8019316 294:2.5603862 295:2.1739135 296:2.1739135 297:1.6425127 298:1.6425127 299:2.1256044 300:1.256039 301:1.4492759 302:1.7874403 303:2.2222226 304:2.1739135 305:2.463768 306:2.5120771 307:6.1352692 308:12.077316 
0.00479080663128703 0.0009895643104524576 0 0.0006247518948835144 0 0 1:0 2:0 3:0 4:0 5:0 6:0 7:0 8:0.4338395 9:0.10845987 10:0 11:0 12:0 13:0 14:0 15:0 16:0.16268981 17:0.054229934 18:0.21691974 19:0.81344897 20:1.1930586 21:2.0607381 22:34.435902 23:15.726641 24:11.876329 25:20.390398 26:2.3861179 27:1.7895883 28:1.4099785 29:0.48806944 30:0.21691974 31:1.0845987 32:0.10845987 33:0 34:0.054229934 35:0.70498914 36:1.3015186 37:0.4338395 38:0.48806944 39:0.37960956 40:0.32537961 41:0.32537961 42:0.37960956 43:0.32537961 44:0.27114967 45:0.10845987 46:0 47:0 48:0.21691974 49:3.1453376 50:1.2472886 51:0.65075922 52:0.32537961 53:0.5965293 54:0.65075922 55:0.70498914 56:0.48806944 57:0.70498914 58:0.4338395 59:0.4338395 60:0.54229939 61:0.37960956 62:3.7418673 63:6.6160445 64:5.0976119 65:5.8025985 66:8.9479237 67:13.340532 68:9.70714 69:7.6464095 70:4.9891524 71:4.880693 72:5.7483687 73:2.7657278 74:1.7895883 75:1.1930586 76:0.86767888 77:0.75921905 78:2.9826477 79:1.9522783 80:0.37960956 81:0.16268981 82:0 83:0 84:0.054229934 85:0 86:0.10845987 87:0 88:0 89:0 90:0 91:1.1930586 92:0.48806944 93:0.21691974 94:0.054229934 95:0.16268981 96:0.5965293 97:1.0303687 98:0.65075922 99:1.7353584 100:1.4099785 101:0.9219088 102:0.97613871 103:0.86767888 104:1.2472886 105:1.7353584 106:1.3015186 107:2.3861179 108:7.5921798 109:10.574816 110:8.1887074 111:3.4707174 112:1.0845987 113:0.81344897 114:2.169198 115:5.5314498 116:7.1041121 117:11.8221 118:6.1279769 119:6.0737472 120:4.2841659 121:1.3557485 122:0.54229939 123:0.32537961 124:0.054229934 125:0.32537961 126:0 127:0.48806944 128:1.7353584 129:2.0607381 130:0.81344897 131:0.54229939 132:0 133:0 134:0 135:0 136:0 137:0 138:0 139:0 140:0 141:0 142:0 143:0 144:0 145:0 146:0 147:0 148:0 149:0 150:0 151:0 152:0 153:0 154:0 155:0 156:0 157:0 158:0 159:0 160:0 161:0 162:0 163:0 164:0 165:0 166:0 167:0 168:0 169:0 170:0 171:0 172:0 173:0 174:0 175:0 176:0 177:0 178:0 179:0 180:0 181:0 182:0 183:0 184:0 185:0 186:0 187:0 188:0 189:0 190:0 191:0 192:0 193:0 194:0 195:0 196:0 197:0 198:0 199:0 200:0 201:0 202:0 203:0 204:0 205:0 206:0 207:0 208:0 209:0 210:0 211:0 212:0 213:0 214:0 215:0 216:0 217:0 218:0 219:0 220:0 221:0 222:0 223:0 224:0 225:0 226:0 227:0 228:0 229:0 230:0 231:0 232:0 233:0 234:0 235:0 236:0 237:0 238:0 239:0 240:0 241:0 242:0.054200541 243:0.054200541 244:0.054200541 245:0 246:0.054200541 247:0 248:0.21680216 249:0.054200541 250:0.16260162 251:0.16260162 252:1.1382113 253:0.21680216 254:0.054200541 255:0 256:0.37940377 257:0.81300801 258:0.37940377 259:0.054200541 260:0.10840108 261:0.054200541 262:0.10840108 263:0.48780483 264:0.21680216 265:0.48780483 266:0.27100271 267:0.27100271 268:0.16260162 269:0 270:0.16260162 271:0.16260162 272:0 273:0.054200541 274:0 275:0.10840108 276:0.10840108 277:0.10840108 278:0.054200541 279:0.054200541 280:0.054200541 281:0.16260162 282:0.054200541 283:0.10840108 284:2.4390249 285:5.0948567 286:7.8590899 287:5.2574587 288:4.8780541 289:4.0108438 290:3.8482418 291:3.9566431 292:5.6368632 293:12.628706 294:9.1056948 295:2.6016269 296:3.5772386 297:3.5772386 298:2.9268308 299:1.1924118 300:1.6802166 301:0.81300801 302:0.86720854 303:4.6070509 304:0.75880748 305:1.3550134 306:0.81300801 307:0.92140907 308:2.3848243 
0 0 2.365376431299109e-05 0 0 0 1:0 2:0 3:0 4:0 5:0 6:0 7:0 8:0 9:0 10:0 11:0 12:0 13:0 14:0 15:0 16:0 17:0 18:0 19:0 20:0 21:0.37226617 22:8.0037117 23:48.06847 24:37.831501 25:4.2810626 26:1.4890645 27:0 28:0 29:0 30:0 31:0 32:0 33:0 34:0 35:0 36:0 37:0 38:0 39:0 40:0 41:0 42:0 43:0 44:0 45:0 46:0 47:0 48:0 49:0 50:0 51:0 52:0 53:0 54:0 55:0 56:0 57:0 58:0 59:0 60:0 61:1.5355977 62:1.0702654 63:0.9771989 64:1.6751974 65:7.3057146 66:12.238268 67:17.496563 68:17.961899 69:16.193623 70:5.2117248 71:5.7701221 72:3.8622639 73:4.5602612 74:2.2335968 75:0.65146589 76:0.37226617 77:0.69799918 78:0.093066543 79:0.13959982 80:0 81:0 82:0 83:0 84:0 85:0 86:0 87:0 88:0 89:0 90:0 91:0 92:0.093066543 93:0 94:0 95:0.093066543 96:0.093066543 97:0.18613309 98:0.093066543 99:0.27919963 100:0.27919963 101:0.23266636 102:0.60493261 103:0.83759904 104:1.3494648 105:2.8850636 106:4.6998606 107:7.8641119 108:11.586798 109:12.284801 110:9.9115887 111:10.84226 112:18.1015 113:3.071197 114:4.467195 115:3.3503971 116:2.3266635 117:1.6751974 118:0.9771989 119:0.79106575 120:0.46533275 121:0.18613309 122:0.093066543 123:0.046533272 124:0.046533272 125:0 126:0 127:0.046533272 128:0.046533272 129:0.046533272 130:0.046533272 131:0.046533272 132:0 133:0 134:0 135:0 136:0 137:0 138:0 139:0 140:0 141:0 142:0 143:0 144:0 145:0 146:0 147:0 148:0 149:0 150:0 151:0 152:0 153:0 154:0 155:0 156:0 157:0 158:0 159:0 160:0 161:0 162:0 163:0 164:0 165:0 166:0 167:0 168:0 169:0 170:0 171:0 172:0 173:0 174:0 175:0 176:0 177:0 178:0 179:0 180:0 181:0 182:0 183:0 184:0 185:0 186:0 187:0 188:0 189:0 190:0 191:0 192:0 193:0 194:0 195:0 196:0 197:0 198:0 199:0 200:0 201:0 202:0 203:0 204:0 205:0 206:0 207:0 208:0 209:0 210:0 211:0 212:0 213:0 214:0 215:0 216:0 217:0 218:0 219:0 220:0 221:0 222:0 223:0 224:0 225:0 226:0 227:0 228:0 229:0 230:0 231:0 232:0 233:0 234:0 235:0 236:0 237:0 238:0 239:0 240:0 241:0 242:0 243:0 244:0 245:0 246:0 247:0 248:0 249:0 250:0 251:0 252:0 253:0 254:0 255:0 256:0 257:0 258:0 259:0 260:0 261:0 262:0 263:0 264:0 265:0 266:0 267:0 268:0 269:0 270:0 271:0 272:0 273:0 274:0 275:0 276:0 277:0 278:0 279:0 280:0 281:0 282:0 283:0 284:0.046511628 285:0.37209302 286:1.0232561 287:0.046511628 288:0 289:0 290:0 291:0.093023255 292:0.18604653 293:0.37209302 294:0.23255816 295:0.46511626 296:1.5348842 297:1.3488376 298:3.2558153 299:4.5116296 300:5.9534907 301:5.2093043 302:17.255795 303:13.162796 304:15.116285 305:12.883726 306:7.2558169 307:7.116282 308:2.5581405 
0 0.01812252776214297 0 0 0.001863080602967214 0 1:0 2:0 3:0 4:0 5:0 6:0 7:0 8:0 9:0 10:0 11:0 12:0 13:0 14:0 15:0 16:0 17:0 18:0 19:0 20:2.724915 21:5.0605555 22:15.917012 23:33.564144 24:16.695564 25:10.121118 26:8.1747351 27:6.401382 28:1.3840829 29:0 30:0 31:0 32:0 33:0 34:0 35:0 36:0 37:0 38:0 39:0 40:0 41:0 42:0 43:0 44:0 45:0 46:0 47:0 48:0 49:0.043252595 50:2.0761244 51:1.2975777 52:2.5519042 53:1.9896191 54:0.82179922 55:0.60553628 56:1.2543252 57:2.4221461 58:1.0813148 59:1.1245674 60:1.903114 61:4.6280308 62:6.0986147 63:6.0553622 64:4.4550209 65:3.460211 66:4.0224962 67:3.3304529 68:3.5467165 69:3.3737056 70:3.027684 71:4.4117684 72:6.9636641 73:9.3425646 74:5.4498277 75:6.7474017 76:4.1955061 77:2.5519042 78:0.82179922 79:0.30276814 80:0 81:0.08650519 82:0 83:0 84:0 85:0 86:0 87:0 88:0 89:0 90:0 91:0.12975779 92:0 93:0.043252595 94:0.043252595 95:0.12975779 96:1.903114 97:1.8598614 98:3.76298 99:2.9411786 100:1.0813148 101:0.82179922 102:0.99480957 103:2.6384096 104:4.4117684 105:4.3252635 106:4.0224962 107:4.4550209 108:7.1799264 109:7.5691986 110:5.1038079 111:2.9411786 112:7.6557035 113:3.6764746 114:3.027684 115:5.2768178 116:6.8339067 117:4.6712832 118:2.5519042 119:1.0380622 120:1.2543252 121:1.0380622 122:1.2543252 123:0.90830439 124:1.3408303 125:1.0380622 126:0.60553628 127:0.51903111 128:0.51903111 129:0.21626297 130:0.12975779 131:0.043252595 132:0.043252595 133:0.043252595 134:0 135:0 136:0 137:0 138:0 139:0 140:0 141:0 142:0 143:0 144:0 145:0 146:0 147:0 148:0 149:0 150:0 151:0 152:0 153:0 154:0 155:0 156:0 157:0 158:0 159:0 160:0 161:0 162:0 163:0 164:0 165:0 166:0 167:0 168:0 169:0 170:0 171:0 172:0 173:0 174:0 175:0 176:0 177:0 178:0 179:0 180:0 181:0 182:0 183:0 184:0 185:0 186:0 187:0 188:0 189:0 190:0 191:0 192:0 193:0 194:0 195:0 196:0 197:0 198:0 199:0 200:0 201:0 202:0 203:0 204:0 205:0 206:0 207:0 208:0 209:0 210:0 211:0 212:0 213:0 214:0 215:0 216:0 217:0 218:0 219:0 220:0 221:0 222:0 223:0 224:0 225:0 226:0 227:0 228:0 229:0 230:0 231:0 232:0 233:0 234:0 235:0 236:0 237:0 238:0 239:0 240:0 241:0 242:0 243:0 244:0 245:0 246:0 247:0 248:0 249:0 250:0 251:0 252:0 253:0 254:0 255:0 256:0 257:0 258:0 259:0 260:0 261:0 262:0 263:0 264:0 265:0 266:0 267:0 268:0 269:0 270:0 271:0 272:0 273:0 274:0.043233894 275:0.043233894 276:0 277:0.086467788 278:0.17293559 279:0.73497611 280:0.30263728 281:0.12970169 282:0.086467788 283:0.086467788 284:0.51880676 285:0.82144386 286:1.9455246 287:2.853436 288:2.9399037 289:4.2369199 290:5.7933393 291:7.5226941 292:6.225678 293:3.2857747 294:3.2857747 295:3.0696054 296:3.847815 297:3.5884118 298:4.3233876 299:3.199307 300:2.5507989 301:1.9022907 302:2.5507989 303:2.8102021 304:4.4530892 305:7.7388635 306:7.0038877 307:7.8253312 308:4.0207505 
0 0.006264663278804034 0 0 0 0 1:0 2:0 3:0 4:0 5:0 6:0 7:0 8:0.057570525 9:0 10:0.11514105 11:0.11514105 12:0.057570525 13:0.057570525 14:0 15:0.46056417 16:1.5544046 17:0.92112833 18:0.34542313 19:0.46056417 20:1.7846869 21:2.0725396 22:10.420257 23:31.836729 24:23.143446 25:12.895786 26:5.6994786 27:0.8059873 28:0.69084626 29:0.63327575 30:0.63327575 31:0.51813471 32:1.09384 33:2.5331032 34:0.63327575 35:0.17271158 36:0.11514105 37:0.057570525 38:0.17271158 39:0 40:0 41:0 42:0 43:0 44:0 45:0 46:0 47:0 48:0 49:3.7996533 50:2.3028214 51:1.6119752 52:0.69084626 53:0.28785262 54:0.28785262 55:1.09384 56:0.8059873 57:0.86355782 58:0.57570523 59:0.69084626 60:0.34542313 61:0.51813471 62:6.1024718 63:13.126068 64:10.995961 65:9.959693 66:6.1024718 67:5.3540559 68:6.3903241 69:5.6994786 70:8.2325792 71:5.5843377 72:3.8572237 73:0.97869885 74:0.57570523 75:0.74841678 76:0.2302821 77:0.46056417 78:0.28785262 79:0.40299365 80:0.17271158 81:0.40299365 82:0.34542313 83:0.057570525 84:0.11514105 85:0 86:0 87:0 88:0 89:0 90:0 91:0.28785262 92:0.57570523 93:0.28785262 94:0.2302821 95:0.17271158 96:0.34542313 97:0.057570525 98:0.40299365 99:0.57570523 100:0.8059873 101:0.69084626 102:0.74841678 103:1.6119752 104:3.6845124 105:4.4329286 106:4.9510627 107:4.4329286 108:5.9873309 109:7.1387401 110:9.211277 111:14.277477 112:2.6482441 113:0.69084626 114:0.97869885 115:3.2239487 116:4.8934922 117:3.1088078 118:4.5480695 119:3.1088078 120:2.3603919 121:0.86355782 122:0.86355782 123:0.57570523 124:0.34542313 125:0.2302821 126:0.34542313 127:0.34542313 128:0.11514105 129:0.74841678 130:1.1514106 131:1.4392635 132:4.8934922 133:1.6119752 134:0.057570525 135:0 136:0 137:0 138:0 139:0 140:0 141:0 142:0 143:0 144:0 145:0 146:0 147:0 148:0 149:0 150:0 151:0 152:0 153:0 154:0 155:0 156:0 157:0 158:0 159:0 160:0 161:0 162:0 163:0 164:0 165:0 166:0 167:0 168:0 169:0 170:0 171:0 172:0 173:0 174:0 175:0 176:0 177:0 178:0 179:0 180:0 181:0 182:0 183:0 184:0 185:0 186:0 187:0 188:0 189:0 190:0 191:0 192:0 193:0 194:0 195:0 196:0 197:0 198:0 199:0 200:0 201:0 202:0 203:0 204:0 205:0 206:0 207:0 208:0 209:0 210:0 211:0 212:0 213:0 214:0 215:0 216:0 217:0 218:0 219:0 220:0 221:0 222:0 223:0 224:0 225:0 226:0 227:0 228:0 229:0 230:0 231:0 232:0 233:0 234:0 235:0 236:0 237:0 238:0 239:0 240:0 241:0 242:0 243:0.1150748 244:0.057537399 245:0 246:0.057537399 247:0.057537399 248:0.17261221 249:0.057537399 250:0.1150748 251:0.057537399 252:0.23014961 253:0.057537399 254:0.23014961 255:0.057537399 256:0.1150748 257:0 258:0 259:0.057537399 260:0 261:0.057537399 262:0 263:0.057537399 264:0.057537399 265:0.1150748 266:0.17261221 267:0.1150748 268:0.057537399 269:0 270:0.1150748 271:1.4384351 272:1.2658228 273:1.2658228 274:1.2082853 275:1.1507479 276:0.57537401 277:0.74798614 278:0.17261221 279:0.34522441 280:0.63291138 281:0.86306089 282:1.2658228 283:1.4959725 284:2.5316453 285:5.3509793 286:6.4441929 287:3.8550036 288:4.3728409 289:4.0276155 290:2.8768692 291:3.2220931 292:2.7042572 293:2.8768692 294:3.6248543 295:4.8331413 296:4.487916 297:3.3371677 298:3.739929 299:4.8331413 300:4.487916 301:8.7456894 302:2.9344065 303:1.2658228 304:0.34522441 305:0.287687 306:0.23014961 307:1.8987346 308:2.0713468 
0.03125 0.009692685196139911 0.002267228795502254 0.03125 0.03125 0.0160107232355716 1:100.08148 2:0 3:0 4:0 5:0 6:0 7:0 8:0 9:0 10:0 11:0 12:0 13:0 14:0 15:0 16:0 17:0 18:0 19:0 20:0 21:0 22:0 23:0 24:0 25:0 26:0 27:0 28:0 29:0 30:0 31:0 32:0 33:0 34:0 35:0 36:0 37:0 38:0 39:0 40:0 41:0 42:0 43:0 44:0 45:0 46:100.08148 47:0 48:0 49:0 50:0 51:0 52:0 53:0 54:0 55:0 56:0 57:0 58:0 59:0 60:0 61:0 62:0 63:0 64:0 65:0 66:0 67:0 68:0 69:0 70:0 71:0 72:0 73:0 74:0 75:0 76:0 77:0 78:0 79:0 80:0 81:0 82:0 83:0 84:0 85:0 86:0 87:0 88:0 89:0 90:0 91:100.08148 92:0 93:0 94:0 95:0 96:0 97:0 98:0 99:0 100:0 101:0 102:0 103:0 104:0 105:0 106:0 107:0 108:0 109:0 110:0 111:0 112:0 113:0 114:0 115:0 116:0 117:0 118:0 119:0 120:0 121:0 122:0 123:0 124:0 125:0 126:0 127:0 128:0 129:0 130:0 131:0 132:0 133:0 134:0 135:0 136:0 137:0 138:0 139:0 140:0 141:0 142:0 143:0 144:0 145:0 146:0 147:0 148:0 149:0 150:0 151:0 152:0 153:0 154:0 155:0 156:0 157:0 158:0 159:0 160:0 161:0 162:0 163:0 164:0 165:0 166:0 167:0 168:0 169:0 170:0 171:0 172:0 173:0 174:0 175:0 176:0 177:0 178:0 179:0 180:0 181:0.082101807 182:0 183:0 184:0 185:0 186:0 187:0 188:0 189:0 190:0 191:0 192:0 193:0 194:0 195:0 196:0 197:0 198:0 199:0 200:0 201:0 202:0 203:0 204:0 205:0 206:0 207:0 208:0 209:0 210:0 211:0 212:0 213:0 214:0 215:0 216:0 217:0 218:0 219:0 220:0 221:0 222:0 223:0 224:0 225:0 226:0 227:0 228:0 229:0 230:0 231:0 232:0 233:0 234:0 235:0 236:0 237:0 238:0 239:0 240:0 241:0 242:0 243:0 244:0 245:0 246:0 247:0 248:0 249:0 250:0 251:0 252:0 253:0 254:0 255:0 256:0 257:0 258:0 259:0 260:0.082101807 261:0 262:0.16420361 263:0.082101807 264:0 265:0.49261081 266:0.16420361 267:0.16420361 268:0.082101807 269:0 270:0.32840723 271:0.49261081 272:0.082101807 273:0.16420361 274:0 275:0 276:0.57471263 277:1.5599345 278:1.0673236 279:1.6420363 280:2.1346471 281:2.4630544 282:3.8587854 283:3.8587854 284:5.4187198 285:7.635469 286:9.5238104 287:10.755338 288:8.784894 289:4.6798034 290:4.7619052 291:4.844007 292:4.0229888 293:2.5451562 294:2.1346471 295:2.9556653 296:3.2019708 297:3.0377672 298:1.80624 299:2.1346471 300:0.73891628 301:0.49261081 302:0.16420361 303:0.57471263 304:0.24630542 305:0 306:0 307:0 308:0 
0 0 0 0.000538281393453838 0 0 1:0 2:0 3:0 4:0 5:0 6:0 7:0 8:0 9:0.14985014 10:0.24975024 11:0.59940064 12:1.5484512 13:0.099900097 14:0.14985014 15:0.24975024 16:0.19980019 17:0.34965032 18:1.6483512 19:5.194809 20:6.5934124 21:4.7452579 22:6.9430633 23:21.878017 24:27.722126 25:9.6903038 26:2.8971033 27:2.1478515 28:1.9980012 29:1.9980012 30:0.39960039 31:0.74925083 32:0.69930077 33:0.34965032 34:0.099900097 35:0.14985014 36:0.44955045 37:0.099900097 38:0 39:0 40:0 41:0 42:0 43:0 44:0 45:0 46:0 47:0 48:0 49:0.49950051 50:1.1488512 51:0.14985014 52:0.099900097 53:1.3986012 54:2.5474524 55:2.7472529 56:3.196804 57:2.3976021 58:2.347652 59:2.1978016 60:3.2967043 61:5.5444598 62:4.5454574 63:4.3456569 64:2.4475522 65:2.2477517 66:1.7482512 67:2.2977018 68:2.7972031 69:4.0959063 70:2.1978016 71:1.2987012 72:0.94905108 73:1.5484512 74:5.6443601 75:6.5434623 76:3.3966045 77:2.8971033 78:2.5474524 79:2.4475522 80:6.6433625 81:2.9470534 82:2.4975023 83:1.4485512 84:1.4485512 85:1.3486512 86:0.14985014 87:0.14985014 88:0.14985014 89:1.3486512 90:0.34965032 91:0 92:0 93:0.049950048 94:0.14985014 95:0.89910102 96:0.54945058 97:0.59940064 98:0.54945058 99:0.89910102 100:1.4485512 101:1.6483512 102:1.4985012 103:1.5484512 104:1.9980012 105:2.1478515 106:2.1978016 107:3.996006 108:7.4425645 109:9.7902031 110:8.8411598 111:8.3416634 112:6.0939112 113:0.44955045 114:2.9470534 115:5.6443601 116:0.89910102 117:0.19980019 118:0.44955045 119:1.8481512 120:1.2987012 121:1.2487512 122:1.9980012 123:2.5974026 124:3.196804 125:2.3976021 126:2.7972031 127:2.0979013 128:1.7482512 129:6.5434623 130:0.99900115 131:0 132:0 133:0 134:0 135:0 136:0 137:0 138:0 139:0 140:0 141:0 142:0 143:0 144:0 145:0 146:0 147:0 148:0 149:0 150:0 151:0 152:0 153:0 154:0 155:0 156:0 157:0 158:0 159:0 160:0 161:0 162:0 163:0 164:0 165:0 166:0 167:0 168:0 169:0 170:0 171:0 172:0 173:0 174:0 175:0 176:0 177:0 178:0 179:0 180:0 181:0 182:0 183:0 184:0 185:0 186:0 187:0 188:0 189:0 190:0 191:0 192:0 193:0 194:0 195:0 196:0 197:0 198:0 199:0 200:0 201:0 202:0 203:0 204:0 205:0 206:0 207:0 208:0 209:0 210:0 211:0 212:0 213:0 214:0 215:0 216:0 217:0 218:0 219:0 220:0 221:0 222:0 223:0 224:0 225:0 226:0 227:0 228:0 229:0 230:0 231:0 232:0 233:0 234:0 235:0 236:0 237:0 238:0 239:0 240:0 241:0 242:0 243:0 244:0.049925111 245:0 246:0 247:0.049925111 248:0 249:0 250:0.19970046 251:0.099850222 252:0.099850222 253:0.099850222 254:0 255:0 256:0 257:0.099850222 258:0.14977534 259:0.099850222 260:0.3494758 261:0.049925111 262:0.14977534 263:0.74887663 264:0.49925116 265:0.19970046 266:0.19970046 267:0.24962558 268:0.8986519 269:1.2980527 270:0.79880172 271:1.2481276 272:0.84872681 273:1.1982025 274:2.0469291 275:1.8472286 276:1.0983523 277:1.3979028 278:1.8472286 279:1.8472286 280:3.5446818 281:3.3949065 282:3.3949065 283:2.0469291 284:2.1467793 285:3.9440825 286:4.5931115 287:3.1952062 288:3.4448316 289:3.5946069 290:4.4932609 291:2.0469291 292:1.2481276 293:0.74887663 294:0.59910136 295:1.3979028 296:0.69895154 297:0.74887663 298:0.79880172 299:0.84872681 300:1.497753 301:1.6475283 302:1.2481276 303:2.3964047 304:8.3874331 305:5.0424395 306:5.0424395 307:5.2920661 308:2.7458804 
0 0.0005270398719910368 0 0 0 0 1:0 2:0 3:0 4:0 5:0 6:0 7:0 8:0 9:0 10:0 11:0 12:0 13:0 14:0.060422961 15:0.12084592 16:0.18126889 17:0.12084592 18:0.24169184 19:0.30211481 20:1.2084594 21:12.507544 22:18.126873 23:25.98185 24:22.356476 25:10.574011 26:0.60422963 27:0.42296073 28:0.90634441 29:0.7854985 30:0.96676737 31:0.66465259 32:0.18126889 33:0.54380667 34:0.36253777 35:0.36253777 36:0.66465259 37:0.24169184 38:0.060422961 39:0.42296073 40:0.42296073 41:0.30211481 42:0.24169184 43:0.060422961 44:0.060422961 45:0 46:0 47:0 48:3.4441082 49:1.9335356 50:0.90634441 51:0.30211481 52:0.12084592 53:0.12084592 54:0.18126889 55:0.060422961 56:0.12084592 57:0.060422961 58:0.24169184 59:0.12084592 60:1.8126895 61:4.290029 62:6.5256763 63:5.3172183 64:6.5256763 65:7.4320197 66:9.7280903 67:5.9214473 68:9.6676674 69:9.1842842 70:5.8006015 71:4.7129893 72:3.8066456 73:4.4108748 74:4.290029 75:0.90634441 76:0.66465259 77:0 78:0 79:0.12084592 80:0.30211481 81:0.24169184 82:0 83:0.12084592 84:0.42296073 85:0.24169184 86:0 87:0 88:0 89:0 90:0 91:0.60422963 92:0.30211481 93:0.42296073 94:0.36253777 95:0.24169184 96:0.24169184 97:0.66465259 98:0.54380667 99:0.24169184 100:0.48338369 101:0.30211481 102:0.72507554 103:0.54380667 104:0.72507554 105:1.6314205 106:2.0543816 107:4.4108748 108:8.3383636 109:11.359509 110:7.5528655 111:4.290029 112:1.0876133 113:0.54380667 114:0.96676737 115:4.3504519 116:8.4592094 117:9.1238613 118:8.0362492 119:6.9486365 120:4.1691833 121:1.5709975 122:0.7854985 123:0.24169184 124:0.18126889 125:0.36253777 126:0.18126889 127:0.24169184 128:1.3293054 129:4.2296062 130:1.0271903 131:0.12084592 132:0 133:0.060422961 134:0 135:0 136:0 137:0 138:0 139:0 140:0 141:0 142:0 143:0 144:0 145:0 146:0 147:0 148:0 149:0 150:0 151:0 152:0 153:0 154:0 155:0 156:0 157:0 158:0 159:0 160:0 161:0 162:0 163:0 164:0 165:0 166:0 167:0 168:0 169:0 170:0 171:0 172:0 173:0 174:0 175:0 176:0 177:0 178:0 179:0 180:0 181:0 182:0 183:0 184:0 185:0 186:0 187:0 188:0 189:0 190:0 191:0 192:0 193:0 194:0 195:0 196:0 197:0 198:0 199:0 200:0 201:0 202:0 203:0 204:0 205:0 206:0 207:0 208:0 209:0 210:0 211:0 212:0 213:0 214:0 215:0 216:0 217:0 218:0 219:0 220:0 221:0 222:0 223:0 224:0 225:0 226:0 227:0 228:0 229:0 230:0 231:0 232:0 233:0 234:0 235:0 236:0 237:0 238:0 239:0 240:0 241:0 242:0 243:0.060386475 244:0 245:0 246:0 247:0 248:0 249:0 250:0 251:0.12077295 252:0.18115942 253:0 254:0.18115942 255:0.12077295 256:0.060386475 257:0.12077295 258:0 259:0.42270532 260:0.30193236 261:0.60386473 262:0.2415459 263:0.36231884 264:0.18115942 265:0.18115942 266:0.18115942 267:0.060386475 268:0 269:0.060386475 270:0.060386475 271:0 272:0 273:0.12077295 274:0.060386475 275:0.18115942 276:0.2415459 277:0.54347825 278:0.30193236 279:0.30193236 280:0.2415459 281:0.12077295 282:0.060386475 283:0.42270532 284:1.9927528 285:3.321254 286:3.9855046 287:4.8309178 288:5.3140111 289:4.8309178 290:5.7971044 291:6.2801976 292:5.676331 293:4.1666646 294:3.4420269 295:5.7367177 296:4.7705312 297:3.743959 298:3.8043454 299:7.0652242 300:4.6497579 301:3.8647318 302:1.5096614 303:2.4758441 304:2.596617 305:0.72463769 306:0.90579712 307:1.0869565 308:1.3285022 
